svm_type c_svc
kernel_type linear
nr_class 7
total_sv 8606
rho -0.993278 -0.79377 -1.11805 -0.730729 0.632294 -1.42716 0.240325 -0.609011 -0.310037 1.19256 -0.973672 -0.804224 -0.204153 1.22117 -0.81301 0.341486 1.09825 -0.217582 0.871327 -0.308374 -1.53604
label 4 2 5 3 7 1 6
probA -2.92075 -2.63091 -4.06958 -1.96912 -1.51363 -3.76119 -3.08332 -3.44924 -2.84539 -2.6386 -3.95192 -3.42752 -2.57075 -2.56322 -3.23221 -4.17035 -3.72516 -3.78455 -1.98656 -2.88512 -3.41725
probB 0.0440141 -0.285595 0.442499 0.0257559 -0.037789 0.405642 -0.221593 0.251485 -0.0478156 0.0592915 0.417719 0.343601 -0.315338 0.449536 0.10093 -0.327141 -0.108956 0.286919 0.0835737 -0.363427 0.0139174
nr_sv 1774 1051 482 517 2493 2041 248
SV
0 0.08788412711299973 0 0.06937946409027432 0 0 14320:1 17219:1 26803:1 40426:1 40455:1 40462:1 40471:1 40488:1 
1 0 0 0.3100445437344296 1 0 40452:1 40474:1 40495:1 40502:1 
0.2253328628064042 1 0.006768141357792296 1 1 0 40428:1 40442:1 40457:1 40479:1 40494:1 40512:1 
0 0.1033404885132324 0.08297637954436846 0.8110637887321036 0 0 2600:1 8785:1 39973:1 40429:1 40440:1 40448:1 40470:1 40498:1 40510:1 
0.4239540158276848 1 0.06222963404439181 1 1 0 38658:1 40427:1 40443:1 40457:1 40479:1 40501:1 40506:1 
1 1 0 1 1 0 35742:1 40433:1 40437:1 40457:1 40479:1 40498:1 40506:1 
0 0 0 0.830264482433358 1 0 40457:1 40466:1 40477:1 40481:1 40493:1 40510:1 
0 0 0 1 0 0 34881:1 40428:1 40440:1 40448:1 40470:1 40499:1 
0 0 1 1 0.4639271707455039 0 31164:1 40429:1 40452:1 40466:1 40490:1 40495:1 40510:1 
0.5663373393901487 0 0 0 0.03707282516227617 0 30799:1 35637:1 40495:1 40506:1 
0.3765542961394591 0 0.006670982864510459 0.1789307282697812 0.2802148705234333 0.08862449370716716 11272:1 27301:1 40455:1 40466:1 40479:1 40484:1 40499:1 40510:1 
0 0.2017418073415034 0.2277163217277217 0 0.7940021535869556 0 236:1 18358:1 28464:1 31526:1 37821:1 40429:1 40448:1 40462:1 40470:1 40484:1 40495:1 40510:1 
0 0 0 0.2680489984630013 0 0 13336:1 19736:1 24789:1 37767:1 40427:1 40437:1 40455:1 40462:1 40473:1 40487:1 40499:1 40506:1 
0 0 0 0 0.2175101216849072 0 1153:1 39780:1 40429:1 40446:1 40499:1 40506:1 
0.3314638939176774 0.166105792411626 0.06227000053794902 0.1093101772541913 0.7658025235757854 0 15250:1 27538:1 37736:1 40454:1 40462:1 40471:1 40488:1 40501:1 40506:1 
0 0 0 0.09587758439204618 0 0 7110:1 34881:1 40434:1 40444:1 40448:1 40470:1 40499:1 40510:1 
0 0.36084101684416 0.06271373016036756 0.3437694839207341 0.5164431028561822 0.0007746167578604944 26526:1 40457:1 40466:1 40479:1 40488:1 40499:1 40511:1 
0 0 0 0.1938294101954724 1 0 34192:1 40499:1 40512:1 
0.06133003706702703 0 0 0 0 0 16621:1 24243:1 34895:1 40455:1 40462:1 40477:1 40481:1 40495:1 
0 0 0.09980395097335445 0 1 0 20275:1 34113:1 40455:1 40461:1 40473:1 40485:1 40499:1 
0 0 0.1643637117150752 0 0.8998907197810257 0 33142:1 40411:1 40426:1 40448:1 40470:1 40499:1 40510:1 
0 0 0 1 1 0 34727:1 40428:1 40446:1 40495:1 40507:1 
0 0 0.02689995683222582 0 0 0 31067:1 35715:1 40495:1 40510:1 
0 0 0 1 0.8558187880885607 0 39780:1 40432:1 40446:1 40448:1 40470:1 40498:1 40506:1 
0 0 0 0 0.5594153925272243 0 36243:1 40455:1 40477:1 40491:1 40506:1 
0 0 0 0 0.154735107107568 0 19553:1 20824:1 27126:1 40452:1 40466:1 40477:1 40484:1 40501:1 40512:1 
1 0 0 1 1 0 13975:1 20359:1 36961:1 40435:1 40441:1 40451:1 40460:1 40473:1 40481:1 40498:1 40510:1 
0 0 0 0.4519187525295592 1 0 32350:1 40448:1 40470:1 40499:1 40510:1 
0 0 0 0.200434665241334 0 0 7089:1 32748:1 36845:1 40430:1 40440:1 40448:1 40470:1 40495:1 40510:1 
0 0.1677939363215095 0.02987377863303396 1 1 0 6918:1 30836:1 37906:1 40429:1 40440:1 40499:1 40506:1 
0 0 0 0 1 0 13765:1 34648:1 40426:1 40455:1 40463:1 40474:1 40485:1 40499:1 40512:1 
0 0 0 0.1228233535986223 1 0.4834440229263174 34113:1 40429:1 40444:1 40452:1 40462:1 40479:1 40485:1 40499:1 
0 0 0 1 0 0 8712:1 34881:1 40427:1 40444:1 40499:1 40510:1 
0.09128865575167852 0 0.3288399191098008 0.2101882159198097 0.00816607989220253 0 10767:1 16851:1 21904:1 26340:1 35538:1 40433:1 40451:1 40462:1 40473:1 40488:1 40491:1 40506:1 
0.7343697691461243 0.3008146328072749 0 1 1 0.5262294185360137 28257:1 40425:1 40443:1 40448:1 40463:1 40472:1 40484:1 40494:1 40506:1 
0 0 0.1328950496206366 0 0.1382121316512175 0 17020:1 22073:1 25275:1 40454:1 40462:1 40473:1 40488:1 
0.2772531437953483 0 0 0.4642513315621651 1 0 10724:1 20830:1 40434:1 40446:1 40455:1 40468:1 40477:1 40490:1 40496:1 40512:1 
0.4521973875483879 0.01554465418539153 0.04063463315045391 0.03877608769683055 1 0 18974:1 40449:1 40466:1 40479:1 40481:1 40493:1 40510:1 
0.3158656497454295 0 0 0 1 0 31792:1 40455:1 40459:1 40477:1 40481:1 40499:1 40510:1 
0.1211600198393391 0 0 1 0.8369491767152307 0 20133:1 30931:1 40428:1 40446:1 40452:1 40462:1 40473:1 40485:1 40499:1 40505:1 
0 0 0 1 1 0 14320:1 24426:1 38195:1 40455:1 40477:1 40499:1 40510:1 
0.1578898289546103 0 0 0.0795713387354732 0.6654332999463097 0 31473:1 39822:1 40455:1 40459:1 40477:1 40481:1 40499:1 40510:1 
0 0 0 0 0.2811244431092786 0 30944:1 40495:1 40502:1 
0 0 0 0 1 0 3230:1 39780:1 40433:1 40443:1 40448:1 40470:1 40498:1 40506:1 
0 1 0 0.9548564586558645 0.9159992436974682 0.2832324194585875 25636:1 40448:1 40468:1 40479:1 40484:1 40496:1 40510:1 
0 0 0.5812323048121905 0 0 0 606:1 19568:1 39240:1 40429:1 40436:1 40454:1 40462:1 40477:1 40485:1 40498:1 40506:1 
0 0 0 0 0.737420371724658 0 29767:1 34113:1 40426:1 40449:1 40460:1 40471:1 40488:1 40499:1 40503:1 
0.3687374537756267 0 0 1 1 0 32488:1 40435:1 40444:1 40452:1 40474:1 40495:1 
0 0 0 1 0 0 34895:1 40431:1 40443:1 40448:1 40470:1 40495:1 40510:1 
0 0 0 0.57975536578953 1 0 35429:1 40433:1 40448:1 40470:1 40501:1 40506:1 
1 0.04064960069354588 0.09249233243838348 1 1 0 40429:1 40438:1 40448:1 40470:1 40495:1 40510:1 
0 0 0 0 0.4504997691854215 0 22287:1 40449:1 40463:1 40473:1 40484:1 40501:1 40505:1 
0.1455810624075975 0.1347051979003786 0 0.2205083913673711 1 0 17436:1 25130:1 40457:1 40462:1 40477:1 40481:1 40495:1 40510:1 
0.7037493494156983 0 0 0.1845254694329836 1 0.4353745559942805 17663:1 20586:1 40449:1 40462:1 40477:1 40481:1 40499:1 40512:1 
1 0 0.281395872125784 0 0 0.06081489028222425 5878:1 11512:1 21618:1 34187:1 40433:1 40440:1 40451:1 40468:1 40473:1 40490:1 40495:1 40507:1 
0.5049912387715435 0.0494925594423533 0.1978828325086603 0 0.04183014605400531 0 20501:1 36154:1 40449:1 40465:1 40477:1 40481:1 40492:1 40506:1 
0.04418340163018392 0 0 0 0.1570669132444101 0 14113:1 15304:1 20223:1 25454:1 34649:1 40455:1 40466:1 40477:1 40484:1 40495:1 40512:1 
1 0.164338404963123 0.1508078104187728 0.1207312623431848 0.8127981852034534 0 11391:1 21497:1 34616:1 40451:1 40473:1 40495:1 
0.1094605370395578 0 0 0 0.5133983730946488 0 39826:1 40499:1 40506:1 
0 0 0.3179352286096477 1 1 0 40493:1 40503:1 
0 0 0 0 1 0 40448:1 40470:1 40493:1 40507:1 
0.2695859493429182 0.221869221949029 0.2657601010372054 0.2676129391790713 0.9580491228970166 0 38484:1 40449:1 40458:1 40473:1 40488:1 40499:1 40506:1 
0 0 0 1 0 0 4278:1 9678:1 40433:1 40444:1 40448:1 40470:1 40493:1 40502:1 
0 0 0 0.469649605547429 1 0.2567849839243033 4660:1 8252:1 40429:1 40440:1 40448:1 40470:1 40496:1 40511:1 
0.5402651252031015 0.5293548239137682 0.02106449092229983 1 1 0 4269:1 36032:1 40433:1 40444:1 40457:1 40479:1 40493:1 40506:1 
0.8365124781282306 0 0.03122530420726851 0 0.4806126794745409 0.04756182799860852 33815:1 35560:1 40455:1 40459:1 40490:1 40499:1 40506:1 
0.3031403024692084 0.2207121056138216 0.02088083397080482 0.7516373403463261 0 0 3170:1 7700:1 15530:1 25636:1 33180:1 40433:1 40440:1 40448:1 40462:1 40470:1 40484:1 40499:1 40509:1 
0.1249031114225339 0 0 0 0.7062620036676664 0 14645:1 15445:1 24751:1 25551:1 40455:1 40466:1 40477:1 40488:1 
0.2521733475955772 0.08632627432709646 0 0.03611522560284654 0.137188388613214 0.0288706235257684 18146:1 24350:1 31459:1 40399:1 40452:1 40466:1 40473:1 40490:1 40499:1 40506:1 
0.3488680978320213 0 0.651679699776792 1 1 0 10295:1 40446:1 40451:1 40468:1 40477:1 40487:1 
0.20596473843171 0.1053901747825789 0.1117544659184674 0 0.3539122537210127 0.08314714698655927 15437:1 23230:1 37627:1 40454:1 40462:1 40477:1 40487:1 40501:1 40506:1 
0.8799407999995476 0.08559996532874321 0.1413523274058258 0.8098013889982336 0.5206350255535758 0.1374202661232785 4392:1 36154:1 40429:1 40440:1 40452:1 40474:1 40492:1 40506:1 
0 0 0 0.9382635866180239 1 0 32768:1 40448:1 40470:1 40499:1 40507:1 
0.0679227369233852 0.1232824536073749 0.1160098923477585 0.07550790366562814 0.3269882496338382 0 16188:1 26294:1 31274:1 40457:1 40466:1 40479:1 40488:1 40495:1 40512:1 
0 0 0 0.5306011520329671 0 0 9827:1 18389:1 29269:1 36219:1 40425:1 40440:1 40457:1 40466:1 40474:1 40484:1 40496:1 40510:1 
0.2032063110671045 0 0 0.7720743471693111 0.117541754287776 0.124047887784593 4577:1 5242:1 15533:1 26428:1 40429:1 40440:1 40449:1 40466:1 40479:1 40488:1 40498:1 40505:1 
1 0.5808756074791122 0 0 1 0 30485:1 40455:1 40462:1 40473:1 40485:1 40495:1 
0 1 0.03303055863361664 1 1 0.08874181573311858 39184:1 40446:1 40457:1 40479:1 40496:1 40510:1 
0 0 0 0.08615253627528212 0.08235361395444567 0.3231381281260085 19190:1 24620:1 33095:1 40449:1 40466:1 40477:1 40488:1 40499:1 40511:1 
0 0 0 0.7458150690065077 1 0 11967:1 22073:1 38031:1 40435:1 40451:1 40473:1 40493:1 40510:1 
0 0 0 1 1 0 40435:1 40446:1 40447:1 40459:1 40469:1 40481:1 40499:1 40509:1 
0.8986146748374469 0 0 0 0 0 35429:1 40452:1 40466:1 40473:1 40481:1 40498:1 40506:1 
0 1 0 1 1 0 40501:1 40502:1 
0 0 0 0 1 0 40448:1 40470:1 40496:1 40505:1 
0.42405044805877 0.7986830928975842 0 0 0 0 18446:1 28552:1 40457:1 40462:1 40479:1 40484:1 40501:1 40506:1 
0 0 1 0 0.7302537746697976 0 4028:1 18446:1 28552:1 40429:1 40457:1 40462:1 40479:1 40484:1 40494:1 40508:1 
0.5298006261905066 0.4850780562875222 0 0.6625446791931632 0 0.05201577454454764 1004:1 39030:1 40429:1 40452:1 40466:1 40490:1 40497:1 40510:1 
0 0 0 0 6.152431824477574e-05 0 264:1 9827:1 15348:1 25454:1 39375:1 40429:1 40440:1 40448:1 40462:1 40470:1 40484:1 40501:1 40506:1 
0 0 0 0 1 0 34113:1 40455:1 40461:1 40475:1 40485:1 40499:1 
0 1 0 1 1 0 32733:1 40435:1 40441:1 40457:1 40479:1 40499:1 40509:1 
0 0 0 0 1 0 13765:1 33142:1 40455:1 40460:1 40471:1 40481:1 40499:1 40512:1 
0 0 0 0.1313275232525972 0 0 1072:1 22584:1 27126:1 40433:1 40443:1 40457:1 40468:1 40477:1 40484:1 
0.1708966732638895 0.17159900763385 0.06199662580542104 1 1 0 34949:1 40429:1 40444:1 40495:1 
0.02276108682234844 0 0 0 0.4810275137282401 0 3230:1 23314:1 32158:1 37551:1 40433:1 40448:1 40461:1 40473:1 40484:1 40499:1 40506:1 
0.1376107436051638 0 0.07061217113056049 1 0.1018264286034717 0 14736:1 19722:1 21609:1 40435:1 40437:1 40455:1 40466:1 40473:1 40487:1 40501:1 40512:1 
0 0 0 0 0.9425344586585237 0 34881:1 40448:1 40470:1 40499:1 40512:1 
1 0.1643603046490937 0.1695367199648828 1 1 0 412:1 5446:1 40429:1 40440:1 40457:1 40463:1 40477:1 40488:1 
0 0 0 0 1 0 34727:1 40495:1 40504:1 
0 0 0 0 1 0 40448:1 40470:1 40498:1 40505:1 
1 1 1 1 1 0.5200910518409786 40457:1 40479:1 40501:1 40507:1 
0 0 0 0 1 0 40448:1 40470:1 40494:1 40508:1 
0 0 0 1 1 0 33868:1 40431:1 40443:1 40457:1 40459:1 40475:1 40487:1 40499:1 
0 0 0 0 1 0 40448:1 40470:1 40494:1 40506:1 
0.3664704879322681 0 0.01870619747731378 0 1 0 21314:1 30979:1 38921:1 40433:1 40455:1 40466:1 40473:1 40490:1 40495:1 40510:1 
0.361820861540104 1 0.2267388346773423 0.4613170563197631 1 0 38601:1 40457:1 40479:1 40501:1 40510:1 
0 0 0 1 0.5968031374706725 0 38708:1 40431:1 40443:1 40448:1 40458:1 40475:1 40487:1 40496:1 40510:1 
0 0 0 0 1 0 34131:1 40448:1 40470:1 40499:1 
0 0 0 0.6177140155960317 0.2969440216673807 0 749:1 9322:1 39934:1 40429:1 40444:1 40493:1 40510:1 
0.1254372487926059 0 0 0 0 0 15908:1 24789:1 25454:1 40452:1 40462:1 40473:1 40484:1 40492:1 40511:1 
1 0 0.7554892818013057 1 1 0 40431:1 40443:1 40457:1 40462:1 40475:1 40487:1 40498:1 40506:1 
0 0 0 0 1 0 33868:1 40448:1 40470:1 40499:1 40509:1 
0.04802794005810622 0 0 0.1089292980400472 0.1274886886976616 0 15279:1 31097:1 37112:1 40426:1 40452:1 40466:1 40478:1 40481:1 40499:1 40506:1 
0 0 0 1 0.5447391644584895 0.0087872406166248 18146:1 20742:1 29287:1 40435:1 40446:1 40452:1 40466:1 40473:1 40488:1 
0 0 0 1 1 0 40457:1 40460:1 40477:1 40481:1 40491:1 40510:1 
0.2028674756968774 0.4328146337854807 0 1 0.18013589561595 0.06351545855713267 4671:1 40429:1 40436:1 40449:1 40462:1 40479:1 40488:1 40498:1 40502:1 
1 0 0.3290715088792864 0 1 0 37353:1 40455:1 40466:1 40479:1 40488:1 40499:1 40506:1 
0 0 0 1 1 0 34648:1 40433:1 40446:1 40499:1 40512:1 
0.7388562416224617 0.3236968984294725 0.2114819202849604 1 1 0.05247587963742564 13372:1 32179:1 40427:1 40441:1 40455:1 40465:1 40476:1 40490:1 40495:1 40506:1 
0.3851210488476491 0.2416638308716668 0.1109548219236837 0.989635426791393 1 0 1153:1 37674:1 40429:1 40446:1 40499:1 40506:1 
0.02229771722444163 0 0 0 1 0.188415781293158 14137:1 24243:1 34772:1 40455:1 40459:1 40477:1 40481:1 40495:1 40510:1 
1 1 0 1 1 0 40499:1 40506:1 
0.3084694679447833 0.002027738759320438 0 0 0 0.08441811268692744 17462:1 29364:1 39934:1 40433:1 40449:1 40462:1 40479:1 40484:1 40492:1 40510:1 
0.3145304775268265 0 0.05344383217225841 1 1 0.2350063531666084 15146:1 40435:1 40441:1 40455:1 40466:1 40479:1 40487:1 
1 1 0.6514727809614946 0 1 0.258881048783508 40447:1 40462:1 40479:1 40484:1 40499:1 40506:1 
0 0 0 0 0.7050432237894284 0 2687:1 8040:1 40429:1 40444:1 40448:1 40470:1 40501:1 40512:1 
0 0.04112973943089201 0.02681860146737733 0.3357428637622213 0 0 34727:1 39549:1 40432:1 40441:1 40495:1 40506:1 
0 0 0 0 0.6018321521180935 0 8252:1 18431:1 27126:1 34113:1 40432:1 40440:1 40452:1 40462:1 40474:1 40484:1 40499:1 
0.8417548577784373 0.0449630465977255 0 0.154731553756936 0.9987610066733291 0 36243:1 40455:1 40477:1 40491:1 40506:1 
0 0 0 0.792654255471558 1 0 4563:1 40433:1 40443:1 40448:1 40470:1 
0 0 0 1 0.3275133436838478 0 29163:1 40431:1 40443:1 40448:1 40461:1 40476:1 40484:1 
0 0 0 0.1546324064681996 0.5291118179145113 0 23059:1 27126:1 40435:1 40455:1 40459:1 40477:1 40484:1 
0.2602056069431586 0.08104364000226044 0 0 0.5833203116653949 0.03505885964888511 29400:1 30409:1 40449:1 40466:1 40471:1 40488:1 40495:1 40503:1 
0 0 0 0.294876178800232 0 0 19553:1 25252:1 30409:1 39129:1 40435:1 40443:1 40452:1 40466:1 40477:1 40485:1 40495:1 40510:1 
0 0 0 0 0.5850355398012711 0 33336:1 39780:1 40425:1 40444:1 40448:1 40470:1 40499:1 40506:1 
0 0 0 1 1 0 40435:1 40444:1 40491:1 40510:1 
0.3040343668676906 0.2233291859848424 0.3033476020125663 0.7216140119939296 1 0 29502:1 40457:1 40463:1 40473:1 40488:1 
0 0 0 1 1 0 40428:1 40442:1 40448:1 40470:1 
0 0 0 0 0.002065690496061071 0 13336:1 19736:1 24789:1 40426:1 40455:1 40462:1 40473:1 40487:1 40491:1 40510:1 
0 0 0 0 1 0 17020:1 27126:1 40454:1 40462:1 40476:1 40484:1 
0 0.01409598044862177 0 0 0 0 17828:1 24231:1 31856:1 40447:1 40462:1 40473:1 40490:1 40499:1 40504:1 
0.08223255794506999 0.3527105180455365 0 0 1 0 4660:1 8252:1 40429:1 40440:1 40448:1 40470:1 40496:1 40510:1 
0.2058263640915848 0 0.09195558941244361 0.5228043887512756 0.3487252173851765 0.06313180235651879 685:1 8512:1 13919:1 24025:1 40433:1 40440:1 40455:1 40465:1 40477:1 40487:1 
0 0 0 1 0.05728124756013906 0 25454:1 32859:1 40435:1 40443:1 40448:1 40466:1 40479:1 40484:1 40495:1 
0 0 0 0 1 0 40448:1 40470:1 40494:1 40508:1 
0 0.2432685431542826 0 1 1 0 38067:1 40446:1 40499:1 40506:1 
0 0 0 0 0.1613381488174612 0 22636:1 27126:1 32401:1 40023:1 40455:1 40462:1 40477:1 40484:1 40499:1 40506:1 
0 0 0 1 1 0 8223:1 34040:1 40427:1 40444:1 40448:1 40470:1 40495:1 
0 0 0 0 0.1353129189536237 0 39184:1 40493:1 40510:1 
0 0 0 0 0.2355472239894564 0 17020:1 27126:1 38610:1 40452:1 40462:1 40474:1 40484:1 40496:1 40506:1 
0 0 0 1 1 0 6310:1 40435:1 40444:1 40448:1 40470:1 40500:1 40512:1 
0 0 0 0 1 0 34040:1 40457:1 40468:1 40479:1 40481:1 40495:1 40512:1 
0 0 0 0 1 0 33868:1 40499:1 40505:1 
1 1 1 1 1 0 40457:1 40479:1 40498:1 40508:1 
0.8547568464235457 0 0 1 0.07785859604027813 0 20359:1 35309:1 40435:1 40452:1 40458:1 40473:1 40481:1 40499:1 40510:1 
0 0 0 0.02163385406883362 0 0 17422:1 22475:1 29163:1 40429:1 40446:1 40448:1 40466:1 40477:1 40484:1 
0 0 0 0 0 0.09504076117585451 21399:1 28006:1 31166:1 40450:1 40464:1 40473:1 40484:1 40499:1 40512:1 
0.3264072667821484 0 0 1 0.584262980725383 0.2258146016697192 20200:1 23343:1 25407:1 40435:1 40452:1 40462:1 40477:1 40488:1 40498:1 40506:1 
0.2237135414179802 0 0.1907279927277252 0 1 0 22391:1 31908:1 40455:1 40461:1 40473:1 40481:1 40499:1 40512:1 
0.3405935646576289 0 0.008611876003096106 1 0.2028741941260868 0.04524860037826672 27711:1 32176:1 40432:1 40441:1 40448:1 40468:1 40473:1 40484:1 40499:1 40502:1 
0 0 0 1 0 0 30572:1 40427:1 40441:1 40448:1 40470:1 40499:1 40504:1 
0 0 0 0 0.2654086644102023 0 35164:1 35429:1 40495:1 40506:1 
0.7305240019530278 0 0.01231315313211513 0 0.461680675433382 0 12946:1 18254:1 32366:1 40455:1 40466:1 40490:1 40495:1 40510:1 
0 0 0 1 0 0 34881:1 40429:1 40444:1 40499:1 
0 0 0 0 0.3216601481713682 0 33380:1 37165:1 40448:1 40470:1 40495:1 40506:1 
0 0 0 0 0.3380167986713168 0 23657:1 27126:1 40455:1 40468:1 40477:1 40484:1 40501:1 40510:1 
0.2701215140022676 0 0.06629557067286558 0 0.781671631204655 0 13106:1 19813:1 35164:1 40455:1 40462:1 40477:1 40481:1 40495:1 40506:1 
0.3335025501737521 1 0.2581450405256122 0.258070926445932 1 0 38403:1 40457:1 40462:1 40479:1 40481:1 40499:1 40506:1 
0 0 0.6744421978188242 0 1 0 6272:1 17020:1 27126:1 40426:1 40440:1 40448:1 40462:1 40470:1 40484:1 40501:1 40506:1 
0.8933604934626411 0 0.01884390546769956 0.3579836670845636 1 0.2565854684193631 32544:1 40451:1 40463:1 40477:1 40487:1 40499:1 
0.3258765927417401 0 0 0 0.7302397886036108 0 12383:1 15503:1 20556:1 39780:1 40430:1 40451:1 40466:1 40477:1 40481:1 40498:1 40506:1 
0.6474856916142891 0 0.2495653535943498 0.6968753747527928 1 0 14286:1 15908:1 40431:1 40446:1 40455:1 40462:1 40477:1 40488:1 40501:1 40502:1 
0.3684931174632764 0 0 0 0 0 30847:1 40449:1 40463:1 40475:1 40487:1 40499:1 
0 0 0.3329336926095843 0.2916150930426062 0.3855633154348418 0 20309:1 27126:1 39905:1 40431:1 40443:1 40455:1 40463:1 40473:1 40484:1 40499:1 40510:1 
0 0 0 0 0.9232003147319418 0 15348:1 25454:1 40448:1 40462:1 40470:1 40484:1 40501:1 40506:1 
0 0 0 0 1 0 38389:1 40448:1 40470:1 40493:1 40510:1 
1 0 0 1 1 0 40448:1 40470:1 40499:1 
0 0.07993378651073207 0 0 0.5668686255879347 0 15024:1 16669:1 26803:1 40304:1 40455:1 40462:1 40471:1 40488:1 40501:1 40506:1 
0 0 0 1 0 0 34881:1 40430:1 40446:1 40452:1 40474:1 40499:1 40509:1 
0 0 0 0 0.2844352496061888 0 14606:1 25179:1 39780:1 40455:1 40464:1 40477:1 40481:1 40498:1 40506:1 
0.9068626183507389 1 0.6912964276280487 1 1 0 5614:1 40432:1 40440:1 40457:1 40462:1 40473:1 40481:1 40498:1 40510:1 
0.06347376114057177 0 0 1 1 0 31916:1 40448:1 40470:1 40495:1 40510:1 
0 0 0 0.8122537692125161 0.1442452383996581 0 2606:1 14515:1 40429:1 40444:1 40451:1 40468:1 40479:1 40481:1 40493:1 40510:1 
0 0 0 0 0.7436883138614812 0 31067:1 36111:1 40448:1 40470:1 40495:1 40510:1 
0 0 0 1 1 0 25454:1 40446:1 40457:1 40459:1 40470:1 40484:1 40499:1 40512:1 
0.08237168797435437 0.1092453581719111 0.1779682900101582 1 0.001146697852842079 0.8418233168376171 3595:1 15445:1 25551:1 40429:1 40444:1 40449:1 40466:1 40471:1 40488:1 
0.1506521121519708 0 0 0.0004658880477110472 0.5157264704873726 0 23848:1 32002:1 40449:1 40466:1 40477:1 40481:1 40499:1 40504:1 
0 0 0 1 1 0 6314:1 40435:1 40444:1 40448:1 40470:1 40494:1 40508:1 
0 0 0 1 0 0 39780:1 40431:1 40443:1 40448:1 40461:1 40472:1 40486:1 40498:1 40506:1 
1 0 0 0.2720528848699474 0.3993737704646941 0 14320:1 26550:1 40455:1 40466:1 40477:1 40484:1 
0.03882668128852074 0.9740330208529289 0.3507878518779329 1 0.561588155048812 0 33119:1 35560:1 40425:1 40443:1 40457:1 40479:1 40499:1 40506:1 
1 1 1 1 1 0.3130092682765553 40429:1 40446:1 40457:1 40479:1 40493:1 40510:1 
0.03181785089430966 0 0 0 0.6865683187107839 0 30848:1 40210:1 40448:1 40470:1 40495:1 40510:1 
0 0 0 1 0 0 18146:1 23199:1 36777:1 40435:1 40444:1 40452:1 40466:1 40477:1 40488:1 40499:1 40506:1 
0 0 0 1 0 0 32204:1 39934:1 40435:1 40446:1 40449:1 40459:1 40471:1 40481:1 40499:1 40510:1 
0 0 0 1 1 0 39780:1 40427:1 40446:1 40448:1 40470:1 40498:1 40506:1 
0.2850314839420414 0.01476383319253573 0.02919186738094836 0.724900134887386 0.7952199126378769 0 11030:1 20961:1 30400:1 40434:1 40444:1 40451:1 40458:1 40473:1 40485:1 40499:1 
0 0 0 1 0.7910331211764238 0 3804:1 39628:1 40433:1 40446:1 40448:1 40470:1 40501:1 40510:1 
0 0 0 1 0 0.1122441990378055 4504:1 33034:1 40433:1 40443:1 40448:1 40470:1 40499:1 40506:1 
0.057456500892124 0 0 0.005518096401590434 0.1516853759387494 0 18671:1 28777:1 40447:1 40466:1 40469:1 40488:1 
0.03934928692542011 0 0 1 1 0.09660401434914609 18709:1 40452:1 40466:1 40475:1 40487:1 40501:1 40510:1 
0 0 0 0.5701881907927558 0 1 33655:1 40448:1 40460:1 40479:1 40485:1 40499:1 40511:1 
0 0 0 0 1 0 21901:1 34113:1 40450:1 40462:1 40473:1 40485:1 40499:1 
1 0.9627704219363187 1 1 0.8144571766536258 0.4474384285848078 30376:1 40449:1 40459:1 40473:1 40490:1 40495:1 40509:1 
0 0 0 0.151379200442703 0 0 6626:1 39780:1 40432:1 40440:1 40452:1 40474:1 40498:1 40506:1 
1 1 1 0 1 0 40448:1 40470:1 40501:1 40506:1 
0 0 0 0 1 0 17020:1 27126:1 40429:1 40446:1 40448:1 40462:1 40470:1 40484:1 40492:1 40506:1 
1 0 1 1 1 0 40455:1 40466:1 40478:1 40485:1 40493:1 40504:1 
0.4707094597607441 0.3876218141214032 0.07210936596065209 1 0.7375972991342483 0.05730083448962049 8283:1 19840:1 22293:1 39635:1 40435:1 40444:1 40448:1 40462:1 40473:1 40490:1 40496:1 40506:1 
0 0 0 0 1 0 33034:1 40448:1 40470:1 40499:1 40507:1 
1 0 0 0 0 0 13765:1 23871:1 40455:1 40463:1 40477:1 40485:1 40495:1 40510:1 
0.226712161179144 0 0.5059317387123518 0 0 0 13765:1 35560:1 40455:1 40460:1 40479:1 40488:1 40499:1 40506:1 
0.02308194642820516 0 0.1093870282255181 0 1 0 33750:1 40448:1 40470:1 40495:1 40509:1 
0 0 0 1 0.9727009357490232 0 38087:1 40435:1 40444:1 40448:1 40470:1 40491:1 40510:1 
0 0 0 0.1780170666782767 0 0 25658:1 31166:1 40428:1 40442:1 40448:1 40461:1 40475:1 40484:1 40499:1 40505:1 
0.9964643540195142 0 0 1 1 0.391009808126898 10724:1 20830:1 40434:1 40446:1 40455:1 40468:1 40477:1 40490:1 40496:1 40512:1 
0 0 0 0 0.1264379736871478 0 33507:1 40455:1 40466:1 40477:1 40481:1 40495:1 40512:1 
0.3195317656615459 0.4942675953310719 0.433335135640237 0 0.7982643973212273 0 31067:1 39732:1 40457:1 40479:1 40495:1 40510:1 
0 0 0 0 0.4290501166753349 0 31908:1 39670:1 40433:1 40499:1 40510:1 
0 0 0 0 0.891538219493385 0 11967:1 22073:1 36120:1 40451:1 40473:1 40496:1 40506:1 
0.2579330725447185 0.1312802762364156 0.2012907251798476 0 0.2397303439789662 0.002837025748918095 13918:1 24024:1 33087:1 35997:1 40451:1 40473:1 40499:1 40506:1 
0 0 0 1 0.8988191898450424 0.1534562693917023 14758:1 24864:1 35783:1 40431:1 40446:1 40451:1 40468:1 40473:1 40490:1 40496:1 40506:1 
0 1 0 1 1 0 30485:1 40452:1 40474:1 40495:1 
1 0.4248917761330713 0 1 1 0 40494:1 40506:1 
0.1359475051011582 0.0722500878934929 0.5919824793161161 0.1180854537110341 1 0 32118:1 40457:1 40460:1 40471:1 40481:1 40495:1 40512:1 
1 1 0 1 1 0 40501:1 40506:1 
0 0.5860086846919765 0.2243279763966933 0.3883633766357877 0.1595653897212303 0 15909:1 37429:1 40446:1 40457:1 40462:1 40479:1 40481:1 40501:1 40506:1 
0 0 0 0 0.2758578798055645 0 37901:1 40457:1 40468:1 40479:1 40481:1 40501:1 40506:1 
0 0 0 0 1 0 40496:1 40510:1 
1 0 0 1 1 0 40499:1 40510:1 
0.129477964824321 0.3948384564872736 0 0.8012305103165781 0.1157448264170346 0.01973777452120922 3170:1 5424:1 33507:1 38674:1 40433:1 40440:1 40457:1 40462:1 40479:1 40490:1 40495:1 40506:1 
0 0 0 0 1 0 17020:1 27126:1 40429:1 40446:1 40448:1 40462:1 40470:1 40484:1 40501:1 40506:1 
0 0 0 0.4171926471504759 0 0 34258:1 39780:1 40429:1 40446:1 40452:1 40463:1 40474:1 40485:1 40495:1 40506:1 
0.3746966924303171 0.1898511976039839 0.05547350388383362 0.06665344330744706 0.8795259251205495 0.00336052908828113 11077:1 19080:1 26761:1 40451:1 40462:1 40479:1 40484:1 40501:1 40510:1 
0 0 0 0.8781592615142239 1 0 40495:1 40507:1 
0 0 0 0 1 0 36845:1 40491:1 40510:1 
0 0 0 1 1 0 40431:1 40443:1 40448:1 40458:1 40475:1 40487:1 40496:1 40505:1 
0 0 0 0 1 0.2930248225835571 6914:1 40433:1 40440:1 40451:1 40466:1 40477:1 40487:1 40493:1 40507:1 
0 0 0 1 1 0 40426:1 40448:1 40470:1 40499:1 40507:1 
0 0 0 0 0.08430506882389308 0 34895:1 40448:1 40470:1 40495:1 40510:1 
0 0 0 0 0 0.1131702101442697 12142:1 22248:1 38601:1 40451:1 40473:1 40496:1 40510:1 
0.08719489927472357 0 0 0.1277886195892989 0.9573583519400612 0 24061:1 40426:1 40448:1 40463:1 40473:1 40487:1 40493:1 40510:1 
0.4431311290986217 0 0 0 1 0.1360370844966152 36845:1 40450:1 40462:1 40471:1 40481:1 40496:1 40510:1 
0 0.2438768567181625 0 0 0.214374659125714 0 39780:1 40430:1 40445:1 40457:1 40479:1 40498:1 40506:1 
0.1925509223071861 0 0 0.5054597724427985 0.5666772731174315 0.05961484915184145 200:1 10197:1 24643:1 40433:1 40451:1 40460:1 40477:1 40487:1 
0.466011842075146 0.1077157693233501 0.165333530368179 0.6267548760503169 0.0603369061433695 0.1106570133316268 14339:1 23314:1 40301:1 40429:1 40441:1 40455:1 40473:1 40484:1 40499:1 40506:1 
1 1 1 0 1 0 40448:1 40470:1 40501:1 40506:1 
0 0 0 0 1 0 17020:1 27126:1 34404:1 40455:1 40462:1 40477:1 40484:1 40499:1 40510:1 
0 0 0 0 1 0 34920:1 40448:1 40470:1 40499:1 40512:1 
1 0.6010624068019138 0.8679822697936873 1 0 0 39948:1 40434:1 40437:1 40450:1 40464:1 40471:1 40488:1 40498:1 40506:1 
0 0 0 0 1 0 40448:1 40470:1 40493:1 40504:1 
0 0 0 0 0.4577101904700636 0 17960:1 23013:1 27126:1 33149:1 38250:1 40446:1 40452:1 40466:1 40477:1 40484:1 40499:1 40506:1 
0.1971852575665877 0.01039991393837212 0 0 1 0 35538:1 40452:1 40474:1 40491:1 40506:1 
0.08386789242831438 0.3235787231361815 0.1486974214827953 0 0 0 4577:1 9899:1 19203:1 39828:1 40429:1 40440:1 40457:1 40462:1 40479:1 40481:1 40501:1 40506:1 
0 0 0 0 0.03237556179001108 0 17968:1 24900:1 27126:1 40449:1 40466:1 40477:1 40484:1 40501:1 
0 0 0 1 1 0 971:1 23199:1 40429:1 40443:1 40449:1 40463:1 40477:1 40481:1 40496:1 40506:1 
0 0 0.01120789119922929 0 0.01407388816767273 0 1737:1 9568:1 15348:1 25454:1 40429:1 40444:1 40454:1 40462:1 40476:1 40484:1 40493:1 40510:1 
0.4426477449579959 0 0 0 0 0 25641:1 31166:1 40432:1 40440:1 40448:1 40461:1 40469:1 40484:1 40499:1 40505:1 
0 0 0 0 0.1497091172594528 0 533:1 6418:1 17020:1 27126:1 32507:1 40429:1 40444:1 40452:1 40462:1 40474:1 40484:1 40499:1 40510:1 
0 0 0 0 0.6961649420302223 0 38808:1 40448:1 40470:1 40496:1 40506:1 
0 0 0 0 1 0 37429:1 40448:1 40470:1 40501:1 40506:1 
0 0 0 0 0.2876092678702763 0 24041:1 34040:1 40429:1 40443:1 40447:1 40466:1 40477:1 40481:1 40495:1 40505:1 
0.3521688466676149 0 0 0.861152743759968 0.09792697644208739 0 36420:1 40427:1 40444:1 40455:1 40477:1 40492:1 40506:1 
0.1547561260542169 0 0 1 1 0 8184:1 40435:1 40444:1 40452:1 40474:1 40498:1 40505:1 
0 0 0 0.3965865814740625 0.4761324958907676 0 2808:1 19348:1 22645:1 31058:1 37991:1 40433:1 40444:1 40452:1 40462:1 40477:1 40481:1 40499:1 40506:1 
1 1 1 1 1 1 40456:1 40461:1 40473:1 40490:1 40501:1 40504:1 
0 0 0 1 0 0 39780:1 40435:1 40446:1 40448:1 40470:1 40498:1 40506:1 
0 0 0 0.923267956243236 0.3670580032238495 0 2110:1 40433:1 40444:1 40457:1 40479:1 40494:1 40506:1 
1 0 0.3558706168032302 0 1 0 36777:1 40455:1 40477:1 40492:1 40506:1 
0 0 0 0 0.03698393832500033 0 30799:1 35522:1 40495:1 40506:1 
0.1274572310523074 0 0 0 1 0 18954:1 23871:1 37442:1 40455:1 40466:1 40477:1 40481:1 40493:1 40510:1 
0 0 0 0 0.9960673521991561 0 15024:1 25130:1 34727:1 40455:1 40459:1 40477:1 40481:1 40495:1 40512:1 
0 0 0 0 1 0 4660:1 9899:1 35923:1 40429:1 40440:1 40499:1 40506:1 
0.1541530258540658 0 0 0 0 0 1406:1 8482:1 19057:1 29163:1 33868:1 40429:1 40444:1 40448:1 40462:1 40470:1 40484:1 40499:1 
0 0.1046149685002389 0.13387106950907 1 1 0 39826:1 40429:1 40446:1 40499:1 40506:1 
0 0 0 0 0.464396514260693 0 23199:1 36905:1 40427:1 40449:1 40463:1 40477:1 40481:1 40501:1 40506:1 
0.5631736576431341 0 0.0321810804517547 1 1 0.03852435735747083 938:1 26931:1 32233:1 40429:1 40450:1 40468:1 40470:1 40484:1 40499:1 
0 0 0 0 1 0 25454:1 40450:1 40468:1 40476:1 40484:1 40499:1 40509:1 
1 0.06508017639688234 0.1521367560338611 0 0.7663275165389158 0 16896:1 20359:1 40426:1 40454:1 40462:1 40473:1 40485:1 40499:1 40504:1 
0 0.7598969529740746 0.1306659351505878 0 1 0 15348:1 25454:1 40457:1 40462:1 40479:1 40484:1 40501:1 40506:1 
1 0 0 1 0.6504689323730293 0 7181:1 17020:1 27126:1 40435:1 40440:1 40454:1 40462:1 40476:1 40484:1 40493:1 40510:1 
0 0.04170143396915297 0 0 0.7009268026471677 0 35135:1 35538:1 40448:1 40470:1 40495:1 40506:1 
0 0 0 0 1 0 24789:1 25454:1 40457:1 40459:1 40473:1 40484:1 40501:1 40507:1 
0 0 0 0 1 0 40448:1 40470:1 40501:1 40508:1 
0.9618295989949335 1 0.3602787609378977 0 1 0 18389:1 40457:1 40466:1 40473:1 40490:1 40498:1 40509:1 
0 0 0.007618389799159676 0 0 0.01216524177766759 1651:1 9827:1 18584:1 22338:1 40429:1 40440:1 40457:1 40462:1 40473:1 40490:1 40501:1 40509:1 
0.1670429282572034 0 0 0 1 0 32519:1 40452:1 40466:1 40477:1 40481:1 40499:1 
0.1597077904194569 0.0305034711740148 0 0 0.6571715892288443 0.1996135726472025 29443:1 32179:1 40426:1 40449:1 40460:1 40471:1 40484:1 40495:1 40509:1 
0.08461353209703751 0 0.1542848699239711 0 1 0.09153158369794362 14320:1 24426:1 40455:1 40462:1 40477:1 40484:1 40512:1 
0.6864100886029365 0.3378060912919281 0.1993668474718139 1 1 0 23204:1 40425:1 40443:1 40448:1 40463:1 40473:1 40490:1 40494:1 40506:1 
0 0 0 0 1 0 40448:1 40470:1 40496:1 40507:1 
0.1206004146488476 0.09375536956249117 0.1309367804543791 0 1 0 39113:1 40448:1 40470:1 40495:1 40506:1 
0 0 0 0 1 0 40448:1 40470:1 40491:1 40509:1 
0.1372612741937487 0 0 0 0.2512757857008963 0 19373:1 24426:1 40447:1 40466:1 40477:1 40490:1 40499:1 40508:1 
0 0 0 1 1 0 40426:1 40448:1 40470:1 40493:1 40502:1 
0.02046549219243185 0.2022185848119181 0 0 0 0 21563:1 27326:1 35900:1 40457:1 40468:1 40477:1 40488:1 40497:1 40510:1 
0 0 0 1 1 0 40431:1 40443:1 40448:1 40470:1 40493:1 40502:1 
0 0 0 1 1 0.264597873331336 34113:1 40427:1 40446:1 40449:1 40463:1 40479:1 40485:1 40499:1 40509:1 
0 0 0 0.6268567640696838 0 0.04344626934507226 18419:1 24901:1 27126:1 35358:1 40435:1 40437:1 40449:1 40462:1 40477:1 40484:1 40499:1 40511:1 
0.2387764541048235 0 0 0.09574696591375767 0.598257534410264 0.2195194368149284 13124:1 33952:1 40455:1 40459:1 40477:1 40485:1 40499:1 40512:1 
0 0 0 1 0 0.05498835050085017 5041:1 6330:1 13193:1 23299:1 40429:1 40444:1 40451:1 40473:1 
0 0 0 0.1302951393572212 1 0 38456:1 40491:1 40510:1 
0 0 0 1 0.7579119134259354 0 4278:1 9678:1 40433:1 40444:1 40448:1 40470:1 40493:1 40502:1 
0 0 0 0 1 0 40448:1 40470:1 40494:1 40506:1 
0.1817901931711305 0 0.001157762002508697 1 0.6700304106916981 0 9486:1 35889:1 40435:1 40440:1 40448:1 40463:1 40475:1 40487:1 40493:1 40510:1 
0 0.0004017347135208422 0 0 0 0.0002455598130455677 5964:1 12578:1 22684:1 40435:1 40440:1 40455:1 40465:1 40477:1 40487:1 
0.3367819254652295 0.01704057615889662 0.1826803143613664 0.4788064075442463 0 0 10295:1 23255:1 28357:1 40435:1 40451:1 40466:1 40473:1 40484:1 
0 0 0 0 1 0 30847:1 35557:1 40449:1 40463:1 40471:1 40481:1 40499:1 40510:1 
0.4017544078997722 1 0.1709117753548459 0.3486364929994917 1 0 32547:1 40457:1 40479:1 40499:1 40510:1 
0 0.1499306478347044 0 0.07983761443935608 0 0 16005:1 21107:1 27083:1 39185:1 40426:1 40454:1 40462:1 40473:1 40488:1 40498:1 40506:1 
0.2248783425397379 0.1401113747633725 0.08230706262960098 0 0.2762476942756502 0 20082:1 31183:1 40424:1 40455:1 40462:1 40479:1 40488:1 40499:1 40510:1 
0 0 0 1 0.4249131918104841 0.1635865380871644 17152:1 27258:1 40435:1 40456:1 40466:1 40478:1 40488:1 40496:1 40511:1 
0.08652741848156384 0 0.2296655406711491 1 1 0 5424:1 15146:1 33142:1 40432:1 40440:1 40455:1 40466:1 40477:1 40485:1 40499:1 40505:1 
1 0.2191908250466319 0 0.2377299412375143 1 0 40155:1 40499:1 40506:1 
1 0 1 1 1 0.6039350363827776 40427:1 40444:1 40455:1 40477:1 40492:1 40506:1 
0 0 0 0.9074408018212433 0 0 16716:1 32397:1 39699:1 40428:1 40442:1 40448:1 40462:1 40475:1 40487:1 40495:1 40510:1 
0.1795826644638576 0 0 1 0.5771673569140263 0.0454648962038236 9696:1 32350:1 40427:1 40444:1 40452:1 40474:1 40499:1 
0 0 0 0.04354144078622807 0 0 4577:1 5242:1 37104:1 40429:1 40440:1 40448:1 40470:1 40499:1 40506:1 
0.0008734233185679137 0 0 0 0 0 14211:1 24317:1 31856:1 40455:1 40477:1 40499:1 40506:1 
0.3484331064653709 0 0 0 1 0 20556:1 33868:1 40457:1 40462:1 40477:1 40481:1 40499:1 
0 0 0 0.4284143507989533 0.1458176629674295 0 17020:1 29908:1 36617:1 40435:1 40455:1 40462:1 40473:1 40488:1 40496:1 40506:1 
0 0 0 0 0.2662987037485524 0 2600:1 17020:1 25239:1 40429:1 40444:1 40454:1 40462:1 40473:1 40484:1 
0 0 0 0 0.8693196347434288 0 17020:1 27126:1 33167:1 36922:1 40448:1 40462:1 40470:1 40484:1 40495:1 40506:1 
0 0 0 0 1 0 17020:1 27126:1 40448:1 40462:1 40470:1 40484:1 40501:1 40510:1 
1 1 1 1 1 1 40455:1 40477:1 40501:1 40510:1 
0 0 0 1 1 0 40435:1 40446:1 40448:1 40470:1 40496:1 40510:1 
0 1 0.1185498385440007 1 1 1 40433:1 40446:1 40457:1 40479:1 40499:1 40511:1 
0.04048016518502306 0 0 0.003060258396870594 1 0 30518:1 40448:1 40470:1 40499:1 40510:1 
0 0 0 0 0.742960978401222 0 15024:1 31166:1 40455:1 40460:1 40471:1 40481:1 40499:1 
0.2319356503060427 0.02968293282191519 0.07629400739725226 0.4535300805310017 0.6725732794090485 0 5242:1 20563:1 34750:1 36149:1 40426:1 40440:1 40450:1 40464:1 40477:1 40490:1 40499:1 40506:1 
0 0.5043651986041376 0 0 1 0 38754:1 40501:1 40506:1 
0.6906151475026481 0.5763845165852858 0 0.7016379703346051 0.8472474962441491 0.4707995092985436 22925:1 40448:1 40468:1 40473:1 40490:1 40501:1 40509:1 
0 0 0 0 0.5175237602015317 0 6914:1 40429:1 40440:1 40452:1 40463:1 40474:1 40485:1 40499:1 40504:1 
0 0 0 0 1 0 40448:1 40470:1 40501:1 40507:1 
0 0 0 0 0.8940877604509266 0 11272:1 21378:1 40289:1 40455:1 40466:1 40477:1 40488:1 40501:1 40510:1 
0 0 0 0.656638579270916 0.653507636988423 0 408:1 39780:1 40429:1 40446:1 40501:1 40506:1 
0.4599865887909474 0 0 0.5879818415124954 0.06248703705331037 0.2472368437111538 846:1 8689:1 10219:1 20325:1 37232:1 40429:1 40444:1 40455:1 40477:1 40498:1 40506:1 
0 0 0 1 0 0.04100233022338341 24243:1 35429:1 40429:1 40446:1 40449:1 40468:1 40477:1 40481:1 40498:1 40506:1 
0 0 0 0.1623163605556445 0 0 1465:1 37165:1 40433:1 40443:1 40448:1 40470:1 40498:1 40506:1 
0 0 0 1 0.8577636593320727 0 3728:1 40433:1 40444:1 40491:1 40509:1 
0 0 0 1 1 0 35715:1 40435:1 40446:1 40448:1 40470:1 40491:1 40510:1 
0.1621517220645736 0 0.008871361276075847 0.002844781565295937 0.234878820604686 0 11305:1 30835:1 36219:1 40451:1 40463:1 40479:1 40481:1 40495:1 40510:1 
0.8114844663208638 0 0.08694748753466749 0 0 0 11910:1 33034:1 40455:1 40460:1 40471:1 40481:1 40499:1 
0.784397252431165 0 0.4331237913262561 0 1 0 29703:1 40452:1 40461:1 40473:1 40484:1 
0.3928055845401892 0 0 1 0 0.3445851272771269 3131:1 18493:1 36427:1 40433:1 40446:1 40449:1 40466:1 40471:1 40485:1 40492:1 40510:1 
0 0 0 0 0.4891166166551109 0 25066:1 25454:1 40457:1 40460:1 40473:1 40484:1 40494:1 40505:1 
0 0 0 1 1 0 14320:1 40455:1 40459:1 40470:1 40488:1 40499:1 40509:1 
0.1662045527233729 0.3746482646942818 0.1686518133496046 0.1567929319561762 0.5995435752009227 0 16575:1 23217:1 40457:1 40462:1 40473:1 40488:1 40512:1 
0 0 0.001009532699794178 1 1 0 40428:1 40440:1 40448:1 40470:1 40496:1 40512:1 
0.1714267168070567 0 0.04329601532303928 0 1 0 10855:1 40451:1 40458:1 40479:1 40484:1 40512:1 
0.6440513201064697 0 0.04557117380059682 0.02555076622789784 1 0.1900906224929729 26370:1 40447:1 40465:1 40476:1 40484:1 
0 0.06308686492565337 0.2136421710851615 0 0 0 14758:1 24864:1 33087:1 40451:1 40473:1 40499:1 
0 0 0 0 1 0 17020:1 27126:1 40435:1 40448:1 40462:1 40470:1 40484:1 40494:1 40507:1 
1 1 1 1 1 0 40457:1 40479:1 40493:1 40507:1 
0 0 0 0 1 0 15348:1 25454:1 40448:1 40462:1 40470:1 40484:1 40501:1 40504:1 
0.5958186887532162 0 0.0585888378356723 0.1552268297624887 1 0 14087:1 40455:1 40460:1 40471:1 40488:1 40512:1 
0 0 0.03176971484490157 0 0 0 2075:1 26090:1 40429:1 40444:1 40448:1 40461:1 40479:1 40484:1 
0 0 0 0 1 0.07373697495292171 17020:1 27126:1 38551:1 40454:1 40462:1 40476:1 40484:1 40496:1 40506:1 
0.03839478134384208 0 0 0.3769595072506349 0.9315995075131139 0 15571:1 27346:1 33197:1 39093:1 40446:1 40448:1 40462:1 40469:1 40484:1 40495:1 40506:1 
1 0.7654477391695036 0.2286274014263897 1 0.4783136799122223 0.4648214064537495 9262:1 40429:1 40440:1 40448:1 40468:1 40473:1 40490:1 40498:1 40512:1 
0.9586599976912878 0 0 0 1 0 40412:1 40448:1 40470:1 40496:1 40506:1 
1 0 0 0.305591062711529 1 0 33744:1 36216:1 40448:1 40470:1 40495:1 40510:1 
0 0 8.352769990627174e-05 0 0 0 13336:1 19568:1 24621:1 31252:1 39580:1 40426:1 40455:1 40462:1 40473:1 40487:1 40499:1 40506:1 
0 0 0 0.7083372312572239 0 0 7576:1 39948:1 40426:1 40444:1 40448:1 40470:1 40498:1 40506:1 
0 0 0 0.6162161742220973 1 0.0392177255043147 3390:1 30183:1 40433:1 40443:1 40456:1 40458:1 40469:1 40488:1 40499:1 40502:1 
0.006569706412127567 0 0 0 0.03590193524540831 0 12473:1 22579:1 34763:1 40324:1 40455:1 40459:1 40477:1 40481:1 40499:1 40510:1 
0.5318303460253599 0 0.1480679710307941 0 0.4990216291197518 0 10253:1 15989:1 40451:1 40462:1 40479:1 40488:1 40493:1 40510:1 
0 0 0.06821949356362589 1 1 0 6287:1 34060:1 40435:1 40444:1 40448:1 40470:1 40495:1 40502:1 
0 0 0 0.001039941638320941 1 0 36219:1 40448:1 40470:1 40493:1 40510:1 
0 0 0 0 1 0 17020:1 27126:1 40454:1 40462:1 40476:1 40484:1 40492:1 40510:1 
0.3070083781919846 0 0.07286115684457625 0 0.06355480259243068 0 12410:1 16869:1 37232:1 40455:1 40466:1 40479:1 40488:1 40501:1 40506:1 
0 0 0 0 1 0 40448:1 40470:1 40498:1 40512:1 
0.2020526470093748 0 0 0.03990576611617549 1 0 34160:1 40455:1 40477:1 40495:1 40502:1 
0.01141967449742732 0.3480714080813188 0.1022881614182894 0.6345561893646283 1 0.08526280489727493 2584:1 40429:1 40448:1 40470:1 40501:1 40509:1 
0.7399644718766648 0 0.3634408540859111 0.3091284998129227 0.1541366311127306 0 17645:1 20958:1 37165:1 40427:1 40454:1 40462:1 40477:1 40481:1 40498:1 40506:1 
0 0.06190195712956589 0.4096056345517173 1 1 0 266:1 8164:1 18358:1 28464:1 40429:1 40440:1 40448:1 40462:1 40470:1 40484:1 40500:1 40507:1 
1 0 0 0 0 0.5582377671989754 16373:1 40452:1 40462:1 40472:1 40486:1 40492:1 40511:1 
0 0 0 1 0 0 39780:1 40426:1 40446:1 40448:1 40470:1 40498:1 40506:1 
0.2401185761914211 0 0.1238227081582295 0 0.1749652354239037 0 14923:1 25029:1 31724:1 40451:1 40466:1 40473:1 40488:1 40495:1 
0 0 0 0 1 0 17020:1 27126:1 40448:1 40462:1 40470:1 40484:1 40498:1 40504:1 
1 0.1433333905322801 0.08975406595282999 0.2509324340335808 0.0552522024536717 0 1318:1 26484:1 34040:1 40429:1 40446:1 40448:1 40462:1 40473:1 40484:1 40495:1 
0 0 0 0 1 0 11967:1 22073:1 40451:1 40473:1 40501:1 40507:1 
0 0.00385448589711461 0 0.2030800288354138 0 0 3950:1 39828:1 40429:1 40446:1 40448:1 40470:1 40501:1 40506:1 
0.6912495971727486 0.05135965351335006 0.1970395402798504 1 0.7060399091208146 0 5836:1 29335:1 38425:1 40429:1 40440:1 40457:1 40463:1 40470:1 40484:1 40496:1 40506:1 
0 0 0 0.8476252282900023 0 0 15552:1 25658:1 34040:1 40426:1 40441:1 40452:1 40462:1 40474:1 40484:1 40495:1 40505:1 
0 0.2320619087905565 0.1270100227391866 0.1551356135613792 0.6542824445543953 0 17719:1 27825:1 40457:1 40466:1 40479:1 40488:1 40512:1 
0.1801838255372901 0.2938940398074142 0 0.1795351950007485 0.188710288916185 0 13193:1 23299:1 40451:1 40473:1 
0.4211739457013436 0.4017298765262785 0 0 1 0.05771455332526078 30183:1 37803:1 40457:1 40467:1 40469:1 40488:1 40501:1 40506:1 
0 0 0 0 1 0 40001:1 40448:1 40470:1 40491:1 40510:1 
0.04752379652100296 0.007299563938436951 0 0 0 0.08833621155363429 14515:1 40219:1 40426:1 40451:1 40468:1 40479:1 40487:1 40493:1 40510:1 
0.3302570883207523 0 0.2285900327115257 0.1291974000513474 0.472601731451073 0 12485:1 29241:1 40451:1 40460:1 40473:1 40488:1 40512:1 
1 1 0.7536130221829123 0.8697920753220653 1 0 40457:1 40479:1 40494:1 40508:1 
0 0 0 0 1 0 40448:1 40470:1 40496:1 40510:1 
0 0 0 1 1 0 40435:1 40448:1 40470:1 40498:1 40512:1 
0.8033004364022001 0 0.1442366955421351 1 1 0 40495:1 40512:1 
0.0002738348473872779 0.0003733794095450454 0 0.1962915858768877 0 0 5964:1 12578:1 22684:1 40435:1 40440:1 40455:1 40465:1 40477:1 40487:1 
0.3909960433581168 0.001387979375730261 0.5109618076644068 0.6560971737135918 0.1463278531379474 0 12728:1 16450:1 21503:1 26130:1 39240:1 40435:1 40451:1 40462:1 40473:1 40488:1 40498:1 40506:1 
0.1424134362741956 0.9219084571569366 0 0 0.4137881820002575 0 18307:1 20401:1 40426:1 40457:1 40466:1 40473:1 40490:1 40501:1 40506:1 
0.2128427442390704 0 0.07177416672219478 0.03730874543873161 0.8312620176685108 0 13614:1 30836:1 39572:1 40451:1 40466:1 40479:1 40481:1 40499:1 40506:1 
0 0 0 0 1 0 25454:1 40455:1 40460:1 40474:1 40484:1 40501:1 40506:1 
0.2526925099086383 0 0.2926062929941445 0 0.2679210382486533 0 34097:1 38067:1 40450:1 40464:1 40479:1 40488:1 40499:1 40506:1 
0 0.2865428895289729 0.0975341754104309 1 0.0819066800881865 0 2687:1 9322:1 30979:1 35900:1 40429:1 40444:1 40457:1 40479:1 40495:1 40510:1 
0 0 0.007768850020336894 0 0 0 15778:1 21399:1 28006:1 40426:1 40454:1 40462:1 40473:1 40484:1 
0 0.0002147368614034672 0 0 1 0 10855:1 19489:1 20961:1 29595:1 40451:1 40466:1 40473:1 40488:1 40512:1 
0 0 0.05433944507447158 0 0 0 15250:1 20303:1 39383:1 40454:1 40462:1 40473:1 40485:1 40493:1 40510:1 
1 0 0 0 0 0 13765:1 23871:1 40455:1 40463:1 40477:1 40485:1 40499:1 40506:1 
0.5951582038069079 0 0 1 1 0 8252:1 27099:1 34113:1 40432:1 40440:1 40452:1 40462:1 40474:1 40484:1 40499:1 
0 0 0.1352951181004973 0 0.1916454022243146 0 13193:1 40451:1 40462:1 40478:1 40481:1 40498:1 40512:1 
0 0 0 0 0.6973236265601659 0 2615:1 15908:1 21378:1 33868:1 40429:1 40455:1 40462:1 40477:1 40481:1 40499:1 40512:1 
0 0.4921421990515646 0 0 0.04755787183251498 0 18326:1 27126:1 40426:1 40457:1 40466:1 40479:1 40484:1 40501:1 
0 0 0 0 1 0 27126:1 40455:1 40458:1 40469:1 40484:1 40498:1 40506:1 
0 0 0 0 1 0 40448:1 40470:1 40494:1 40508:1 
0 0 0.1983154168020729 0 0.07043110249801705 0 6918:1 10295:1 20401:1 34378:1 39406:1 40429:1 40440:1 40451:1 40473:1 40495:1 40506:1 
0.3452431896489492 0 0.08916315742776081 0.131940474337563 0.6149598287704992 0 17715:1 29474:1 40426:1 40450:1 40466:1 40470:1 40484:1 40498:1 40512:1 
0 0 0 0 0.4056258909267033 0 15348:1 25454:1 40448:1 40462:1 40470:1 40484:1 40496:1 40506:1 
0.9241979282144166 0.2669709491368741 0.2490600697703825 0 0.1990964369938074 0 12873:1 19037:1 32055:1 40451:1 40462:1 40473:1 40490:1 40495:1 40503:1 
0.06521093044467624 0 0 0 0 0 30763:1 40452:1 40466:1 40477:1 40481:1 40495:1 
0 0.2191780248466192 0 0.3734615865941028 1 0 37801:1 40499:1 40506:1 
0 0 0.5733219693712059 0 1 0 12285:1 35309:1 40451:1 40466:1 40479:1 40481:1 40499:1 40502:1 
0.6491088513663964 0 0 0 0.08703281035543907 0 20831:1 25454:1 35518:1 40452:1 40461:1 40473:1 40484:1 40498:1 40506:1 
0 0.06680615773355977 0.1306690902322368 0 0 0 19163:1 20476:1 30039:1 34040:1 40457:1 40462:1 40473:1 40484:1 40495:1 40512:1 
0 0 0 0.1445821278464304 0 0 34881:1 40433:1 40449:1 40459:1 40471:1 40481:1 40499:1 
0.08809398279080068 0.007933370587632256 0.07576322840609939 0 0.4727778592095933 0 3358:1 24893:1 30139:1 40433:1 40449:1 40461:1 40473:1 40484:1 
0 0 0 1 1 0 40500:1 40507:1 
0.05759678626515002 0 0 0 0.006331377757408649 0 18972:1 24025:1 33369:1 40426:1 40454:1 40466:1 40477:1 40488:1 40499:1 40509:1 
0.4728967869048187 0 0.1177658010774993 0.1633677105874879 0.5098942249659915 0.1795853485895051 26176:1 39980:1 40454:1 40468:1 40479:1 40484:1 40493:1 40510:1 
0 0 0 0 0.776651005611143 0.07720319659810056 15908:1 22122:1 30485:1 40452:1 40462:1 40473:1 40485:1 40495:1 40509:1 
0 0 0 0 0.1299373319061637 0 11115:1 27126:1 31321:1 40451:1 40467:1 40477:1 40484:1 40499:1 40512:1 
0 0.1166126790499748 0.03394074047977253 0 1 0 24401:1 25658:1 40450:1 40462:1 40473:1 40484:1 40501:1 40506:1 
0.0007191966357461321 0 0 0 0 0 2987:1 15152:1 17452:1 22505:1 27387:1 39340:1 40433:1 40443:1 40455:1 40462:1 40473:1 40484:1 40498:1 40506:1 
0 0 0 0 1 0 40496:1 40510:1 
0.1574044480483894 0.1145252827241427 0.0827414393860212 0.4750364390338603 0 0 18972:1 24864:1 40426:1 40437:1 40454:1 40466:1 40473:1 40487:1 
0.2541734690462605 0 0.029171584464039 0.9230940135600918 0 0 377:1 6166:1 15146:1 22171:1 40429:1 40444:1 40455:1 40463:1 40473:1 40490:1 40493:1 40506:1 
0 0 0 1 1 0 40435:1 40493:1 40507:1 
0 0 0 0 1 0 37750:1 40448:1 40470:1 40496:1 40506:1 
0 0 0.03089988943846317 0 0.4583787744024066 0 823:1 31143:1 37898:1 40429:1 40448:1 40470:1 40495:1 40510:1 
0 0 0 1 0 0 39780:1 40435:1 40452:1 40459:1 40474:1 40481:1 40498:1 40506:1 
0.2273260845504705 0.0593946073896812 0 0.9796138740119745 0.9579246413056026 0.008362651546105533 33635:1 36394:1 40433:1 40443:1 40449:1 40466:1 40471:1 40488:1 40499:1 40506:1 
0.503398130106116 0 0 0 0 0 10855:1 20961:1 40451:1 40466:1 40473:1 40488:1 40495:1 40507:1 
1 0 0 0 1 0 10855:1 40451:1 40466:1 40490:1 40499:1 40510:1 
0.4866806439136046 0 0 1 0.5260808682727148 0 17918:1 37821:1 40435:1 40446:1 40451:1 40462:1 40469:1 40487:1 40491:1 40510:1 
0 0 0 0.496797649112143 0 0 10531:1 22739:1 29006:1 40429:1 40446:1 40451:1 40462:1 40477:1 40484:1 
0 0.3178512562000013 0 0 1 0 39934:1 40434:1 40448:1 40470:1 40498:1 40510:1 
0 0 0 0 1 0 15908:1 27126:1 40435:1 40452:1 40462:1 40470:1 40484:1 40498:1 40502:1 
0.325430329535378 0 0 0 0.5343038898972977 0 19163:1 29269:1 40452:1 40462:1 40474:1 40484:1 40491:1 40502:1 
0 0 0 0 1 0 40448:1 40470:1 40496:1 40502:1 
0 0 0 0.1674540308721267 0 0 2472:1 8274:1 40433:1 40444:1 
0 0 0 0 1 0 34727:1 40446:1 40448:1 40470:1 40495:1 40510:1 
0 0 0 1 1 0 1261:1 40433:1 40441:1 40448:1 40470:1 40493:1 40511:1 
0 0 0 0.008027066212948405 0.3627239320941332 0 12285:1 16697:1 22391:1 26803:1 40451:1 40466:1 40473:1 40488:1 40512:1 
0 0 0 0 1 0 35429:1 40448:1 40470:1 40499:1 40506:1 
0 0.005263177208684663 0 0 0 0 26176:1 34040:1 40457:1 40463:1 40479:1 40484:1 40495:1 
0.267238395597232 0 0 0 1 0.0793412307904522 20077:1 35893:1 40447:1 40466:1 40490:1 40496:1 40510:1 
0 0.05745867315416819 0 1 1 0 40120:1 40429:1 40444:1 40448:1 40470:1 40496:1 40506:1 
1 1 0.1970795670029717 1 1 1 40426:1 40455:1 40468:1 40477:1 40490:1 40501:1 40506:1 
0.08286579847557513 0.5368442278954632 0 0 1 0.09242756938414497 27978:1 36120:1 40457:1 40468:1 40479:1 40484:1 40496:1 40506:1 
0 0 0 1 1 0 40493:1 40510:1 
0.1906255212653981 0 0 0 0.3297484160802949 0 18158:1 23211:1 30075:1 40448:1 40466:1 40477:1 40484:1 40501:1 40506:1 
0.2162509147540234 1 0 1 1 0 254:1 40433:1 40443:1 40457:1 40479:1 40501:1 40504:1 
0.7695181743421038 0 0.0407415038016721 1 1 0 26274:1 40455:1 40458:1 40477:1 40484:1 
0.7674606203192813 0 0 0.1551232642654957 0.332455766063453 0 36520:1 40455:1 40466:1 40477:1 40488:1 40499:1 40506:1 
0.2369392723847807 0.08704744206732271 0 0 0 0.1047779706284563 14683:1 18900:1 24789:1 29006:1 40451:1 40462:1 40473:1 40484:1 40496:1 40510:1 
0 0 0 0 0.5349710063597981 0 34113:1 37149:1 40427:1 40444:1 40452:1 40461:1 40479:1 40485:1 40499:1 40510:1 
0 0 0 0 1 0 40448:1 40470:1 40494:1 40506:1 
0.1804424844182736 0 0.08579362166611394 1 0.8344108851354131 0.2177673679459146 9673:1 40435:1 40440:1 40452:1 40461:1 40475:1 40487:1 40493:1 40507:1 
0 0 0.2294137670836744 1 0.4664439984636957 0 33979:1 40428:1 40446:1 40448:1 40470:1 40495:1 40503:1 
0 0 0 0 1 0 40496:1 40510:1 
0.2038376288676073 0 0 0.7899216184875236 0.4722492597234371 0 19929:1 30035:1 40433:1 40443:1 40448:1 40462:1 40470:1 40484:1 40499:1 40510:1 
0 0 0 0 0.6952894636230426 0 15448:1 40447:1 40466:1 40479:1 40488:1 40499:1 40507:1 
0 0 0 0 1 0 39780:1 40446:1 40448:1 40470:1 40498:1 40506:1 
0 0 0 1 1 0 25454:1 40429:1 40446:1 40457:1 40468:1 40476:1 40484:1 
0 0 0 0 1 0 31908:1 40452:1 40466:1 40477:1 40481:1 40499:1 
0 0 0 0 0.07233837098359489 0 2676:1 15146:1 19247:1 25252:1 29353:1 40433:1 40455:1 40466:1 40477:1 40488:1 40501:1 40510:1 
1 1 0.9251941978715367 1 1 0.09546903669072425 40433:1 40437:1 40449:1 40462:1 40473:1 40490:1 40493:1 40504:1 
0 0 0 0.2947619752540234 0 0 19553:1 24606:1 30376:1 40426:1 40446:1 40452:1 40466:1 40477:1 40481:1 40495:1 40508:1 
0 0 0 0 1 0 27126:1 40457:1 40462:1 40470:1 40484:1 40494:1 40508:1 
0 0 0 0 0 0.01637551635722469 15533:1 20586:1 39780:1 40435:1 40447:1 40466:1 40477:1 40481:1 40498:1 40506:1 
0 0 0 0 1 0 39780:1 40446:1 40448:1 40470:1 40498:1 40506:1 
0 0 0.001202431188974722 0 0 0.002317283812365511 1153:1 12167:1 16042:1 21095:1 29287:1 36777:1 40429:1 40444:1 40455:1 40462:1 40473:1 40488:1 40498:1 40506:1 
0.7497407394156946 0 0.02917273932933771 0.3621200797767831 0.3407398539639043 0.3641447323253698 4774:1 18176:1 40429:1 40448:1 40462:1 40476:1 40484:1 40499:1 40512:1 
0 0 0 0.07057529990204155 0 0 5575:1 35236:1 39780:1 40432:1 40444:1 40452:1 40474:1 40499:1 40506:1 
0 0.4140950703398939 0.007633174643907542 0 0 0 2987:1 33590:1 39826:1 40433:1 40443:1 40457:1 40479:1 40495:1 40506:1 
0.4011274626808449 0.03068580419146312 0.1247283028850871 0.07752219266173088 0.87890409319861 0.104918559530807 12599:1 22705:1 40451:1 40473:1 40493:1 40507:1 
0.3075196126286077 0 0.3136914682300884 0.01245868730176807 1 0 22204:1 40449:1 40463:1 40473:1 40481:1 40498:1 40502:1 
0 0 0 0.8558669860052898 0.5842479986563263 0 15583:1 20636:1 35557:1 40435:1 40452:1 40466:1 40477:1 40481:1 40501:1 40510:1 
0 0 0.1252202802291496 0.08521210161632209 0 0 5523:1 14683:1 15348:1 24789:1 25454:1 40435:1 40440:1 40451:1 40462:1 40473:1 40484:1 
0 0 0 0 1 0 30836:1 37821:1 40499:1 40510:1 
0 0.7043833498881321 0 0 1 0 40448:1 40470:1 40498:1 40505:1 
1 1 0 1 1 0 40457:1 40466:1 40477:1 40481:1 40501:1 40506:1 
0.3625546904141371 0.08776141723559447 0.08233251223995533 0.2231125725127743 0.4716006956335751 0 497:1 34187:1 37878:1 40429:1 40444:1 40449:1 40459:1 40471:1 40481:1 40495:1 40510:1 
0 0 0.04661716673101418 1 0 0 30799:1 40031:1 40428:1 40440:1 40448:1 40470:1 40495:1 40506:1 
0 0 0 0 1 0 15348:1 25454:1 40448:1 40462:1 40470:1 40484:1 40501:1 40506:1 
1 0 0 0 0 0 2600:1 13975:1 24081:1 40429:1 40444:1 40451:1 40466:1 40473:1 40488:1 
0.4720675303221774 0.1750293944267229 0.1631143479693701 0 0.1692649432330356 0 19722:1 23117:1 31780:1 40451:1 40466:1 40473:1 40490:1 40495:1 40504:1 
0 0 0 0 0 0.1392057071707014 14137:1 27126:1 31603:1 40455:1 40468:1 40477:1 40484:1 40495:1 
0 0 0 1 1 0 40496:1 40505:1 
0 0 0 1 0 0 7275:1 39780:1 40427:1 40444:1 40455:1 40463:1 40469:1 40481:1 40498:1 40506:1 
0 0.1507263457902275 0.0548591395408082 0.9986948852530581 0.9468303670736722 0 3950:1 39828:1 40429:1 40446:1 40448:1 40470:1 40501:1 40506:1 
1 1 1 1 1 1 40455:1 40466:1 40473:1 40490:1 40499:1 40506:1 
0 0 0 0 1 0 40448:1 40470:1 40496:1 40505:1 
0 0 0 0 0.4424581178542732 0 17020:1 27126:1 36909:1 40448:1 40462:1 40470:1 40484:1 40493:1 40510:1 
0.3632585656643622 0 0.1811430460510893 0 1 0.007612531429175417 15908:1 22489:1 32401:1 40023:1 40452:1 40462:1 40473:1 40485:1 40499:1 40506:1 
0 1 0 0 1 0 34895:1 40457:1 40479:1 40495:1 40510:1 
0 0 0 1 0.6682284121574918 0 8896:1 40433:1 40444:1 40448:1 40470:1 40498:1 40511:1 
0 0 0 0 1 0 40448:1 40470:1 40500:1 40507:1 
0 0 0 0 1 0 13765:1 33142:1 40455:1 40460:1 40471:1 40481:1 40499:1 40512:1 
0.7025263200634975 0 0 0 1 0 35889:1 40448:1 40470:1 40491:1 40510:1 
0 0 0.08448077249347991 0.9258092175847848 0 0 3898:1 10295:1 20401:1 40429:1 40446:1 40451:1 40468:1 40473:1 40490:1 
0 0 0 0 1 0 15908:1 21378:1 33868:1 40446:1 40455:1 40462:1 40477:1 40481:1 40499:1 40512:1 
0.1210527540604555 0.0744811896607975 0.07963041198872026 0.1305125612175354 0 0 7235:1 18366:1 23419:1 29163:1 36338:1 40428:1 40440:1 40448:1 40462:1 40473:1 40484:1 40501:1 40506:1 
0.1471800667904914 0 0 0.8277916738727065 0 0 14515:1 18177:1 36120:1 40435:1 40437:1 40451:1 40466:1 40475:1 40490:1 40496:1 40506:1 
0 0 0 0.356820188813934 0.03844834589558121 0.005138097714145008 5991:1 18366:1 24083:1 25658:1 31475:1 40429:1 40440:1 40448:1 40462:1 40473:1 40484:1 40499:1 40507:1 
0.01690972968841626 0 0.01900924245724782 0.01971818673042641 0 0 22194:1 27705:1 35560:1 40430:1 40455:1 40467:1 40473:1 40488:1 40498:1 40506:1 
0 0 0 1 0.2198901971985189 0 23230:1 33868:1 40431:1 40443:1 40450:1 40462:1 40477:1 40485:1 40499:1 40512:1 
0 0 0 0 0.1945392629418325 0 13484:1 25454:1 30446:1 40451:1 40458:1 40477:1 40484:1 40499:1 40506:1 
0 0 0 0 1 0 25454:1 40455:1 40461:1 40479:1 40484:1 40491:1 40510:1 
0 0 0 0 0.09787446596297492 0 4730:1 33336:1 39780:1 40429:1 40448:1 40470:1 40499:1 40506:1 
0.3736054966366067 0 0 0.3373354662883067 0.06519031311436443 0.1691219520969071 4863:1 21037:1 25877:1 35010:1 40433:1 40444:1 40449:1 40460:1 40473:1 40488:1 40499:1 40512:1 
0 0 0 1 1 0 11967:1 22073:1 40429:1 40443:1 40451:1 40473:1 40501:1 40506:1 
0 0 0 1 0 0 33034:1 40435:1 40448:1 40459:1 40470:1 40481:1 40499:1 
0 0 0 0.4949539312188636 0 0 34727:1 40431:1 40444:1 40447:1 40459:1 40469:1 40481:1 40495:1 40502:1 
0 0 0 1 1 0 39780:1 40432:1 40446:1 40448:1 40470:1 40498:1 40506:1 
0 0.1076044923237866 0.0007033297145294962 1 1 0 35236:1 38921:1 40425:1 40446:1 40499:1 40510:1 
0 0 0.003196986958765059 0 0 0 19028:1 29277:1 40454:1 40462:1 40471:1 40488:1 
0.02825410692247566 0 0 0 0 0 2600:1 15496:1 22521:1 38177:1 40429:1 40440:1 40452:1 40462:1 40477:1 40487:1 40493:1 40510:1 
0.6551018536707971 0 0 1 1 0 14608:1 19010:1 40428:1 40446:1 40455:1 40462:1 40477:1 40481:1 40499:1 40507:1 
0.1090770079393219 0 0 0.3971259810162865 0.09222504269324995 0 16909:1 27015:1 40447:1 40466:1 40469:1 40488:1 40499:1 40506:1 
0.1022270591239069 0 0.02188069111208925 0 1 0 31044:1 40448:1 40470:1 40495:1 40504:1 
0 0 0 0 1 0.3593476923277573 40496:1 40510:1 
0 0 0 0 0 0.07972708701334363 30847:1 40452:1 40474:1 40499:1 40507:1 
0.1949033555760553 0 0 0 0.1248463784423393 0 34727:1 39962:1 40433:1 40440:1 40448:1 40466:1 40477:1 40490:1 40495:1 40510:1 
0.1864521349818588 0.03522912682731837 0.08616351446142921 0.4121930851842539 0.8788275887788306 0 1153:1 34044:1 35579:1 40429:1 40446:1 40448:1 40470:1 40499:1 40506:1 
0.2262807702545796 0 0 1 0.9235692335674356 0 20478:1 25658:1 40427:1 40437:1 40455:1 40461:1 40473:1 40484:1 
1 1 1 1 1 0.5724788729793994 40455:1 40477:1 40498:1 40506:1 
0 0.0745324239888133 0.04765945003337491 1 0 0 18146:1 28464:1 40265:1 40435:1 40452:1 40466:1 40470:1 40484:1 40496:1 40506:1 
1 1 0 1 1 0 40495:1 40510:1 
0.06901758845534031 0 0 1 0.5988194892532386 0 19659:1 24712:1 28486:1 40435:1 40437:1 40448:1 40466:1 40477:1 40488:1 40498:1 40512:1 
0.1217627228865174 0 0 1 0.01397647421598065 0 7861:1 14363:1 34881:1 40432:1 40444:1 40455:1 40460:1 40477:1 40485:1 40499:1 
0 0 0 0 0.3076795448781893 0 377:1 6330:1 31724:1 40429:1 40444:1 40448:1 40462:1 40473:1 40481:1 40495:1 40504:1 
0 0 0.01823951238367062 0 0 0 29269:1 34101:1 37450:1 40457:1 40468:1 40470:1 40484:1 40495:1 40506:1 
0 0.2781605553008655 0.07525612562246915 0.4134775400969472 0 0 5446:1 22953:1 31166:1 40431:1 40440:1 40457:1 40462:1 40473:1 40487:1 40499:1 
0.04690156275180912 0.162285593365447 0.07786874123552918 0.8752319277388044 0.6059293621189069 0 32748:1 38604:1 40429:1 40444:1 40495:1 40506:1 
0 0 0 0 0.9848438370262128 0 15348:1 25454:1 34970:1 40455:1 40462:1 40477:1 40484:1 40495:1 40506:1 
1 0 1 1 1 1 40455:1 40477:1 40512:1 
0.00561419795497369 0 0 1 0 0 26090:1 38108:1 40428:1 40446:1 40448:1 40461:1 40472:1 40484:1 40498:1 40506:1 
0 0 0 0.2755908739780032 0 0 17960:1 28066:1 31595:1 39780:1 40435:1 40436:1 40448:1 40466:1 40470:1 40488:1 40499:1 40506:1 
0.2926021323893236 1 1 1 1 0 40457:1 40466:1 40479:1 40488:1 40512:1 
0 0 0 0 0.4945106840056093 0.2731080709639283 32055:1 40449:1 40466:1 40471:1 40488:1 40495:1 40509:1 
0.2705663302963442 1 0 0.3944274191220448 0.06376815442494857 0.2048594045389338 25636:1 38233:1 40452:1 40468:1 40476:1 40484:1 40501:1 40510:1 
0 0 0 0.9037559436585986 0 0 9632:1 34881:1 40433:1 40444:1 40448:1 40470:1 40499:1 40509:1 
0 0 0.03631193673838366 0 0 0 1153:1 14137:1 24243:1 34727:1 40429:1 40446:1 40455:1 40459:1 40477:1 40481:1 40495:1 
0 0 0.04554849597063684 0.0003011151284784617 0 0 5991:1 15348:1 25454:1 37669:1 40435:1 40440:1 40454:1 40462:1 40476:1 40484:1 40496:1 40506:1 
1 0 0 1 1 0 40449:1 40461:1 40490:1 40500:1 40508:1 
1 0 1 1 1 0 40455:1 40462:1 40477:1 40488:1 40501:1 40506:1 
0 0 0 0 1 0 40448:1 40470:1 40501:1 40505:1 
0 0 0 0.2141752938676311 0.1824440996311305 0 26761:1 40452:1 40459:1 40470:1 40484:1 40501:1 40506:1 
0 0 0 0 0.7078429237009751 0 14683:1 17020:1 24789:1 27126:1 40425:1 40446:1 40451:1 40462:1 40473:1 40484:1 40493:1 40507:1 
1 0 0.09530418909301673 0 1 0 25884:1 33860:1 35518:1 40450:1 40464:1 40474:1 40484:1 40495:1 40506:1 
0.5834785427122042 0 0.4225925558228723 0 0 0 13975:1 16391:1 34160:1 40451:1 40466:1 40479:1 40488:1 40495:1 40510:1 
1 0 0 0.09766628078639251 1 0 10450:1 33548:1 39948:1 40455:1 40459:1 40476:1 40484:1 40499:1 40506:1 
0.0008601201786014566 0.0001151923122768976 0 0 0 0 21953:1 31918:1 40449:1 40458:1 40473:1 40487:1 40499:1 
0 0.05030687418924742 0.003928309226372788 0.2380402516101004 0.02468592888973358 0 5878:1 39831:1 40429:1 40440:1 40448:1 40470:1 40501:1 40510:1 
0 0 0.1468170478027981 0 1 0.3387263004001709 30183:1 31654:1 40426:1 40449:1 40463:1 40479:1 40488:1 40499:1 40506:1 
0.8538975996777385 0 0 1 1 0.6134924691572045 40433:1 40455:1 40459:1 40477:1 40481:1 40496:1 40510:1 
0.6455762195708956 0.711132968055746 0.138109116814913 1 1 0 5041:1 40429:1 40446:1 40447:1 40465:1 40477:1 40490:1 
1 1 1 0 1 1 40447:1 40462:1 40479:1 40484:1 40499:1 40506:1 
0.436551741272896 0 0.04297693583751398 0.5330405132978715 0.3952398123530044 0.02840682269196446 21745:1 26367:1 40433:1 40455:1 40466:1 40473:1 40484:1 40512:1 
0 0 0 0 1 0 40448:1 40470:1 40496:1 40502:1 
0.3074639735616671 0 0 0 0.206479674210913 0 15908:1 22621:1 40452:1 40462:1 40477:1 40481:1 40498:1 40512:1 
0 0 0 0.2945104676291224 0 0 18898:1 30835:1 36219:1 40427:1 40452:1 40466:1 40479:1 40481:1 40495:1 40510:1 
0 0 0 0 0.1808219174805523 0 34895:1 40455:1 40459:1 40477:1 40481:1 40495:1 40512:1 
0 0 0 0.5660184142125426 0.03423236468205601 0 34131:1 38966:1 40435:1 40499:1 40506:1 
1 0.7026437895150822 0.3358435462425405 0.205379801553672 1 0 30485:1 40455:1 40462:1 40473:1 40485:1 40495:1 
1 1 1 1 1 0.1843502443171722 40429:1 40446:1 40457:1 40479:1 40501:1 40506:1 
0 0 0 0.641012366291606 0 0 2527:1 34131:1 40433:1 40446:1 40499:1 40509:1 
0 0 0 1 0 0 34881:1 40435:1 40440:1 40448:1 40470:1 40499:1 40512:1 
0.07554135052307394 0.02712671020636449 0 0.05749923021631354 1 0 33000:1 40495:1 40510:1 
0.3321403117707875 0.1428723691107672 0 0 0 0 26729:1 37429:1 40457:1 40459:1 40469:1 40484:1 40501:1 40506:1 
0 0 0 0.183495263338368 0.8422959388330582 0 25783:1 40450:1 40458:1 40469:1 40488:1 40512:1 
0 0 0 0 1 0 40448:1 40470:1 40494:1 40508:1 
0 0 0.1873867004616554 1 1 0 40435:1 40448:1 40470:1 40498:1 40512:1 
0.03642491956782552 0 0.1342041362876452 1 0 0 34881:1 39811:1 40446:1 40457:1 40460:1 40473:1 40481:1 40499:1 40506:1 
0.291668429429884 0 0 1 1 0 15908:1 33714:1 40435:1 40446:1 40452:1 40462:1 40477:1 40481:1 40499:1 40510:1 
0 0.4959667978017015 0 0 1 0 26130:1 40457:1 40460:1 40479:1 40488:1 
0 0 0 0 1 0 34727:1 40448:1 40470:1 40495:1 40507:1 
0 0 0 1 1 0.02751595122061013 30808:1 40446:1 40499:1 40511:1 
0.5840482887722728 0.1392672076818741 0.6887919135561853 0.5851950368898667 1 0 15908:1 28464:1 39934:1 40435:1 40446:1 40455:1 40462:1 40470:1 40484:1 40493:1 40510:1 
1 1 1 1 1 0 40457:1 40479:1 40492:1 40505:1 
0.593559322130224 0 0.4329377941342107 0 1 0 34131:1 40450:1 40464:1 40470:1 40484:1 40499:1 40512:1 
0 0 0.00236279879336997 0 0 0 3237:1 19163:1 30039:1 34040:1 40429:1 40457:1 40462:1 40470:1 40484:1 40495:1 
0 0 0 1 1 0 40468:1 40479:1 40481:1 40512:1 
0 0 0 0 1 0 13765:1 23871:1 33142:1 40455:1 40459:1 40477:1 40481:1 40499:1 
0 0 0 0 0.1880706503261402 0 19597:1 25454:1 35624:1 40448:1 40462:1 40469:1 40484:1 40498:1 40506:1 
0 0 0 0 0.4355026718509614 0 958:1 9355:1 25454:1 30979:1 40429:1 40440:1 40449:1 40463:1 40470:1 40484:1 40495:1 40507:1 
0.4691646678814174 0 0 1 1 0.218169599390962 40428:1 40442:1 40452:1 40461:1 40472:1 40486:1 40499:1 40510:1 
0 0 0 0 1 0 40448:1 40470:1 40493:1 40512:1 
0 0 0 0 0 0.7929198729217506 10952:1 18818:1 21058:1 28924:1 39166:1 40426:1 40451:1 40466:1 40473:1 40488:1 40493:1 40510:1 
0 0 0 0 0.3872381455092966 0.2006428928089029 13464:1 19722:1 26173:1 40455:1 40466:1 40471:1 40488:1 40512:1 
0.1683087117441079 0.03735996915272465 0 1 1 0 8387:1 40427:1 40444:1 40452:1 40474:1 40498:1 40505:1 
0.6879789588580072 0 0 0.8197951278888201 0 0 3659:1 10360:1 40433:1 40437:1 40455:1 40477:1 40488:1 40501:1 40502:1 
0 0 0 1 0 0 34881:1 40433:1 40446:1 40499:1 40509:1 
1 0 0 0 1 0 15908:1 40452:1 40462:1 40477:1 40481:1 40498:1 40502:1 
0.9590953970896444 0.007997810584622103 0 0 1 0 26931:1 40449:1 40458:1 40477:1 40484:1 
0.2122804056520954 0 0 0 0 0 785:1 10295:1 29163:1 36120:1 40429:1 40446:1 40451:1 40468:1 40469:1 40484:1 40501:1 40506:1 
0 1 0 0 1 0 25454:1 40457:1 40462:1 40470:1 40484:1 40501:1 40506:1 
0.02189544781648265 0.02663867636322051 0.00228340602445828 0 0 0 17768:1 27135:1 40457:1 40462:1 40476:1 40484:1 40501:1 40506:1 
0.2310100940321263 0.8362446878460418 0 0 0 0 37901:1 40457:1 40468:1 40472:1 40486:1 40501:1 40506:1 
0 0 0.3524886062038125 1 1 0 10295:1 20401:1 40435:1 40443:1 40451:1 40473:1 
0.5446066792784361 0.3619889634123943 0.06687009551850066 0.0420553005711704 0.5021933321882216 0.1557501472060673 19687:1 20303:1 40449:1 40466:1 40473:1 40490:1 40493:1 40510:1 
0.03624344484768217 0 0 0 0 0 14758:1 24864:1 37454:1 40451:1 40466:1 40473:1 40488:1 40491:1 40510:1 
0 0 0 0.3666891804466199 0.4829537412377079 0 11512:1 29793:1 40433:1 40451:1 40460:1 40471:1 40488:1 40512:1 
0.07693210722431613 0 0.0357454030984294 0.08492823050923096 0.273176580686623 0.09604864474868965 1153:1 12167:1 16042:1 21095:1 29287:1 36777:1 40429:1 40444:1 40455:1 40462:1 40473:1 40488:1 40498:1 40506:1 
0.4906922847168188 1 0.6201541775870236 1 1 0 38570:1 40429:1 40446:1 40457:1 40479:1 40498:1 40506:1 
0 0 0 0.4778468121215166 0 0 17669:1 20478:1 27126:1 40012:1 40428:1 40442:1 40457:1 40462:1 40473:1 40484:1 40501:1 40506:1 
1 1 1 1 1 0 40449:1 40459:1 40479:1 40488:1 40495:1 
0 0 0 0 1 0 17020:1 27126:1 40217:1 40448:1 40462:1 40470:1 40484:1 40496:1 40506:1 
0 0 0 1 1 0 39948:1 40446:1 40448:1 40470:1 40498:1 40506:1 
0 0 0 0 1 0 18146:1 23085:1 30269:1 40452:1 40466:1 40477:1 40488:1 
0.5918396684593592 0 0 0.3498814313534064 1 0 3199:1 40429:1 40448:1 40470:1 40494:1 40508:1 
1 0 0.08578425001769976 0.9998472154021436 0.9979795366699645 0 36420:1 40427:1 40444:1 40455:1 40477:1 40492:1 40506:1 
0 0 0.1146634667581907 0.4662457553122212 0.06795473615784213 0 1929:1 8041:1 39948:1 40429:1 40440:1 40448:1 40470:1 40501:1 40506:1 
0.3511143852764937 0 0.05708032895673675 1 0.7581526711610806 0.1065932459870671 981:1 18246:1 28352:1 40433:1 40443:1 40454:1 40462:1 40476:1 40484:1 
0.01524343551371172 0.2999611583556514 0.2282069450714399 0 1 0 31067:1 35616:1 40448:1 40470:1 40495:1 40506:1 
0 0 0 1 0 0 13336:1 23442:1 34881:1 40435:1 40443:1 40455:1 40459:1 40477:1 40481:1 40499:1 
0 0 0 0.003474801359095961 0 0.003292466589533462 5242:1 11431:1 25219:1 40430:1 40440:1 40455:1 40459:1 40477:1 40487:1 40493:1 40502:1 
0.6260108237460025 0.2792565323569882 0 0.1901714665777046 0.6356249246411276 0 17526:1 32978:1 35971:1 40457:1 40466:1 40490:1 40499:1 40510:1 
0 0.7379800148844793 0 1 1 0 5991:1 37971:1 40427:1 40440:1 40457:1 40479:1 40493:1 40506:1 
0 0 0 0.6824751580273388 0.1134368683771553 0.1998971735767979 2739:1 18887:1 23199:1 36342:1 40429:1 40446:1 40452:1 40466:1 40477:1 40485:1 40498:1 40506:1 
0 0 0 0.6284849896648984 0 0 1634:1 29474:1 36648:1 40433:1 40444:1 40448:1 40458:1 40469:1 40484:1 40493:1 40510:1 
1 0 0.4517848078925462 1 1 0.4531194944009273 24231:1 40455:1 40463:1 40473:1 40490:1 40499:1 40509:1 
0.01829329043308992 0 0 0 0 0.03712475062910691 18446:1 28552:1 31551:1 40452:1 40462:1 40474:1 40484:1 40499:1 
0 0 0 0.04089757117406265 0 0 681:1 20007:1 30113:1 34727:1 40433:1 40446:1 40447:1 40466:1 40469:1 40488:1 40495:1 40512:1 
0 0 0 0.0004294868105783272 0 0 1259:1 9237:1 10295:1 20401:1 33655:1 40433:1 40444:1 40451:1 40473:1 40499:1 
0.3090603611290897 0 0 0.140264074021495 0.6033902276001639 0.5259182857714328 35434:1 40452:1 40468:1 40479:1 40485:1 40499:1 40506:1 
0.2901448447761827 0 0 0 0 0 20775:1 29908:1 35742:1 40452:1 40466:1 40473:1 40488:1 40492:1 40506:1 
1 0 0.1789876774681459 0.04826840395774934 0.3685235550239568 0 11843:1 21949:1 40451:1 40466:1 40473:1 40488:1 40499:1 40506:1 
0.06539281666009455 0.02022754877784917 0.02301210823224157 0 0 0 33014:1 39150:1 40448:1 40462:1 40479:1 40481:1 40495:1 40510:1 
0 0.09576163468412946 0 0.5028003784803413 1 0 36003:1 40448:1 40470:1 40501:1 40510:1 
0.5979862131021622 0.2465870438840171 0.2262693869390819 0.1811778896897544 1 0 10513:1 20619:1 40451:1 40473:1 40495:1 
0.1934136964762491 0 0.115405778293894 0.138930212876378 0.7065972611322149 0 14786:1 31554:1 40455:1 40458:1 40479:1 40488:1 40499:1 40504:1 
0 0 0 0 1 0 25454:1 40457:1 40465:1 40476:1 40484:1 40499:1 40511:1 
0 0.7402549147728621 0 0 0.08315188701347369 0 34131:1 39195:1 40457:1 40479:1 40499:1 40506:1 
0.1621704215101164 0 0.6985117053572212 0 0.1084707137574863 0 11910:1 22016:1 34895:1 40455:1 40477:1 40495:1 40512:1 
0 0 0 1 1 0 36032:1 40435:1 40444:1 40448:1 40470:1 40493:1 40506:1 
0.9516030074570608 0 0 0 0 0 32112:1 40449:1 40466:1 40477:1 40481:1 40495:1 
0.1492793438905808 0 0 0.1828989596214306 1 0 13901:1 24007:1 40433:1 40455:1 40477:1 40494:1 40508:1 
0 0 0 0 1 0 15348:1 25454:1 39635:1 40448:1 40462:1 40470:1 40484:1 40496:1 40506:1 
0 0 0.03893893718978172 0 0 0 31067:1 36111:1 40449:1 40463:1 40474:1 40481:1 40495:1 40510:1 
0.08777702037962136 0 0 1 1 0.00552144384663727 36219:1 40452:1 40474:1 40501:1 40510:1 
0.2784000108651064 0 0 0 0 0 18929:1 23982:1 26053:1 39780:1 40448:1 40462:1 40473:1 40484:1 40498:1 40506:1 
0 0 0 0 1 0 11967:1 22073:1 40451:1 40473:1 40493:1 40510:1 
0.4431749694339871 0.4152313777082893 0.0391308543741361 1 0.955976859377667 0.1790902819929723 5446:1 26882:1 40425:1 40440:1 40452:1 40466:1 40479:1 40484:1 
0.007966548580616715 0 0 1 0 0 1129:1 31724:1 40433:1 40444:1 40455:1 40466:1 40477:1 40488:1 40495:1 
0 0 0.04054413323566751 0 1 0 15348:1 32428:1 40447:1 40462:1 40490:1 40499:1 40510:1 
1 0 0.2984994660310159 1 1 0 30465:1 40449:1 40466:1 40479:1 40488:1 40495:1 40507:1 
0 0 0 0.1687217287658338 0 0 34131:1 40433:1 40441:1 40448:1 40470:1 40499:1 40505:1 
0 0.462363713409863 0 1 1 0 40427:1 40443:1 40448:1 40470:1 40501:1 40508:1 
0 0 0 0.3241376131944808 0.6935193303234112 0.1395947781386692 846:1 8411:1 34727:1 40429:1 40444:1 40495:1 40512:1 
1 0 0 0 1 0 15530:1 40448:1 40462:1 40490:1 40491:1 40505:1 
0 0.4432817931724484 0 1 1 0 37165:1 40429:1 40441:1 40448:1 40470:1 40498:1 40506:1 
0 0.3334933536660663 0.02173878527063889 0 1 0 37749:1 40448:1 40470:1 40501:1 40506:1 
0.272196913003235 0 0.1653811234275071 1 0.8438452547873376 0.1316991579800843 14849:1 24955:1 40433:1 40446:1 40451:1 40465:1 40473:1 40487:1 40494:1 40512:1 
1 1 1 1 1 0 40435:1 40444:1 40495:1 40506:1 
0 0 0 0.06887432747987547 0 0 533:1 6330:1 19272:1 27126:1 40429:1 40444:1 40454:1 40462:1 40469:1 40484:1 
0 0 0.1075491994826166 0 0.6587962360839807 0 10931:1 21037:1 36520:1 40451:1 40466:1 40473:1 40488:1 40499:1 40506:1 
0.1160463249502725 0.2144136868958992 0.2603250728256969 1 1 0 25454:1 40429:1 40446:1 40457:1 40462:1 40470:1 40484:1 40492:1 40506:1 
1 0.3379563001983826 0.03831795140876106 1 1 0 35624:1 40448:1 40470:1 40498:1 40506:1 
1 0 0.2199610809909099 0.2524418397659962 1 0.2201922899860842 14545:1 40455:1 40460:1 40490:1 40499:1 40512:1 
0 0.6108004273341777 0 1 1 0 36823:1 40427:1 40446:1 40448:1 40470:1 40498:1 40506:1 
0 0 0 0.3979933691175707 0 0 6011:1 18460:1 24789:1 25454:1 39375:1 40435:1 40440:1 40448:1 40462:1 40473:1 40484:1 40501:1 40506:1 
1 1 1 1 1 1 40457:1 40479:1 40499:1 40511:1 
0 0 0 0 1 0 38403:1 40448:1 40470:1 40499:1 40506:1 
0 0.7162043090121901 0 1 1 0 40426:1 40448:1 40470:1 40498:1 40508:1 
0 0 0 0 1 0 40448:1 40470:1 40498:1 40505:1 
1 0.4765856265711476 0.1216672461112939 1 0.7669969234231544 0.3741659056033387 23815:1 40429:1 40437:1 40454:1 40468:1 40477:1 40490:1 40501:1 
0 0 0 1 0 0 39780:1 40428:1 40446:1 40452:1 40460:1 40478:1 40481:1 40498:1 40506:1 
0.01226670528208067 0.0290685082832929 0.005262839739282557 1 1 0 4640:1 31824:1 37410:1 40429:1 40444:1 40495:1 40510:1 
1 1 0.2303541546930832 0 1 0 19736:1 40430:1 40457:1 40462:1 40473:1 40490:1 40498:1 
0 0 0 0 0.0388965066651295 0 2263:1 8951:1 17846:1 27126:1 31957:1 40244:1 40433:1 40440:1 40452:1 40462:1 40474:1 40484:1 40499:1 40510:1 
0.597940488329053 0.2466175909630677 0.2263387284900757 0.1811076992667839 0.7190190508724358 0 10437:1 20543:1 40451:1 40473:1 40495:1 
0 0 0 0.9064476039267938 0.4814799617303073 0 4019:1 8040:1 33087:1 40429:1 40444:1 40448:1 40470:1 40499:1 40506:1 
0.05025484831444257 0 0 0.5392667373464577 0.02868096025105779 0 1493:1 9322:1 31908:1 40429:1 40444:1 40448:1 40462:1 40470:1 40484:1 40499:1 40509:1 
0 0.03216487646848028 0 0 0.7471677180804787 0 25454:1 33708:1 40457:1 40465:1 40476:1 40484:1 40499:1 40504:1 
0 0.6308530353463345 0 0 1 0 40448:1 40470:1 40498:1 40505:1 
0 0 0 0 1 0 11424:1 17020:1 40451:1 40462:1 40479:1 40488:1 
0.1073057127639967 0 0 0 0.9284009115762486 0 16648:1 40447:1 40462:1 40473:1 40481:1 40499:1 40512:1 
0 0 0.008122641296202621 1 0 0 30799:1 39920:1 40428:1 40440:1 40449:1 40463:1 40475:1 40481:1 40495:1 40506:1 
0 0 0 0 1 0 17020:1 27126:1 40448:1 40462:1 40470:1 40484:1 40492:1 40504:1 
1 1 1 1 1 1 40446:1 40457:1 40479:1 40496:1 40510:1 
0 0 0 0 1 0 17020:1 27126:1 40448:1 40462:1 40470:1 40484:1 40493:1 40510:1 
0 0 0 0.0006393273532615343 0 0 6182:1 35358:1 38406:1 40427:1 40444:1 40448:1 40470:1 40499:1 40506:1 
0 0 0 0.7232896041008878 0 0 8387:1 34040:1 40434:1 40444:1 40447:1 40459:1 40469:1 40481:1 40495:1 
0 0.5043907069278614 0 0 1 0 37450:1 40501:1 40506:1 
0.7311526806765114 0.4817711306098097 0 0.1118310363743639 1 0.1573553916221512 24865:1 40448:1 40468:1 40473:1 40490:1 40498:1 40512:1 
0.4078445958670011 0 0.05042554771864415 0 0 0.1244196870437244 846:1 8712:1 13366:1 23472:1 40429:1 40444:1 40451:1 40466:1 40473:1 40488:1 40494:1 40510:1 
0.4423948334628972 0.07985408026324567 0 0.1418238676405414 1 0 4662:1 11512:1 29793:1 40433:1 40451:1 40459:1 40471:1 40488:1 
0 0 0 0 1 0 34113:1 40452:1 40462:1 40475:1 40487:1 40499:1 40512:1 
0 0.4535175077288843 0 0.9351936576826659 0.06644178461016396 0 19616:1 39415:1 40433:1 40444:1 40457:1 40462:1 40479:1 40481:1 40501:1 40506:1 
0 0 0 0 0.3343335231773834 0 18270:1 28376:1 39780:1 40448:1 40462:1 40470:1 40484:1 40498:1 40506:1 
0 0 0 0.3841299267677433 1 0 377:1 6819:1 40429:1 40440:1 40494:1 40506:1 
0 0 0 0.5801804222330965 0 0.01928441178995508 661:1 5582:1 33977:1 35560:1 40429:1 40444:1 40468:1 40490:1 40499:1 40506:1 
0 0 0 0.8667090951373263 0.9861989210129546 0 3659:1 30979:1 40301:1 40433:1 40446:1 40448:1 40470:1 40495:1 40506:1 
0 0 0 1 0.6600509527805933 0 34131:1 40435:1 40440:1 40499:1 40506:1 
0 0 0 0 0 0.2224129538690063 13765:1 23871:1 40455:1 40477:1 40499:1 40511:1 
0 0.5973960353425477 0.154434179160374 1 1 0.1093275703963409 9557:1 33868:1 40429:1 40444:1 40457:1 40479:1 40499:1 40509:1 
0.4110577299431255 0 0.01729722865996649 0.1837370517275472 0.07699871097162418 0.05691264758755914 412:1 9112:1 26583:1 36522:1 40429:1 40440:1 40450:1 40468:1 40475:1 40484:1 40501:1 40506:1 
0.6721741362620491 0 0 0 1 0 40447:1 40466:1 40477:1 40487:1 
0.330754028596852 0.1889891569396739 0 0.001029344953610964 0.1799691920022989 0.1856269578434736 17692:1 22745:1 40447:1 40462:1 40473:1 40490:1 40499:1 40511:1 
0 0 0 1 1 0 36466:1 40431:1 40443:1 40448:1 40470:1 40501:1 40510:1 
0 0 0 1 0.9728867586470351 0 5468:1 37971:1 40426:1 40444:1 40448:1 40470:1 40498:1 40506:1 
0.1988688731893347 0 0 1 0.5114603803754157 0.04852643536924305 16691:1 22338:1 40433:1 40446:1 40452:1 40462:1 40473:1 40490:1 40501:1 40512:1 
0 0 0 0.1765266806611722 0.2588538224298245 0 1153:1 19190:1 24243:1 34772:1 40429:1 40446:1 40447:1 40466:1 40477:1 40481:1 40495:1 40510:1 
0.0668989278277488 0 0.02679684840548833 1 0.7050777537145416 0 20589:1 30183:1 31654:1 40435:1 40449:1 40463:1 40473:1 40488:1 40499:1 40506:1 
0 0 0 0.3204209870849065 0 0 8040:1 35997:1 40435:1 40444:1 40448:1 40470:1 40496:1 40506:1 
0.5092577569377955 0 0.06453597211854513 0.07100047989025865 0.6094610047036962 0 21378:1 32140:1 40454:1 40466:1 40477:1 40482:1 40495:1 
0 0 0 0 1 0 40448:1 40470:1 40493:1 40507:1 
0 0 0 0 0.4654709210755733 0 11272:1 19568:1 40455:1 40462:1 40479:1 40488:1 40498:1 
1 0.3431640706144902 0.2532863543706158 0.3422806350515036 1 0.1333076999548702 15291:1 40455:1 40462:1 40490:1 40499:1 40506:1 
0 0 0 0 0 0.1206253416887705 14137:1 24243:1 34727:1 40455:1 40459:1 40477:1 40481:1 40495:1 40512:1 
0 0 0 1 1 0 40435:1 40443:1 40448:1 40470:1 40499:1 40509:1 
0 0 0 0 0.7141348904198033 0 39973:1 40430:1 40448:1 40470:1 40500:1 40510:1 
0 0 0 0.4284376852681557 1 0 16005:1 28924:1 39166:1 40426:1 40446:1 40454:1 40462:1 40471:1 40488:1 40493:1 40510:1 
1 0 0.5139673611855721 1 1 0 6914:1 40433:1 40440:1 40454:1 40476:1 
0 0 0 1 1 0 27126:1 40431:1 40443:1 40448:1 40461:1 40476:1 40484:1 40496:1 40512:1 
0 0 0 0 1 0 11967:1 22073:1 40446:1 40451:1 40473:1 40499:1 40510:1 
1 0.3931246908638865 1 1 1 0 40431:1 40443:1 40457:1 40462:1 40475:1 40487:1 40498:1 40506:1 
0 0 0 0 0.2071085432174057 0.2030486746750807 4504:1 38087:1 40433:1 40443:1 40448:1 40470:1 40498:1 40510:1 
0 0 0 1 1 0 4612:1 40433:1 40443:1 40448:1 40470:1 
0.7448561559563328 1 0.6013841948977078 1 1 0 40457:1 40479:1 40500:1 40507:1 
0 0 0 0 0.9457776720827102 0 30799:1 40495:1 40510:1 
0 0.2924277151502543 0.005713893492433179 0 0 0 18584:1 36338:1 40457:1 40462:1 40479:1 40481:1 40501:1 40506:1 
0.01882495700747478 0 0 1 1 0 4269:1 40433:1 40444:1 40448:1 40470:1 40496:1 40512:1 
0 0 0 1 0 0 39826:1 40433:1 40444:1 40448:1 40470:1 40496:1 40506:1 
0 0 0 0 1 0.08122173687450616 13237:1 25454:1 40455:1 40463:1 40473:1 40484:1 
1 0 0 1 1 0.6522419437096916 40449:1 40463:1 40471:1 40485:1 40491:1 40502:1 
0.4104378864628111 0 0.04140997654106881 0.01271377621212422 0.840448906130133 0 22535:1 32918:1 40455:1 40462:1 40477:1 40481:1 40495:1 
0 0 0 0.9036457948732283 0 0 7990:1 34881:1 40433:1 40444:1 40448:1 40470:1 40499:1 40509:1 
0 0.4761991201618731 0.0602974944597886 1 1 0 35429:1 40434:1 40444:1 40448:1 40470:1 40501:1 40506:1 
0.09997505185046729 0.02924550433400631 0.006082209076064141 0.9905875729264408 0.3029473201610285 0 7462:1 19708:1 22060:1 40435:1 40444:1 40452:1 40462:1 40473:1 40481:1 40501:1 40506:1 
0.3713690382040998 0 0.1466319982422784 0 0.2243917706484251 0 4660:1 8252:1 11783:1 18531:1 34187:1 39859:1 40429:1 40440:1 40451:1 40462:1 40470:1 40481:1 40495:1 40510:1 
0 0 1 1 1 0 40435:1 40446:1 40448:1 40470:1 40493:1 40504:1 
0.1934745712594073 0.08474247576082783 0.06715582647683152 0.1203400426474165 0.6523913321121868 0 7558:1 19138:1 28502:1 33868:1 40430:1 40440:1 40457:1 40462:1 40479:1 40484:1 40499:1 40505:1 
0 0.006824799216842987 0 0.4571406703878674 1 0 35630:1 40426:1 40448:1 40470:1 40493:1 40510:1 
0.004615072208417976 0 0 0 0 0 606:1 19568:1 23863:1 34346:1 40429:1 40436:1 40454:1 40462:1 40477:1 40487:1 40495:1 40509:1 
0 0 0 0.2065312273971209 1 0 13765:1 34648:1 40426:1 40455:1 40463:1 40474:1 40485:1 40499:1 40512:1 
0 0 0 0 0 0.1642761699023723 13237:1 20028:1 27126:1 32140:1 40455:1 40466:1 40469:1 40484:1 40495:1 
0.09750659442827168 0.0481720138863715 0.128943452668863 0.07255983804746109 1 0 36339:1 40448:1 40470:1 40499:1 40506:1 
0 0 0 1 0 0 34881:1 40434:1 40444:1 40448:1 40470:1 40499:1 
0 0 0 0 0.4456131331557972 0 16007:1 40433:1 40440:1 40457:1 40466:1 40490:1 40501:1 40507:1 
1 0 1 0 1 0 34187:1 40455:1 40477:1 40495:1 40510:1 
0 0 0 1 1 0 40431:1 40443:1 40448:1 40470:1 40496:1 40510:1 
0.317947430511536 0 0.1655734003242549 0.5409935856413259 0.03836368500112652 0.004054293649769027 4287:1 8572:1 24499:1 29916:1 33507:1 40429:1 40440:1 40455:1 40465:1 40473:1 40484:1 40495:1 40504:1 
0 0 0 0 1 0 38358:1 40457:1 40459:1 40479:1 40481:1 40496:1 40510:1 
0.1706964757087929 0.1688965120395478 0.06742103198596587 0.6437861232133892 0.3274930462893317 0.0753536263738942 24172:1 28283:1 39651:1 40435:1 40448:1 40462:1 40473:1 40488:1 40498:1 40506:1 
0.2384039649776834 0 0 1 1 0 26130:1 40435:1 40455:1 40466:1 40479:1 40488:1 
0 0.145540375068752 0 1 0.4590412805987475 0 8283:1 13366:1 23472:1 40427:1 40444:1 40451:1 40466:1 40473:1 40488:1 
0.2869342271296683 0 0 0 0 0.07646739372260729 24893:1 30139:1 37971:1 40430:1 40450:1 40464:1 40473:1 40484:1 40498:1 40506:1 
0 0 0 0 0.8500819080491053 0 32397:1 36648:1 40430:1 40448:1 40470:1 40495:1 40510:1 
0 0 0 0 1 0 40494:1 40508:1 
0 0 0 0.1863879183982428 0.2896316998053123 0 13468:1 27126:1 40435:1 40455:1 40466:1 40477:1 40484:1 
0.03471765230356103 0 0 1 0.9400850589757995 0.03413607981952255 34679:1 40447:1 40467:1 40476:1 40481:1 40499:1 
0.522557246957564 0 0 0.6631495262552171 1 0 6918:1 18576:1 21618:1 40429:1 40440:1 40452:1 40466:1 40473:1 40488:1 40493:1 40510:1 
0.8685193213361461 0.5798766611214033 0 0.4756794313523073 0 0 19568:1 21489:1 39803:1 40426:1 40437:1 40454:1 40462:1 40477:1 40490:1 40501:1 40510:1 
1 1 1 1 1 0 40429:1 40446:1 40495:1 40506:1 
0.3077764878970253 0 0 1 1 0 40433:1 40444:1 40447:1 40469:1 40501:1 40510:1 
0 0.6435804110879086 0.009990854483388156 0 0 0 30572:1 40457:1 40459:1 40479:1 40481:1 40499:1 
0 0 0 1 1 0 39780:1 40429:1 40446:1 40448:1 40470:1 40498:1 40506:1 
0 0 0 1 0 0 39934:1 40435:1 40448:1 40470:1 40493:1 40510:1 
0.3466453862812139 0.1358047768277086 0.01386925342266626 1 0 0 13765:1 16138:1 35923:1 40429:1 40446:1 40455:1 40462:1 40471:1 40488:1 40495:1 40506:1 
0.0988333915871774 0 0.1299015995738568 0 0.1299911798211759 0 2075:1 26090:1 40429:1 40444:1 40448:1 40461:1 40479:1 40484:1 
0.2178228473893066 0.1923014083147879 0.3210354559737273 0.9650830120729343 0.4499550603363145 0 5242:1 13828:1 23934:1 40426:1 40440:1 40451:1 40465:1 40473:1 40487:1 
0 0 0.03774289627921011 0 0 0 819:1 9262:1 24105:1 29474:1 34648:1 40429:1 40440:1 40449:1 40463:1 40473:1 40484:1 40499:1 
0 0 0 0.5161486560881655 0 0 2987:1 36524:1 40433:1 40443:1 40448:1 40470:1 40498:1 40506:1 
0.122503226539144 0 0.09322886858643781 0 0.9186718529788764 0 19616:1 37801:1 40457:1 40462:1 40478:1 40481:1 40496:1 40506:1 
0 0 0 0 1 0 40448:1 40470:1 40501:1 40505:1 
0 0 0 0.5900814933908781 0 0 25454:1 37337:1 40428:1 40440:1 40452:1 40462:1 40469:1 40484:1 40493:1 40510:1 
0.2165604231342438 0.1409695877123799 0 0.01131489801310871 0.4112245839671668 0 13049:1 16900:1 24231:1 40455:1 40462:1 40473:1 40490:1 40499:1 40510:1 
0.9046877942406126 0.7475291729321589 0.1599570929095326 0.349088901367948 1 0.7177345612472975 34243:1 40449:1 40458:1 40479:1 40490:1 40499:1 40511:1 
0 0 0 0 1 0 13765:1 23871:1 34113:1 40455:1 40477:1 40499:1 40512:1 
1 1 1 1 1 0 40457:1 40479:1 40493:1 40507:1 
0 0 0 0 1 0 40448:1 40470:1 40494:1 40508:1 
0 0.04426803161174349 0 0 0.3551634604992651 0 37843:1 40426:1 40448:1 40470:1 40491:1 40510:1 
0 0 0 1 0 0 31166:1 40435:1 40446:1 40448:1 40470:1 40499:1 40504:1 
0.04259382182257938 0.02052700806379908 0.3795734442632229 0.021881049096531 0.06189953272338663 0 27758:1 39399:1 40426:1 40457:1 40462:1 40474:1 40484:1 40501:1 40506:1 
0.4681720779497615 0 0 0 0.183473733148533 0 18287:1 32112:1 40455:1 40462:1 40477:1 40481:1 40495:1 
0.3923703954423068 0 0 1 1 0 39352:1 40431:1 40443:1 40457:1 40463:1 40474:1 40484:1 40501:1 40510:1 
0.2171142193989561 0 0.002615781849551571 0 0 0 10295:1 20401:1 34302:1 37622:1 40451:1 40473:1 40499:1 40506:1 
0 0 0 0.4696145996394188 1 0 40448:1 40470:1 40493:1 40504:1 
0 0.1754812960877447 0.1077504248561662 0 0 0 825:1 11602:1 24083:1 26882:1 40429:1 40451:1 40465:1 40473:1 40484:1 
0 0 0 1 0.6986984974874569 0 5878:1 39596:1 40431:1 40440:1 40448:1 40470:1 40498:1 40510:1 
0 0.4285747529285364 0 0.4520156688854788 0.5595306490880058 0.274189092994674 4595:1 17768:1 35783:1 40429:1 40457:1 40462:1 40479:1 40487:1 40496:1 40506:1 
0 0 0.05959533397451868 0.05745572905349617 1 0 33053:1 40495:1 40502:1 
0 0 0 0 1 0 20077:1 25130:1 31908:1 40457:1 40466:1 40477:1 40481:1 40499:1 40512:1 
0 0 0 0 1 0 39973:1 40430:1 40448:1 40470:1 40500:1 40510:1 
0 0 0 0 1 0 27126:1 40455:1 40466:1 40477:1 40484:1 40512:1 
0 0 0 0 1 0 35236:1 38921:1 40499:1 40510:1 
0 0.05534191996015985 0 0.004401091824675642 0 0 16579:1 30805:1 40457:1 40466:1 40479:1 40481:1 40499:1 40512:1 
0.03678462546903027 0 0.9690532358261957 1 0.09447943208694376 0.1986855709817226 14134:1 26803:1 30415:1 40435:1 40445:1 40451:1 40460:1 40471:1 40488:1 40495:1 40511:1 
0 0 0 0 1 0 40448:1 40470:1 40496:1 40505:1 
0.8861800094499644 0 0 0 1 0 40448:1 40470:1 40498:1 40512:1 
0.1740312027550278 0.1863793950452758 0.08098025850379231 0.1868069250913712 0.6188557581961023 0.08967170753719109 21953:1 31918:1 40449:1 40458:1 40473:1 40487:1 40499:1 
0.2293519162940502 0.4095269300655822 0.1825132944869811 1 0 0.241512826312941 26203:1 32790:1 40429:1 40446:1 40449:1 40459:1 40473:1 40484:1 40499:1 
0 0 0 1 1 0 266:1 5991:1 40429:1 40440:1 40448:1 40470:1 40496:1 40505:1 
0 0 0 1 1 0 40433:1 40444:1 40448:1 40470:1 40491:1 40502:1 
0 0.1367644435400047 0.0223465551845652 0 0.6003798348292438 0 28853:1 31724:1 40448:1 40462:1 40479:1 40488:1 40495:1 40504:1 
1 0 0 0.3489206045598823 0 0.954408696586415 14137:1 19568:1 40455:1 40462:1 40477:1 40490:1 
0.4436160236926259 0 0 0 0 0 34895:1 40455:1 40466:1 40477:1 40481:1 40495:1 
1 0.7017978350043772 0 1 1 1 40435:1 40446:1 40457:1 40467:1 40478:1 40485:1 40499:1 40511:1 
0 0 0 1 1 0 1277:1 40433:1 40443:1 40448:1 40470:1 40501:1 40509:1 
0 0 0 0 1 0 34727:1 40495:1 40504:1 
0.9911131661779963 1 0 1 1 0 40429:1 40444:1 40448:1 40470:1 40501:1 40504:1 
0 0 0 1 0 0 4394:1 34881:1 40433:1 40444:1 40448:1 40470:1 40499:1 
1 0 0.01030518490588136 0.5667666500959018 1 0.2685024355246024 37063:1 40455:1 40468:1 40490:1 40499:1 40506:1 
1 0 1 1 1 0 40455:1 40466:1 40477:1 40488:1 40512:1 
0 0 0 0 1 0 27126:1 36120:1 40448:1 40458:1 40469:1 40484:1 40496:1 40506:1 
0 0 0 0.3612062249019781 1 0 31374:1 38195:1 40451:1 40468:1 40479:1 40481:1 40499:1 40510:1 
0 0 0 0.7283141116727431 0 0 7080:1 16655:1 26761:1 40429:1 40440:1 40454:1 40462:1 40476:1 40484:1 
0.4305023112579927 0 0 0.2777911479545644 0.4351929793868545 0 13975:1 16807:1 21860:1 40446:1 40451:1 40466:1 40477:1 40488:1 40501:1 40506:1 
0 0 0 0 0.3723257259798213 0 27126:1 31183:1 40457:1 40463:1 40470:1 40484:1 40499:1 40512:1 
0 0.07735059246030791 0 0 0 0 39780:1 40457:1 40479:1 40491:1 40506:1 
0.2518312012741796 0 0 0 0 0 34727:1 38456:1 40448:1 40462:1 40473:1 40484:1 40495:1 40510:1 
0 0 0.07718230493911478 0 0 0 30039:1 31166:1 40452:1 40459:1 40470:1 40484:1 40499:1 40503:1 
0 0 0 0 0.07089739094210676 0 19348:1 24401:1 28502:1 39780:1 40448:1 40462:1 40473:1 40484:1 40498:1 40506:1 
0 0 0 0 1 0.9895194620993086 13237:1 25454:1 40455:1 40463:1 40473:1 40484:1 
0.2926521675774689 0.2735801042646427 0.1360743386412938 0.2127619191336676 0 0 533:1 8040:1 38332:1 40429:1 40444:1 40457:1 40479:1 40492:1 40506:1 
0.03666023809919888 0 0 0 0 0 11201:1 29493:1 37450:1 40455:1 40459:1 40470:1 40484:1 40498:1 40506:1 
0 0 0 0.001366952641930947 0.5281183606094646 0 15024:1 25130:1 30933:1 40455:1 40459:1 40477:1 40481:1 40499:1 
0.3045198605458539 1 0 0 0.8616207759604201 0.07153999651975831 29908:1 35742:1 40426:1 40449:1 40463:1 40479:1 40488:1 40496:1 40506:1 
0.1105745735520499 0.4943314686962818 0.1974283782888191 1 1 0 32315:1 40429:1 40446:1 40495:1 40504:1 
1 0.5782846934353534 0.4274072767394896 1 1 0.1765743971442015 10477:1 20583:1 40429:1 40446:1 40451:1 40473:1 40492:1 40512:1 
0 0 0 1 1 0 40433:1 40444:1 40448:1 40470:1 40494:1 40508:1 
0 0 0 0 0.08803990494355929 0 12907:1 17020:1 23013:1 27126:1 40455:1 40462:1 40477:1 40484:1 40501:1 40512:1 
0.6553129179673892 0 0 0 1 0.1309440248014376 33372:1 40447:1 40463:1 40472:1 40490:1 40495:1 40508:1 
0 0.03659756621788905 0 0 0 0 39780:1 40457:1 40479:1 40491:1 40506:1 
0.3147759580026687 0 0.1765285512361518 0 0.8899972581045744 0 15348:1 29493:1 35783:1 40427:1 40454:1 40462:1 40469:1 40484:1 40492:1 40506:1 
0.02623819440761678 0 0 0.08407540608726981 0.8141600974630248 0 32958:1 38767:1 40499:1 40510:1 
0.07660409386681474 0.04311075551276355 0 1 1 0.01517836778107278 266:1 5446:1 14343:1 24449:1 40429:1 40440:1 40455:1 40477:1 
0.6857341858908447 0 0.03625575593804448 0.7469738862936066 0.6481154512340894 0 14070:1 24176:1 40430:1 40441:1 40455:1 40477:1 40492:1 40505:1 
0 0 0 1 0 0.7075905791122874 533:1 5359:1 10952:1 40429:1 40444:1 40451:1 40462:1 40473:1 40481:1 40500:1 
0.2590071922098459 0 0.02179970607617203 0 0.3945538383417846 0.02405996147854578 12219:1 16538:1 21591:1 29538:1 38631:1 40455:1 40466:1 40477:1 40484:1 40501:1 40506:1 
0 0.04320371456076746 0.01126137405467875 1 1 0 39390:1 40435:1 40446:1 40448:1 40470:1 40496:1 40506:1 
1 1 1 1 1 1 40457:1 40479:1 40492:1 40511:1 
1 0.8858811804125006 0.4372180850593715 0.3034325057714207 1 0.01795498513690345 39884:1 40451:1 40473:1 40501:1 40506:1 
1 1 1 1 1 0 40457:1 40479:1 40493:1 40507:1 
0.1251003342881424 0 0.052594167980702 0 1 0 17943:1 30763:1 40448:1 40462:1 40478:1 40481:1 40495:1 
0 0 0 0 1 0 15348:1 25454:1 38358:1 40435:1 40448:1 40462:1 40470:1 40484:1 40496:1 40510:1 
0.02000927269132663 0 0.1042411529993881 0.5896961232723433 0.4136799020258061 0.3453113458594806 2600:1 11861:1 33690:1 40429:1 40444:1 40455:1 40461:1 40472:1 40485:1 40495:1 
0 0 0 0.04130348308075109 0.6330188643773463 0 2951:1 8040:1 30696:1 40429:1 40444:1 40448:1 40470:1 40499:1 40505:1 
0 0 0 0.0978186984573485 0.9953696406012377 0 33336:1 39780:1 40425:1 40444:1 40448:1 40470:1 40499:1 40506:1 
0 0 0.09234298469587222 1 1 0 33655:1 40450:1 40464:1 40475:1 40481:1 40499:1 40512:1 
0 0 0 0 1 0 38087:1 40448:1 40470:1 40491:1 40510:1 
1 0.4338545822090852 0 0 1 0 19028:1 40426:1 40454:1 40462:1 40471:1 40488:1 
0.0706955586675922 0 0 0.5448793551403119 1 0 32561:1 40430:1 40499:1 40502:1 
0.5586131476527988 0.1324623402200401 0.03474901940866634 0.06350364368293285 0.5889512425942669 0 30584:1 38078:1 40495:1 40506:1 
0 0 0 0 0.3543597992806861 0 5040:1 8223:1 34113:1 40433:1 40444:1 40452:1 40474:1 40499:1 40502:1 
0 0 0 0 1 0 4660:1 5446:1 30429:1 38195:1 40429:1 40440:1 40448:1 40470:1 40495:1 40510:1 
0 0 0 0 1 0 34131:1 40448:1 40470:1 40499:1 
0.1474898585303779 0.1587357352591472 0.1075683241982801 0.8636687655648341 0.4367835637702467 0 5242:1 12133:1 22239:1 39995:1 40432:1 40440:1 40451:1 40473:1 40498:1 40510:1 
0.3985089587893514 1 0 1 1 0 40426:1 40448:1 40470:1 40493:1 40506:1 
0 0 0 1 0 0 34881:1 40430:1 40446:1 40452:1 40474:1 40499:1 40509:1 
0.002295561507902133 0 0 0 0 0 14085:1 24191:1 30507:1 40451:1 40466:1 40473:1 40488:1 40495:1 
0 0.009857526138241755 0.01486815762834394 0.1977129672259372 0.5206600916846416 0 14147:1 35462:1 40426:1 40455:1 40460:1 40471:1 40481:1 40498:1 40506:1 
0.05388371085966932 0 0.08372591324875701 1 0 0 39701:1 40435:1 40446:1 40449:1 40461:1 40479:1 40485:1 40491:1 40510:1 
0 0 0 0.008082886776381753 0 0 3837:1 19296:1 25454:1 33779:1 37559:1 40429:1 40443:1 40449:1 40466:1 40469:1 40484:1 40499:1 40506:1 
0 0 0 0 0.6562367603957546 0 35795:1 40448:1 40470:1 40496:1 40510:1 
0 0.00840869174164284 0 0.01151409034285042 0 0 2529:1 5061:1 15445:1 25551:1 40433:1 40444:1 40457:1 40466:1 40479:1 40488:1 40498:1 40505:1 
0 0 0 0.8306102199220305 0.8410629182768619 0 19661:1 26803:1 40452:1 40466:1 40478:1 40488:1 
1 1 1 1 1 0 40446:1 40457:1 40479:1 40496:1 40505:1 
0 0 0 0 1 0 40448:1 40470:1 40491:1 40507:1 
0 0 0 0.5020224711616251 0 0 18584:1 22475:1 29163:1 32790:1 40435:1 40446:1 40457:1 40462:1 40477:1 40484:1 40499:1 40505:1 
0.06442961657024947 0.286101656307523 0.01496943213717373 1 0.5851229285111267 0 36207:1 40426:1 40439:1 40448:1 40470:1 40498:1 40506:1 
0 0 0.5786633844699061 0.5835208239475076 1 0 30692:1 40499:1 40512:1 
0 0 0 0 0.8528485150489201 0 266:1 9827:1 22475:1 29163:1 40429:1 40440:1 40448:1 40458:1 40477:1 40484:1 40496:1 40510:1 
0 0 0 0 0.3608080854174581 0 27126:1 35889:1 40452:1 40468:1 40470:1 40484:1 40498:1 40510:1 
0 0 0 0 1 0 40448:1 40470:1 40499:1 40507:1 
0.7061734420954597 0 0 1 0 0 3334:1 5200:1 39948:1 40433:1 40440:1 40448:1 40470:1 40498:1 40506:1 
0 0 0 0 1 0 34113:1 40452:1 40462:1 40475:1 40487:1 40499:1 40512:1 
0.003490664679139229 0 0 0.007954128964448351 0 0 11262:1 21368:1 40433:1 40451:1 40463:1 40473:1 40485:1 40494:1 40508:1 
0.2047765705336435 0 0 0.4682984823724273 1 0 40448:1 40470:1 40499:1 40509:1 
0 0.00129971503978414 0.09233172967571927 0 0.662438010356141 0.2244276366367988 8140:1 10360:1 20466:1 36120:1 40429:1 40440:1 40455:1 40465:1 40477:1 40487:1 40496:1 40506:1 
0 0 0 0 1 0 34727:1 40426:1 40445:1 40448:1 40470:1 40495:1 40505:1 
0.2966306156218273 0 0.08920703380217969 0 0.4505711005660656 0.2848906314350541 19190:1 32505:1 40455:1 40466:1 40477:1 40485:1 40495:1 40502:1 
0.9114818296946796 0 0.2096165788652562 0.2720892201072532 1 0.490115901972575 28228:1 40455:1 40468:1 40479:1 40484:1 40512:1 
0.8635776745323375 0 0 0 0.1584057647524768 0.05404356506490833 35236:1 40452:1 40466:1 40490:1 40499:1 40510:1 
0 0 0 0.02012552448963158 0 0.1181842824379126 5242:1 14669:1 24775:1 30607:1 40426:1 40440:1 40455:1 40465:1 40477:1 40487:1 40499:1 40511:1 
0 0 0.007591111813994656 0 0 0 27346:1 34040:1 40448:1 40461:1 40473:1 40484:1 40495:1 40512:1 
0 0 0 0 0.0286244451182997 0 34131:1 36995:1 40499:1 40506:1 
0.6318613492467742 0 0 0 0.03852996535987757 0 2505:1 15908:1 25454:1 35742:1 40429:1 40452:1 40462:1 40470:1 40484:1 40492:1 40506:1 
0 0 0 1 0.5943512345085625 0 15348:1 25454:1 40435:1 40446:1 40448:1 40462:1 40470:1 40484:1 40501:1 40502:1 
0 0 0 0 1 0 33507:1 40495:1 40502:1 
0 0 0 1 1 0 40428:1 40440:1 40448:1 40470:1 40496:1 40507:1 
0 0 0 0 0.02449649747116496 0 17631:1 23433:1 25454:1 39114:1 40448:1 40466:1 40477:1 40484:1 40498:1 40506:1 
0 0 0 0 1 0 39093:1 40493:1 40506:1 
0 0 0 0.7233282040662318 0 0 3659:1 39948:1 40433:1 40443:1 40448:1 40470:1 40498:1 40506:1 
1 0 0 0 0 0 13765:1 23871:1 40455:1 40466:1 40477:1 40488:1 40491:1 40510:1 
0.07335647394284911 0 0 0.01058496460512572 0 0 16896:1 26803:1 40454:1 40462:1 40471:1 40488:1 
0.01528514069691923 0 0 0 0.2324259593938406 0 30584:1 37821:1 40495:1 40510:1 
0.510373031406502 0 0.01391523959632678 1 0.7787230684019161 0.06490890235798112 12946:1 19599:1 25658:1 40435:1 40455:1 40462:1 40479:1 40484:1 
0.6555112877726773 0 0.007596308484331647 0 0.3196699257398206 0.1837722725908547 12669:1 18244:1 20359:1 38637:1 40451:1 40466:1 40473:1 40488:1 40499:1 40510:1 
0 1 0.2879533301165194 1 1 0.1529747490748905 40429:1 40493:1 40502:1 
0 0.0760351450375691 0.03680822255579529 1 1 0 259:1 17983:1 40433:1 40443:1 40449:1 40466:1 40479:1 40488:1 
0 0 0 0 1 0 40448:1 40470:1 40493:1 40507:1 
0 0 0 0 1 0 20077:1 25130:1 34040:1 40457:1 40466:1 40477:1 40481:1 40495:1 40505:1 
0 0.2715750560874794 0 0 1 0 36961:1 40498:1 40510:1 
0 0 0 1 0 0 34881:1 40435:1 40441:1 40449:1 40463:1 40479:1 40481:1 40499:1 
0 0 0 0 1 0 34131:1 40499:1 
0 0 0 1 1 0 40427:1 40444:1 40448:1 40470:1 40499:1 40510:1 
0 0 0 0 0.6042787584753002 0 32790:1 40448:1 40470:1 40499:1 
0.4786710143228035 0 0.2977593709524801 0.1922015245324079 0.7815365100197417 0 31471:1 40449:1 40466:1 40478:1 40481:1 40495:1 
0.3775756597991536 0 0.07720808146460532 0 1 0.2160826383207063 16565:1 21268:1 29793:1 40455:1 40462:1 40477:1 40488:1 
0.07546527601078336 0.02736155328678856 0 0.05740206631920522 1 0 33559:1 40495:1 40510:1 
0.6528550004797381 0 0.3153487819086468 1 0.3973341294342267 0.341780411207814 12521:1 32733:1 40426:1 40441:1 40455:1 40465:1 40479:1 40490:1 40499:1 40509:1 
1 0 0.1560121501883031 0 0 0.005442794875263917 19028:1 24081:1 40426:1 40454:1 40462:1 40473:1 40485:1 40493:1 40504:1 
0.4832449049999969 0.01308816883843761 0.06391615708825725 0.07437178573978021 0.1976522943678483 0 14483:1 26761:1 30715:1 36890:1 40451:1 40479:1 40484:1 40495:1 40510:1 
1 0.5169328841352211 0.3561788970534886 1 0.536089211644461 0 15571:1 25412:1 40434:1 40444:1 40448:1 40462:1 40473:1 40484:1 40498:1 40506:1 
0.2698941993786397 0.4148229004878861 0 0.2980768348421348 1 0 17689:1 40457:1 40462:1 40469:1 40481:1 40501:1 40512:1 
0 0 0 0 0.2535492968097526 0 4563:1 35963:1 40433:1 40443:1 40493:1 40510:1 
1 1 0.03359529931815987 1 1 1 40449:1 40460:1 40471:1 40488:1 40498:1 40512:1 
0.4400431594731748 0 0 0.3495574585901095 0.3322108371849103 0.2643013868192466 27491:1 40455:1 40468:1 40469:1 40488:1 40501:1 40511:1 
0 0 0 0.4970478438956346 1 0 573:1 8336:1 27126:1 36210:1 40429:1 40440:1 40449:1 40459:1 40470:1 40484:1 40493:1 40510:1 
0 0 0 0 0.08707945816735002 0 24789:1 27126:1 40427:1 40454:1 40468:1 40473:1 40484:1 40493:1 40502:1 
0 0 0 0.9997673065813171 0 0 7110:1 34881:1 40434:1 40444:1 40448:1 40470:1 40499:1 40510:1 
0 0 0 0 0.01147136703345973 0 14137:1 25454:1 40455:1 40466:1 40478:1 40484:1 40493:1 40507:1 
0 0 0 0 1 0 13765:1 23871:1 33671:1 40455:1 40459:1 40477:1 40481:1 40495:1 
0.1804927741473311 0 0.09108294668005179 0 0 0 13127:1 17826:1 39780:1 40455:1 40462:1 40479:1 40488:1 40492:1 40506:1 
0 0 0 0.7744516644278682 1 0 4830:1 8040:1 40429:1 40444:1 40448:1 40470:1 40501:1 40506:1 
0 0 0 0 0.6106531764210368 0 1602:1 7299:1 17020:1 27126:1 40433:1 40440:1 40448:1 40462:1 40470:1 40484:1 40501:1 40506:1 
0.3519691926782541 0.04034587175421699 0.1627640443867162 0.9979550058951231 0.2676904787133861 0.09636288386352565 5964:1 12578:1 22684:1 40435:1 40440:1 40455:1 40465:1 40477:1 40487:1 
0 0 0 0.04957979343526055 0 0 2430:1 5446:1 31801:1 37450:1 40429:1 40440:1 40452:1 40466:1 40477:1 40481:1 40499:1 40506:1 
0.2199184883875254 0 0 0 0 0 34727:1 40455:1 40466:1 40477:1 40481:1 40495:1 
0.1260613359729466 0 0 1 1 0 8712:1 40429:1 40444:1 40455:1 40477:1 40499:1 40508:1 
0.6726109017795137 1 0 0 1 0 40448:1 40470:1 40501:1 40510:1 
0.2595036612404259 0 0.2156741894527208 0 0 0 11967:1 15169:1 22073:1 25275:1 31469:1 40451:1 40466:1 40473:1 40488:1 40495:1 
0 0.06187620934432141 0 0 1 0 23013:1 25454:1 40457:1 40462:1 40477:1 40484:1 40501:1 
0 0 0 0 1 0 17020:1 27126:1 35715:1 40429:1 40446:1 40454:1 40462:1 40476:1 40484:1 40493:1 40510:1 
0 0 0 0 0 0.1619721477164959 15536:1 24606:1 35429:1 40452:1 40462:1 40477:1 40481:1 40498:1 40506:1 
0.985367758179683 0.01238822622902803 0.1272287185219839 0 1 0 33087:1 38643:1 40499:1 40506:1 
1 0 0 0.6150913160264753 0.2526438036016707 0.08607795961779301 33962:1 40430:1 40447:1 40468:1 40469:1 40490:1 40499:1 40504:1 
1 0 0 0 0 0.003864733594786183 31517:1 40449:1 40466:1 40471:1 40488:1 40495:1 40512:1 
0 0 0 0.4785613307695344 1 0 11967:1 22073:1 40446:1 40451:1 40473:1 40499:1 40510:1 
0 0 0.7178025258087628 0 0 0 30039:1 31166:1 40452:1 40459:1 40470:1 40484:1 40499:1 40503:1 
0.2339345990882548 0 0 0.4085304671844981 0.7129577237130955 0.1766874975206202 13367:1 23473:1 30805:1 40427:1 40455:1 40463:1 40477:1 40485:1 40499:1 40509:1 
0 0 0 0 1 0 17020:1 27126:1 40448:1 40462:1 40470:1 40484:1 
0 0 0 0 0.05575345940357655 0 15348:1 25454:1 37669:1 40446:1 40454:1 40462:1 40476:1 40484:1 40499:1 40506:1 
0 1 0.3132095406422112 1 1 0 36219:1 40435:1 40446:1 40457:1 40479:1 40493:1 40510:1 
0.007339590278932307 0 0.002572345073436372 0.00378733686609553 0.0003210179773284567 0.00637833387861747 7089:1 14336:1 24442:1 40429:1 40440:1 40451:1 40473:1 40512:1 
0 0 0 0 0.04433374320456462 0 14320:1 21618:1 27025:1 33335:1 40455:1 40466:1 40473:1 40488:1 40495:1 
0 0 0 1 0.3545926066332024 0 34101:1 40431:1 40443:1 40452:1 40459:1 40475:1 40487:1 40495:1 40512:1 
0.3956808180902272 0 0 0 0 0 31603:1 35560:1 40448:1 40468:1 40490:1 40495:1 40506:1 
1 0 0 0 1 0 30465:1 40447:1 40466:1 40477:1 40484:1 40495:1 
0.1131221464578609 0 0 0.5522011816993402 0.2019233385732685 0 22073:1 40454:1 40468:1 40473:1 40488:1 
0 0 0 0 1 0 33507:1 40448:1 40470:1 40495:1 40502:1 
0.06621358139186252 0.1324232404132004 0.0349199073352626 0.0636200290973741 1 0 35067:1 36539:1 40495:1 40506:1 
1 0 0 0 0 1 39030:1 40452:1 40466:1 40473:1 40490:1 40493:1 40510:1 
0 0 0.1225770503350569 1 0 0 34881:1 40435:1 40440:1 40448:1 40470:1 40499:1 40512:1 
0.01799661304716582 0 0 0 0 0 27126:1 30504:1 37454:1 40455:1 40460:1 40474:1 40484:1 40499:1 40510:1 
0 0 1 0 1 0 40448:1 40470:1 40501:1 40502:1 
1 1 1 1 1 0 40429:1 40446:1 40448:1 40470:1 40501:1 40506:1 
0.2043828186653348 0 0 0.004382386351340251 0.2591849268077947 0 12598:1 15437:1 35625:1 40451:1 40462:1 40469:1 40481:1 40493:1 40510:1 
0.1424816466620752 0 0.286432271154813 1 0 0 37980:1 40429:1 40446:1 40457:1 40461:1 40475:1 40485:1 40501:1 40506:1 
0 0 0 0 0.1810423834432154 0 15348:1 25454:1 37669:1 40454:1 40462:1 40476:1 40484:1 40496:1 40506:1 
0 0 0 0 1 0 2472:1 8274:1 31824:1 37410:1 40433:1 40444:1 40495:1 40510:1 
0 0 0 0 0 0.2523115475868216 6914:1 13828:1 17609:1 20398:1 33449:1 40426:1 40440:1 40451:1 40466:1 40477:1 40487:1 40499:1 40512:1 
0 0 0 0 0.5750244572316763 0 25454:1 35383:1 40449:1 40463:1 40476:1 40484:1 40498:1 40506:1 
0 0 0 1 1 0 3131:1 40433:1 40446:1 40448:1 40470:1 40494:1 40506:1 
0 1 0 0 1 0 34881:1 40457:1 40479:1 40499:1 
0.7826767064632133 0.002170117775255443 0 0 1 0 18818:1 23871:1 40449:1 40466:1 40477:1 40480:1 40499:1 40507:1 
0 0 0 0 1 0 15024:1 25130:1 33868:1 40455:1 40459:1 40477:1 40481:1 40499:1 
0 0 0 0 0.9787085711603105 0 18146:1 28464:1 40265:1 40452:1 40466:1 40470:1 40484:1 40496:1 40506:1 
0.1286773397054989 0.5719315638486471 0.02981349915489734 1 1 0 36833:1 40426:1 40448:1 40470:1 40498:1 40506:1 
0.3945172671183226 0.1967911389746801 0.1236823606174493 1 0.5008380232121327 0.0693192907649569 10531:1 22739:1 29006:1 40429:1 40446:1 40451:1 40462:1 40477:1 40484:1 
0 0 0 0 0.4407367749948343 0 18584:1 25454:1 40457:1 40462:1 40470:1 40484:1 40501:1 40506:1 
0 0 0 1 1 0 36210:1 40448:1 40470:1 40496:1 40510:1 
0.478517023652583 0.301931115143409 0 1 0.4357862218023698 0.5033480412062321 18618:1 28724:1 40449:1 40462:1 40471:1 40484:1 40499:1 40511:1 
0.2078113604698455 0 0 0 0.2032651167574057 0 13765:1 23871:1 35361:1 40455:1 40477:1 40495:1 40512:1 
0.1865194183312867 0 0 0 0.9754500360264826 0 30572:1 40499:1 
0 0 0 0 0.3508748113819757 0 32112:1 36648:1 40457:1 40479:1 40495:1 40510:1 
1 1 0 1 1 0 40452:1 40474:1 40499:1 40506:1 
0 0.3381983646066534 0 0 1 0 36777:1 40448:1 40470:1 40498:1 40506:1 
0 0 0 0 1 0 20401:1 40454:1 40468:1 40473:1 40488:1 
0 0 0.0309044197977967 1 1 0 40428:1 40440:1 40448:1 40470:1 40496:1 40512:1 
0.5751557569499619 0 0 1 0 0 37165:1 40434:1 40437:1 40448:1 40470:1 40491:1 40506:1 
0 0 0 0.03943616644649105 0 0 14608:1 16702:1 25454:1 40435:1 40455:1 40466:1 40479:1 40484:1 40498:1 40505:1 
0 0 0 0 1 0 33507:1 40455:1 40459:1 40477:1 40481:1 40495:1 40512:1 
0 0.07096599581937822 0 0.1319937512787869 0.2972921353202321 0 18069:1 23122:1 25454:1 40425:1 40443:1 40457:1 40466:1 40477:1 40484:1 40501:1 
0 0 0 0 0.3753597383973213 0 33507:1 40455:1 40459:1 40477:1 40481:1 40495:1 40502:1 
0 0 0 0.8520399610999448 0.6750174702755896 0.1070386867633409 16639:1 22989:1 34920:1 40429:1 40442:1 40452:1 40466:1 40477:1 40481:1 40499:1 
