svm_type c_svc
kernel_type linear
nr_class 7
total_sv 12238
rho -1.0177 -0.808368 -1.01577 -1.03979 0.266885 -1.23999 0.151744 -0.267161 -0.381207 1.20463 -0.737895 -0.418795 -0.0794124 0.963209 -0.580117 0.173309 0.978078 -0.17392 1.21089 -0.179116 -1.26517
label 4 2 5 3 7 1 6
probA -3.42735 -3.22465 -4.48374 -2.56659 -1.76371 -3.69892 -3.46412 -4.04594 -3.22367 -3.02148 -4.42281 -4.35658 -2.8432 -2.93405 -3.67599 -4.80877 -4.45448 -4.67899 -2.30936 -3.45341 -3.9835
probB 0.0661411 -0.229074 0.186703 -0.00524144 0.0942417 -0.0553416 -0.144768 0.0250709 -0.0164541 0.0870635 0.304365 -0.036177 0.139536 0.466042 0.0749184 -0.261933 0.021985 0.462165 0.0891736 -0.141286 0.0347691
nr_sv 2669 2003 459 753 2852 3171 331
SV
0.2169072777876613 0.3930577777928662 0.008990756984831995 0 1 0 84509:1 101117:1 101172:1 101236:1 101241:1 101258:1 101280:1 
0.2509484562460008 0.01001800245215329 0.07862364512829083 0 0 0 26761:1 52026:1 88988:1 101066:1 101120:1 101175:1 101227:1 101241:1 101252:1 101263:1 101277:1 
0 0 0 1 0 0 79025:1 85425:1 101071:1 101076:1 101087:1 101104:1 101116:1 101137:1 101139:1 101171:1 101192:1 101194:1 101234:1 101241:1 
0 0 0.1649163427767951 0.1818056433455396 0.2397051054412185 0 412:1 7740:1 12509:1 82927:1 101065:1 101076:1 101091:1 101117:1 101172:1 101236:1 101241:1 101258:1 101269:1 
0.2622689766030512 0 0 0.2481481451657458 0.4696662250922234 0.1421759342929694 75803:1 81034:1 89531:1 101118:1 101129:1 101173:1 101184:1 101234:1 101245:1 101256:1 101268:1 
0 0 0 0.418939839124096 0.4588586757150188 0 95531:1 101117:1 101172:1 101229:1 101241:1 101255:1 101263:1 101272:1 
0 0.08574313552673529 0 0 0.6761044573710573 0 3348:1 90747:1 94384:1 98090:1 101065:1 101076:1 101093:1 101117:1 101172:1 101236:1 101241:1 101252:1 101263:1 101278:1 
0 0 0.04035019929142727 0 0 0 47094:1 72359:1 78267:1 101126:1 101129:1 101139:1 101159:1 101164:1 101181:1 101184:1 101194:1 101214:1 101219:1 101234:1 
0 0.1233116661732216 0 0.3138745419546252 0.1352292857223597 0 19612:1 22621:1 72603:1 75962:1 95336:1 101071:1 101074:1 101088:1 101098:1 101113:1 101126:1 101130:1 101142:1 101152:1 101170:1 101175:1 101185:1 101203:1 101212:1 101219:1 101230:1 101243:1 101255:1 101263:1 101278:1 
0 0 0.03512339046046643 0.6003393421056765 0 0 49705:1 74970:1 83226:1 100416:1 101064:1 101078:1 101090:1 101117:1 101130:1 101144:1 101156:1 101164:1 101172:1 101185:1 101199:1 101211:1 101219:1 101236:1 101241:1 101258:1 101266:1 101274:1 
0.1651963025184165 0 0.001849488496912931 0.08238937215103616 0.4351608515310126 0.0716181691331917 4394:1 30588:1 55853:1 101069:1 101125:1 101135:1 101180:1 101190:1 
1 0 0 0 1 0 101121:1 101176:1 101234:1 101245:1 101252:1 101280:1 
0 0 0 0 0.207085558230436 0 17967:1 28924:1 54189:1 84643:1 86301:1 101061:1 101082:1 101091:1 101102:1 101113:1 101124:1 101179:1 101234:1 101245:1 101252:1 
0 0 0 0 0.1851376063496021 0 30507:1 55772:1 85508:1 87813:1 101117:1 101131:1 101172:1 101186:1 101231:1 101241:1 101256:1 101267:1 101274:1 
0 0 0 0 0.0723815936720395 0 18963:1 85105:1 88845:1 95800:1 96065:1 101062:1 101082:1 101092:1 101102:1 101115:1 101117:1 101172:1 101236:1 101245:1 101256:1 101263:1 101274:1 
1 0 0 0.5360960965604906 1 0 101124:1 101135:1 101141:1 101155:1 101161:1 101179:1 101190:1 101196:1 101210:1 101216:1 101233:1 101237:1 101256:1 
0 0 0 0.9952643744190675 0 0 837:1 76936:1 94767:1 101069:1 101076:1 101104:1 101110:1 101117:1 101172:1 101234:1 101243:1 101248:1 101267:1 101280:1 
0.6037213337075449 0.1048890359122316 0 0 0.7257855760348274 0 13701:1 15533:1 52196:1 61061:1 71961:1 101063:1 101080:1 101087:1 101102:1 101124:1 101137:1 101148:1 101153:1 101170:1 101175:1 101183:1 101197:1 101211:1 101219:1 
0.07999164572365396 0 0 0 0.795446545434857 0.035550310625903 87920:1 101118:1 101127:1 101146:1 101173:1 101182:1 101201:1 101231:1 101247:1 101252:1 101269:1 
0.04844355360419718 0.08042620761646305 0.1087471065512047 0.07252157218372385 0.727043285717437 0 1153:1 79454:1 101065:1 101082:1 101234:1 101241:1 101269:1 101278:1 
0.2226997677975556 0 0.01086542322711465 0.6641999207190175 1 0 1904:1 12712:1 19428:1 78882:1 101065:1 101082:1 101087:1 101102:1 101115:1 101116:1 101135:1 101171:1 101190:1 101230:1 
0 0 0 0.709342960865491 0 0.1622388777246498 846:1 23871:1 80358:1 89496:1 101065:1 101076:1 101085:1 101094:1 101113:1 101117:1 101172:1 101234:1 101244:1 101252:1 
0.2320481996230964 0.1449900235853762 0.05329064682509729 0.03299566017333024 1 0 14515:1 76521:1 101065:1 101072:1 101087:1 101104:1 101230:1 101237:1 101258:1 101263:1 101278:1 
0 0 0 1 0 0 85257:1 87178:1 101071:1 101082:1 101126:1 101181:1 101233:1 101241:1 101256:1 
0 0 0.1877274551541001 0 1 0 84037:1 101062:1 101082:1 101117:1 101172:1 101233:1 101241:1 101250:1 101259:1 
0.2353500404547323 0 0 0 1 0.01511427792488476 34527:1 59792:1 101117:1 101131:1 101172:1 101186:1 101231:1 101247:1 101251:1 101263:1 101272:1 
0 0 0 0 0.6063667967956319 0 35819:1 61084:1 84037:1 101118:1 101129:1 101146:1 101150:1 101173:1 101184:1 101201:1 101205:1 101233:1 101241:1 101252:1 
0 0 0 1 0 0 76994:1 90478:1 101071:1 101082:1 101117:1 101172:1 101230:1 101242:1 101252:1 101261:1 101272:1 
0.1983924610318712 0.2124637191583907 0.0932373825475402 0 1 0 89643:1 93231:1 101117:1 101172:1 101228:1 101239:1 101252:1 101263:1 
0.06216014917762291 0 0 0.05826060054787235 0.567914302050603 0 30050:1 55315:1 100570:1 101069:1 101124:1 101179:1 101230:1 101258:1 101269:1 101278:1 
0 0 0 0 0.8852515821345845 0 32179:1 57444:1 93384:1 101117:1 101131:1 101172:1 101186:1 101236:1 101237:1 101256:1 101263:1 101276:1 
0 0 0 0 1 0 77599:1 83448:1 101234:1 101241:1 
0 0.3294652496530876 0 1 1 0 10295:1 77269:1 101071:1 101073:1 101087:1 101104:1 101115:1 101126:1 101128:1 101181:1 101183:1 101234:1 
0.4845882095503425 0 0.1985749284794713 1 1 0 30183:1 55448:1 81037:1 101065:1 101080:1 101124:1 101135:1 101179:1 101190:1 101236:1 101241:1 101258:1 101263:1 101280:1 
0 0 0 0 0.4267969854323658 0 27126:1 52391:1 87307:1 92488:1 101062:1 101120:1 101175:1 101228:1 101245:1 101252:1 101263:1 
0.2393034915769179 0 0 0.2426168519796204 0.6511455579856068 0 44237:1 59396:1 84097:1 88784:1 101065:1 101119:1 101130:1 101144:1 101157:1 101177:1 101190:1 101214:1 101219:1 101236:1 101245:1 101256:1 
0.01085309596461438 0 0 0 0 0 30014:1 59602:1 79608:1 101120:1 101135:1 101138:1 101151:1 101162:1 101181:1 101186:1 101201:1 101213:1 101216:1 101234:1 
0 0 0.328273480278469 1 0 0 28352:1 53617:1 101071:1 101076:1 101088:1 101120:1 101175:1 
0.2886519265679947 0 0 0.2449344275885085 0.1062401111560368 0 49603:1 64762:1 71118:1 76643:1 101064:1 101078:1 101090:1 101098:1 101117:1 101130:1 101144:1 101156:1 101164:1 101177:1 101189:1 101197:1 101204:1 101219:1 101234:1 101240:1 101254:1 101263:1 
0.110915203436008 0 0 0.2444317763671812 0.6666952362475989 0.1539120463364131 39873:1 40801:1 46153:1 50907:1 56259:1 75136:1 83688:1 101062:1 101118:1 101132:1 101146:1 101153:1 101168:1 101175:1 101190:1 101199:1 101209:1 101223:1 101228:1 101245:1 101255:1 
0.07735923037548353 0 0 0 0.3161184627198977 0 29900:1 40023:1 40613:1 55165:1 65288:1 65878:1 88461:1 101120:1 101134:1 101142:1 101153:1 101175:1 101189:1 101197:1 101208:1 101234:1 101241:1 101256:1 
0.004592118499493622 0 0.1251607720864687 0 0 0.09679647195961372 31347:1 40059:1 56612:1 65324:1 94823:1 101121:1 101135:1 101146:1 101176:1 101190:1 101201:1 101234:1 101246:1 101255:1 101263:1 
0.1435847496436783 0 0 0 0 0.004110070405940794 30695:1 38358:1 45743:1 55849:1 63707:1 66101:1 78593:1 101121:1 101131:1 101146:1 101154:1 101164:1 101176:1 101186:1 101201:1 101208:1 101223:1 101234:1 
0 0 0 0 1 0 3851:1 5890:1 79608:1 89496:1 95386:1 96975:1 101065:1 101080:1 101087:1 101115:1 101117:1 101172:1 101234:1 101244:1 101252:1 101267:1 101274:1 
0.3532814960098602 0 0.1128135993512958 0 0 0 74401:1 81355:1 101120:1 101135:1 101142:1 101170:1 101179:1 101186:1 101214:1 101223:1 101234:1 101241:1 
0.5930560027702332 0.3493789830558587 0 0 0.8103659634159246 0.01340362695299832 83734:1 101118:1 101132:1 101173:1 101187:1 101233:1 101245:1 101258:1 101260:1 101280:1 
0 0 0 0 0.02637669522068204 0 59728:1 66308:1 70931:1 80995:1 91031:1 101121:1 101130:1 101144:1 101152:1 101164:1 101175:1 101186:1 101194:1 101208:1 101219:1 101233:1 101241:1 101248:1 101263:1 101280:1 
0.1226576287286188 0.1447519373398376 0 0.6718959806177448 0.9652858021437223 0 9322:1 99072:1 101063:1 101080:1 101091:1 101104:1 101115:1 101126:1 101181:1 101229:1 101243:1 101251:1 101263:1 101278:1 
0 0 0 0 0 0.09685620826113892 38015:1 47474:1 55728:1 70931:1 78846:1 84570:1 101116:1 101137:1 101146:1 101154:1 101164:1 101173:1 101190:1 101201:1 101209:1 101219:1 101234:1 101241:1 
0 0.4302703473530222 0 0 0.8603226109068789 0 81056:1 101117:1 101172:1 101232:1 101241:1 101258:1 101280:1 
0.09497972386401413 0.0379167366389187 0 0 0 0 42687:1 49375:1 54428:1 56550:1 67815:1 81329:1 86838:1 101121:1 101135:1 101139:1 101157:1 101164:1 101175:1 101186:1 101203:1 101208:1 101225:1 101236:1 101241:1 101252:1 
0.1752448184021062 0 0.06612669130296953 0 0.1802283566311948 0 35284:1 42406:1 55496:1 62618:1 101124:1 101131:1 101146:1 101153:1 101168:1 101175:1 101190:1 101197:1 101212:1 101220:1 
0 0 0 0 1 0 9322:1 101069:1 101080:1 101091:1 101117:1 101172:1 101231:1 101247:1 101258:1 101269:1 101272:1 
0 0 0 0 1 0 99749:1 101117:1 101172:1 101231:1 101237:1 101258:1 101261:1 101274:1 
0 0 0 1 0.7669738871930977 0 79025:1 85425:1 101071:1 101075:1 101089:1 101101:1 101117:1 101130:1 101144:1 101172:1 101185:1 101199:1 101234:1 101241:1 
0 0 0 0.1263400250525356 0.2352220244336541 0 19736:1 25058:1 83278:1 88186:1 101065:1 101093:1 101098:1 101109:1 101117:1 101172:1 101231:1 101241:1 101256:1 101267:1 101274:1 
0 0 0 0 0.8342280354421652 0 76732:1 84570:1 101230:1 101241:1 101253:1 101267:1 
0.313268702830602 0 0 0.2676212263963094 0 0 8712:1 100466:1 101065:1 101080:1 101124:1 101179:1 101234:1 101243:1 101258:1 101261:1 101274:1 
0 0 0 0 1 0 95363:1 101117:1 101172:1 101233:1 101240:1 101254:1 101263:1 101278:1 
1 0 1 0 1 0.1201135551264185 101124:1 101135:1 101179:1 101190:1 101247:1 101249:1 101263:1 101274:1 
0.1008577640412931 0 0 0 0 0.007072108212517754 29134:1 54399:1 80304:1 86621:1 101120:1 101137:1 101175:1 101192:1 101230:1 101244:1 101256:1 101264:1 101274:1 
1 0.6355555426751746 0 0 1 0 101234:1 101241:1 101252:1 101280:1 
0 0.4333438910174585 0 0 1 0 100416:1 101117:1 101172:1 101236:1 101241:1 101258:1 101266:1 101274:1 
0 0 0 0 0.167060145662282 0 34727:1 45666:1 59992:1 70931:1 81597:1 97778:1 101123:1 101131:1 101140:1 101154:1 101164:1 101178:1 101186:1 101195:1 101209:1 101219:1 101231:1 101241:1 101258:1 101266:1 101274:1 
0.03279663527553713 0 0 0 0 0 28174:1 38746:1 48610:1 53439:1 64011:1 73875:1 86747:1 95318:1 101120:1 101132:1 101142:1 101151:1 101168:1 101175:1 101187:1 101197:1 101206:1 101223:1 101247:1 101252:1 101267:1 
0.2798802792395777 0 0.1102161736020748 0.07119790636376419 1 0.07816511336181907 32544:1 57809:1 101123:1 101135:1 101148:1 101178:1 101190:1 101203:1 101233:1 101237:1 101258:1 101261:1 101278:1 
0 0 0.03737972444008034 0.1613688795575093 0 0 8283:1 27655:1 44833:1 65045:1 84507:1 101071:1 101080:1 101124:1 101130:1 101142:1 101153:1 101170:1 101174:1 101186:1 101197:1 101214:1 101216:1 101230:1 101245:1 
0 0 0 0 0.1235349571362023 0 28283:1 34727:1 36627:1 54939:1 56839:1 87384:1 101124:1 101131:1 101142:1 101159:1 101169:1 101175:1 101186:1 101203:1 101213:1 101216:1 101234:1 101237:1 101256:1 
0.1142797118200036 0 0.05816453633892277 1 1 0.01993772835135314 82331:1 90360:1 101071:1 101118:1 101135:1 101139:1 101173:1 101190:1 101194:1 101228:1 101245:1 101252:1 101269:1 101280:1 
0.1221724990035152 0.1306760023917768 0.02119230216507908 0 0.6172642296376388 0 81272:1 94691:1 96726:1 101126:1 101181:1 101231:1 101245:1 101256:1 101263:1 101278:1 
0 0 0 0 1 0 89090:1 101117:1 101172:1 101228:1 101239:1 101252:1 101259:1 
0 0 0 0.1340562513603401 0.3810412196227596 0 77528:1 81108:1 92248:1 101069:1 101117:1 101172:1 101230:1 101245:1 101258:1 101263:1 101280:1 
0.3617396702035321 0.2071500659629312 0.2557647123498139 0.5740585430962872 0.5083029938549209 0.007887687747734852 583:1 33336:1 74354:1 101065:1 101126:1 101135:1 101145:1 101158:1 101167:1 101179:1 101186:1 101197:1 101208:1 101219:1 
0 0 0 0.5084681010180598 1 0 30662:1 55927:1 80358:1 101066:1 101126:1 101135:1 101139:1 101181:1 101190:1 101194:1 101234:1 101247:1 
0 0 0 0 0.6040267091668937 0 85257:1 97699:1 101226:1 101241:1 101269:1 101274:1 
0.02218346974570894 0.3505043452142768 0 1 0.5742542849684972 0 113:1 48303:1 72015:1 101069:1 101082:1 101093:1 101101:1 101115:1 101126:1 101137:1 101143:1 101149:1 101168:1 101181:1 101186:1 101197:1 101214:1 101223:1 
0.05842270782517137 0 0.0916392881027822 0.0647582564844035 0.003769038278727176 0 39008:1 64273:1 76643:1 101071:1 101117:1 101131:1 101142:1 101172:1 101186:1 101197:1 101234:1 101240:1 101252:1 
0.09561440026997746 0 0 0.01612214596626919 0 0 14125:1 23199:1 38155:1 44649:1 54755:1 65685:1 69154:1 71444:1 101063:1 101080:1 101087:1 101102:1 101113:1 101117:1 101130:1 101142:1 101157:1 101170:1 101179:1 101192:1 101197:1 101208:1 101219:1 
0 0 0 0 1 0 78619:1 85888:1 101062:1 101117:1 101172:1 101234:1 101245:1 101256:1 101264:1 101273:1 
0 0 0.06780714370876863 0 0 0 35560:1 60825:1 83935:1 86176:1 101126:1 101135:1 101142:1 101181:1 101190:1 101197:1 101233:1 101241:1 101252:1 101267:1 101278:1 
0 0 0.2708343664586343 0 0.5326051211674248 0 75853:1 88989:1 101118:1 101128:1 101139:1 101153:1 101170:1 101173:1 101183:1 101194:1 101208:1 101225:1 101230:1 101244:1 101256:1 
0.04292327016702698 0 0 0 1 0 94652:1 101117:1 101172:1 101231:1 101241:1 101258:1 101263:1 101270:1 
0 0 0 0 1 0 76240:1 101121:1 101128:1 101176:1 101183:1 101230:1 101247:1 
1 1 0.5350081793272601 0 1 0 91325:1 101126:1 101181:1 101227:1 101240:1 101252:1 101263:1 101274:1 
0 0 0 0.1218538453051287 0.1266152503483525 0 9868:1 27126:1 52391:1 98448:1 101063:1 101080:1 101083:1 101101:1 101113:1 101120:1 101175:1 101227:1 101246:1 101252:1 101267:1 101278:1 
0 0 0 0 0.9451913556576784 0 28924:1 54189:1 78619:1 97989:1 101124:1 101129:1 101139:1 101179:1 101184:1 101194:1 101234:1 101247:1 101257:1 101261:1 101274:1 
0.7090227665925974 0 0.1062453004966163 0 0.6289067047442567 0.02268691482233728 9390:1 10253:1 25609:1 34881:1 50874:1 60146:1 101069:1 101076:1 101087:1 101124:1 101135:1 101159:1 101179:1 101190:1 101214:1 101234:1 101241:1 
0 0 0 0 0.9487501320869067 0 79608:1 101063:1 101082:1 101115:1 101117:1 101172:1 101234:1 
0.02458309764267361 0 0 0 0 0 9394:1 11242:1 46696:1 71961:1 79517:1 101066:1 101076:1 101091:1 101101:1 101118:1 101132:1 101142:1 101156:1 101164:1 101173:1 101187:1 101197:1 101211:1 101219:1 101230:1 
0 0 0 0 0.05534919158875657 0 83482:1 90464:1 101117:1 101172:1 101234:1 101241:1 101256:1 
0.2146857960980234 0 0 0 1 0 101070:1 101080:1 101090:1 101117:1 101172:1 101235:1 101242:1 101258:1 101262:1 101270:1 
0 0 0 0.3052997067924464 0 0 1735:1 11828:1 26431:1 51696:1 80358:1 101065:1 101080:1 101087:1 101115:1 101124:1 101128:1 101179:1 101183:1 101234:1 
0 0 0 0 0.2366668715557363 0.00125638604302594 38767:1 64032:1 101063:1 101118:1 101127:1 101146:1 101156:1 101173:1 101182:1 101201:1 101211:1 
0 0 0.09699042017810713 0 0 0 266:1 5991:1 35488:1 60753:1 95363:1 101065:1 101076:1 101121:1 101135:1 101146:1 101176:1 101190:1 101201:1 101227:1 101241:1 101255:1 101263:1 
0 0 0.06856543134255094 0 0.2532360993642915 0 26014:1 39780:1 75270:1 77817:1 101120:1 101135:1 101142:1 101170:1 101192:1 101198:1 101212:1 101223:1 101230:1 
0.03048789216517959 0 0 0.001446749227784903 0.5973859893839886 0 28924:1 33255:1 54189:1 58520:1 80136:1 101124:1 101135:1 101179:1 101190:1 101230:1 101258:1 101263:1 101272:1 
0.02528354368929115 0 0 0 1 0 101236:1 101237:1 101269:1 101278:1 
0.1570246221504874 0 0.04084822997995093 0.139728772770729 0.5175415137597412 0 4517:1 5872:1 14315:1 39264:1 50097:1 64529:1 75362:1 78619:1 101065:1 101076:1 101087:1 101124:1 101128:1 101142:1 101149:1 101164:1 101179:1 101183:1 101197:1 101204:1 101219:1 101234:1 101244:1 
0 0 0 0.1527481257252865 0 0 11077:1 23320:1 78813:1 85257:1 95436:1 101071:1 101076:1 101087:1 101104:1 101113:1 101117:1 101172:1 101234:1 101241:1 101255:1 101263:1 
0 0 0 0.1645818766305483 0 0 4563:1 38358:1 63623:1 101069:1 101082:1 101118:1 101132:1 101146:1 101150:1 101173:1 101187:1 101201:1 101205:1 101236:1 101244:1 
0.0936263703359657 0.3161594376986515 0.006983786706512694 0.113376282133949 1 0 371:1 8712:1 83443:1 101065:1 101080:1 101117:1 101172:1 101236:1 101241:1 101258:1 101263:1 101280:1 
0.1218905024650598 0 0.04973533328573613 0 0 0 25570:1 39220:1 50835:1 64485:1 77472:1 84697:1 91004:1 100925:1 101062:1 101120:1 101131:1 101142:1 101150:1 101175:1 101186:1 101197:1 101205:1 101230:1 101241:1 101250:1 101267:1 101278:1 
0 0 0 0.06575694127409466 0.3221289259772515 0 29306:1 54571:1 80939:1 101062:1 101124:1 101129:1 101140:1 101150:1 101179:1 101184:1 101195:1 101205:1 101233:1 101241:1 101256:1 
0 0 0 0 1 0 72603:1 81696:1 101117:1 101127:1 101147:1 101152:1 101166:1 101180:1 101185:1 101199:1 101211:1 101219:1 101228:1 101245:1 101251:1 101265:1 
0 0 0.1289792004253943 0 0.2053217696105774 0 29498:1 44083:1 59242:1 68791:1 85778:1 101065:1 101077:1 101124:1 101148:1 101157:1 101161:1 101181:1 101190:1 101194:1 101208:1 101219:1 101234:1 101241:1 101258:1 101263:1 101280:1 
1 0 0 0 1 0.1565369584037334 84507:1 101121:1 101135:1 101142:1 101152:1 101168:1 101192:1 101203:1 101208:1 101225:1 101228:1 101245:1 
0 0 0 0 0.4020021970776216 0 76276:1 81114:1 86146:1 101230:1 101241:1 101252:1 101280:1 
0.936297806716886 0 0.3035855284704117 0.6915890126621341 0.3571430037012153 0 27751:1 35518:1 50677:1 69229:1 101071:1 101120:1 101134:1 101142:1 101151:1 101168:1 101175:1 101184:1 101201:1 101208:1 101223:1 
0.1530962401998578 0 0 0 0 0 77589:1 82125:1 99672:1 101126:1 101181:1 101230:1 101245:1 101269:1 101274:1 
0.1404965476357689 0.1035923871660713 0.231066786612102 0.3509170623676637 0 0 76276:1 83266:1 101062:1 101082:1 101086:1 101098:1 101113:1 101126:1 101181:1 101230:1 101241:1 
0 0 0 0.1620640885346314 0.01279036900730478 0.04352814777196026 19722:1 81440:1 101064:1 101077:1 101091:1 101102:1 101112:1 101228:1 101245:1 101255:1 
0.09975923438424839 0 0.01804338847885724 0.03163155682927846 0.0003751564850361679 0 34206:1 59471:1 76544:1 85209:1 96668:1 101065:1 101117:1 101131:1 101172:1 101186:1 101230:1 101245:1 101248:1 101261:1 101274:1 
0.04907309891121685 0 0.03286178341671554 0.3454326536923644 0 0 4019:1 6330:1 76276:1 85508:1 94923:1 101065:1 101080:1 101090:1 101097:1 101109:1 101117:1 101172:1 101230:1 101241:1 101255:1 101263:1 
0.126818941731638 0.005328578661957556 0.02810099222396155 0.4919459910766176 0.5829269825695123 0 79872:1 85942:1 101065:1 101080:1 101230:1 101245:1 101252:1 101280:1 
0.04541297867391435 0 0.03463831857559931 0.2340344484608669 0 0.07559338753308058 21104:1 26130:1 30584:1 38570:1 51395:1 55849:1 63835:1 88316:1 101071:1 101080:1 101087:1 101104:1 101109:1 101124:1 101131:1 101142:1 101179:1 101186:1 101197:1 101234:1 101246:1 101256:1 101266:1 101280:1 
0 0 0 0 0.1960553982468215 0 82780:1 90269:1 100853:1 101117:1 101172:1 101231:1 101241:1 101256:1 101262:1 101274:1 
0 0 0 0 0.1011012054049341 0 35491:1 49458:1 60756:1 74723:1 83672:1 89642:1 101118:1 101132:1 101146:1 101159:1 101168:1 101173:1 101187:1 101201:1 101214:1 101223:1 101234:1 101245:1 101252:1 
0.05775882756386914 0 0 0 1 0 90450:1 101117:1 101172:1 101228:1 101245:1 101252:1 101262:1 101275:1 
0 0 0 0 1 0 837:1 79608:1 101069:1 101076:1 101104:1 101110:1 101117:1 101172:1 101234:1 101247:1 
0 0 0 0.5892503973356313 0 0 5342:1 85257:1 101071:1 101080:1 101117:1 101172:1 101233:1 101241:1 
0 0 0 0 1 0 100416:1 101117:1 101172:1 101228:1 101245:1 101252:1 101261:1 101274:1 
0 0 0.07844188128694998 0 1 0 77385:1 89496:1 101069:1 101079:1 101086:1 101100:1 101112:1 101117:1 101130:1 101144:1 101156:1 101172:1 101185:1 101199:1 101211:1 101234:1 101244:1 101252:1 
0.1360936570199126 0 0.2243614460540358 0.1306269580561827 0.4264718508307723 0 39485:1 43111:1 82642:1 101124:1 101137:1 101142:1 101153:1 101170:1 101181:1 101185:1 101199:1 101213:1 101216:1 101233:1 101241:1 
0.06607913070104504 0.07718650499439889 0 0.5492018192389496 0.2893958169563104 0 90740:1 93325:1 97145:1 101071:1 101072:1 101091:1 101098:1 101117:1 101172:1 101231:1 101241:1 101256:1 101267:1 101274:1 
0.1033518135225228 0 0 0 0 0 28924:1 54189:1 77817:1 94526:1 98437:1 101124:1 101135:1 101179:1 101190:1 101230:1 101258:1 101263:1 101274:1 
0.243074482286237 0 0 0 0.09483294813805489 0 26145:1 51410:1 90464:1 101066:1 101124:1 101179:1 101227:1 101241:1 101256:1 101269:1 
0 0 0 0 1 0 88373:1 101117:1 101172:1 101228:1 101242:1 101256:1 
0 0 0 0 0.2606758253150515 0 35236:1 39780:1 60501:1 65045:1 81370:1 101116:1 101135:1 101142:1 101170:1 101171:1 101190:1 101197:1 101225:1 101231:1 101245:1 101250:1 101269:1 
0 0 0 0 1 0 79590:1 101069:1 101119:1 101135:1 101174:1 101190:1 101234:1 101258:1 101260:1 101278:1 
0 0 0.04771884152599683 0 0.1962105938871723 0 7558:1 34297:1 48714:1 59562:1 73979:1 79345:1 101066:1 101076:1 101126:1 101131:1 101139:1 101159:1 101164:1 101181:1 101186:1 101194:1 101214:1 101219:1 101234:1 101240:1 101252:1 101269:1 
0.007872242107158717 0 0 0 0 0 38084:1 63349:1 83378:1 101126:1 101137:1 101142:1 101159:1 101161:1 101181:1 101192:1 101197:1 101214:1 101216:1 101236:1 101241:1 101258:1 101264:1 101280:1 
0.4976832539906133 0.1403775469587236 0.0146609187996565 0.8910782537266562 0.9036063576803203 0 78564:1 91994:1 97236:1 101064:1 101078:1 101090:1 101124:1 101134:1 101179:1 101189:1 101234:1 101241:1 101255:1 101267:1 101274:1 
0.2236380361973781 0.2020469128736061 0.1350607819997051 0.7555421464422181 0.08324271542086839 0 2177:1 80641:1 90397:1 93881:1 101065:1 101082:1 101087:1 101104:1 101115:1 101126:1 101181:1 101230:1 101241:1 101256:1 101263:1 101274:1 
0 0 0 1 0.5573802163690607 0 83835:1 91925:1 98081:1 101064:1 101078:1 101086:1 101098:1 101115:1 101117:1 101172:1 101231:1 101245:1 101253:1 101263:1 101274:1 
0 0 0 0 0.03750270616766222 0 29765:1 33263:1 43248:1 49136:1 58407:1 64295:1 79608:1 101124:1 101135:1 101146:1 101157:1 101168:1 101179:1 101190:1 101201:1 101206:1 101216:1 101234:1 
0 0 0 0 0.3000550080568212 0 37232:1 49402:1 62497:1 74667:1 101063:1 101123:1 101137:1 101142:1 101159:1 101168:1 101178:1 101192:1 101197:1 101214:1 101223:1 
1 1 0.03913954099606733 0 1 0 101117:1 101172:1 101236:1 101247:1 101251:1 101263:1 101273:1 
0 0 0 0 0.4958687524116908 0 27126:1 52391:1 81355:1 101120:1 101175:1 101234:1 101241:1 101269:1 101274:1 
0 0 0 1 0 0 47338:1 72603:1 101064:1 101078:1 101090:1 101121:1 101130:1 101144:1 101156:1 101164:1 101176:1 101185:1 101199:1 101211:1 101219:1 101234:1 
0 0 0 0 1 0 101117:1 101172:1 101234:1 101242:1 101251:1 101265:1 101273:1 
0 0 0 0 1 0.03185320833485429 95800:1 99437:1 101234:1 101247:1 101255:1 101263:1 101274:1 
0 0 0 0.3870712210578093 0 0 45077:1 70342:1 85257:1 101071:1 101077:1 101093:1 101097:1 101109:1 101116:1 101134:1 101139:1 101153:1 101171:1 101189:1 101194:1 101208:1 101233:1 101241:1 101258:1 
0 0 0 0 1 0 79345:1 101121:1 101135:1 101139:1 101176:1 101190:1 101194:1 101234:1 
0 0 0 0 1 0 14731:1 30507:1 55772:1 101063:1 101074:1 101091:1 101123:1 101131:1 101178:1 101186:1 101230:1 101245:1 
0 0 0 0 0.7524349692054837 0 79521:1 81056:1 101117:1 101172:1 101234:1 101241:1 101258:1 101280:1 
0 0 0 0 0.2342591739922051 0 5430:1 11383:1 77201:1 90287:1 97160:1 101069:1 101076:1 101091:1 101117:1 101131:1 101139:1 101172:1 101186:1 101194:1 101230:1 101239:1 101256:1 101266:1 101274:1 
0.2612979853161375 0 0.06753181626183487 1 1 0 76978:1 101071:1 101117:1 101172:1 101234:1 101239:1 101256:1 101269:1 101278:1 
0 0 0 0 0.01755264210979842 0 749:1 7613:1 17631:1 23433:1 101065:1 101080:1 101091:1 101102:1 101113:1 
0.2555437709761797 0 0.1163810799580564 0.04595545357803552 0.1565361308001647 0.002303320383704378 837:1 19819:1 23411:1 26942:1 33690:1 36570:1 43555:1 79664:1 85336:1 93792:1 101069:1 101076:1 101093:1 101098:1 101109:1 101120:1 101131:1 101142:1 101157:1 101165:1 101172:1 101186:1 101203:1 101205:1 101216:1 101230:1 101245:1 101255:1 101263:1 101272:1 
0 0.01879571541842134 0 0.3176284083883923 1 0 82310:1 101062:1 101117:1 101172:1 101233:1 101241:1 101253:1 101268:1 101277:1 
0.08420125558984259 0 0 0.0008752271060798371 0.2761009201184797 0 31347:1 56612:1 76751:1 101126:1 101135:1 101181:1 101190:1 101230:1 101247:1 101256:1 101264:1 101279:1 
0.08640848357230288 0 0 0 0 0 26038:1 32179:1 51303:1 57444:1 85719:1 95218:1 99991:1 101124:1 101131:1 101179:1 101186:1 101227:1 101241:1 101256:1 101263:1 101278:1 
0 0 0.03422564580545209 0 0 0 25454:1 50719:1 79779:1 83099:1 90394:1 101120:1 101175:1 101234:1 101241:1 101256:1 
0.8053415463662348 0.5234319135123635 0.2314447474044244 0.06081154391054373 1 0.04566615814326442 85361:1 101120:1 101175:1 101236:1 101241:1 101258:1 101280:1 
0 0.08042730254328537 0 0 0 0 33743:1 59008:1 81815:1 91802:1 101126:1 101131:1 101148:1 101150:1 101181:1 101186:1 101203:1 101205:1 101236:1 101241:1 101258:1 101267:1 101273:1 
0 0 0 0 0.03254983239503832 0 77589:1 101069:1 101124:1 101128:1 101146:1 101150:1 101179:1 101183:1 101201:1 101205:1 101230:1 
0.538372320228507 0.4397154380532693 0.3312188732430268 0 1 0 91435:1 101126:1 101181:1 101228:1 101242:1 101252:1 101263:1 101274:1 
0.4030360451964686 0 0 0 0.518397725402969 0 26014:1 51279:1 81720:1 91399:1 101120:1 101135:1 101175:1 101190:1 101226:1 101241:1 101256:1 101263:1 101278:1 
0 0 0 0.6351954715971322 0 0 88373:1 101068:1 101072:1 101091:1 101098:1 101115:1 101117:1 101172:1 101231:1 101245:1 101256:1 101269:1 
0 0 0 0.9800441025121018 1 0 19428:1 30507:1 55772:1 87972:1 93778:1 101071:1 101082:1 101091:1 101102:1 101113:1 101117:1 101131:1 101172:1 101186:1 101228:1 101239:1 101256:1 101267:1 
0 0.144134434805814 0 0 0 0.1848958207527824 75981:1 96196:1 101118:1 101173:1 101234:1 101258:1 101269:1 101274:1 
0 0 0 0 0.6356868573364377 0 18146:1 79067:1 85303:1 101071:1 101075:1 101087:1 101102:1 101112:1 101126:1 101181:1 101230:1 101241:1 101256:1 101267:1 101278:1 
0 0 0.02567703519864774 0.2277790344127083 0.3192525557147782 0 5465:1 14936:1 21150:1 85150:1 94676:1 101069:1 101076:1 101087:1 101102:1 101109:1 101117:1 101172:1 101236:1 101241:1 101258:1 101263:1 
0 0 0 0.2871786497329663 0.1088459405932492 0 2951:1 13438:1 79111:1 87461:1 99976:1 101065:1 101074:1 101091:1 101094:1 101112:1 101117:1 101172:1 101234:1 101247:1 101252:1 101266:1 101274:1 
0.6562650627056991 0 0 0 0.2397337918830756 0 7854:1 10295:1 79517:1 101062:1 101080:1 101087:1 101118:1 101131:1 101173:1 101186:1 101230:1 
0.282723891593531 0 0.00284847938441592 0 0.1010897947882989 0 29917:1 55182:1 78564:1 94630:1 99376:1 101120:1 101175:1 101234:1 101258:1 101263:1 101274:1 
0.1783068417503207 0.01674931427786088 0.05363174323001317 0.3545017868566023 0.06101295234633353 0 30851:1 37774:1 70084:1 75444:1 91615:1 97490:1 101065:1 101075:1 101093:1 101104:1 101109:1 101121:1 101131:1 101146:1 101150:1 101163:1 101174:1 101188:1 101200:1 101208:1 101219:1 101236:1 101241:1 101258:1 101263:1 101278:1 
0 0 0 1 0 0 84185:1 93727:1 101064:1 101078:1 101090:1 101117:1 101127:1 101141:1 101155:1 101167:1 101172:1 101182:1 101196:1 101210:1 101222:1 101231:1 101245:1 101258:1 101263:1 101280:1 
0.3844629257701634 0.9661920128749517 0.3063733830301018 1 1 0.01013733306081648 1668:1 101065:1 101076:1 101104:1 101126:1 101181:1 101231:1 101245:1 101253:1 101263:1 101280:1 
0.7880862587874391 0.08199994094758327 0.3494238806906067 0 0.6577319537377849 0 88295:1 101124:1 101179:1 101233:1 101241:1 101252:1 101260:1 101270:1 
1 0 0.2064076636262217 0.08688978487860237 0.4560062581538327 0.03134768559334018 749:1 9631:1 27002:1 76197:1 101065:1 101076:1 101093:1 101120:1 101137:1 101148:1 101159:1 101164:1 101181:1 101192:1 101203:1 101208:1 101219:1 101230:1 101247:1 
0 0 0.01835758234334521 0 0.09274646761722942 0.04646855850979206 40244:1 43693:1 60456:1 63905:1 70931:1 101124:1 101129:1 101146:1 101153:1 101165:1 101173:1 101190:1 101197:1 101209:1 101219:1 101236:1 101241:1 101258:1 
0 0 0 0.6357693623672235 0.1965285191227069 0 17786:1 23926:1 79608:1 101071:1 101075:1 101093:1 101098:1 101113:1 101117:1 101172:1 101234:1 
0.1396250773276996 0.2102289386033383 0 0.6290743520471311 0 0.06969332238872732 82927:1 99969:1 101071:1 101082:1 101121:1 101176:1 101233:1 101241:1 101258:1 101261:1 101278:1 
0.1587665723528591 0 0 0 0.07856945890751497 0 26090:1 51355:1 80059:1 87050:1 101120:1 101135:1 101175:1 101190:1 101230:1 101245:1 101252:1 101280:1 
0.3020856048495254 0 0 0 0.1080686412069927 0 26671:1 39899:1 51936:1 65164:1 98831:1 101069:1 101120:1 101129:1 101146:1 101175:1 101184:1 101201:1 101247:1 101256:1 101261:1 101278:1 
0 0.03810950724858536 0.004551962456265239 0.002213874933325744 0.1179469402989113 0.01839699313384297 6193:1 13336:1 73188:1 77653:1 90310:1 99602:1 101066:1 101076:1 101091:1 101101:1 101110:1 101117:1 101137:1 101142:1 101159:1 101164:1 101181:1 101186:1 101203:1 101208:1 101219:1 101234:1 101237:1 101252:1 101266:1 101274:1 
0.1346080928115841 0 0 0.09677756559366157 0 0 2600:1 30391:1 55656:1 88614:1 101065:1 101121:1 101135:1 101176:1 101190:1 101236:1 101247:1 101252:1 101269:1 
0 1 0 0 1 0 101117:1 101172:1 101236:1 101237:1 101256:1 101263:1 101277:1 
0 0 0 0 0.1749442426967538 0 42285:1 67550:1 86843:1 94452:1 101120:1 101127:1 101145:1 101153:1 101175:1 101182:1 101200:1 101208:1 101228:1 101239:1 101256:1 101267:1 101277:1 
0.4151399964007715 0.02852585553458992 0.03903072455443728 0.9790333418182917 0.1066386867697537 0 18329:1 22859:1 30689:1 55954:1 78657:1 101071:1 101074:1 101085:1 101102:1 101109:1 101117:1 101131:1 101172:1 101186:1 101234:1 101244:1 101252:1 
0.4758038530359176 0.4364666477902362 0.08292513552059755 0.4311499671893236 0.3390916238307482 0.4868925323702404 8648:1 27630:1 40795:1 52895:1 66060:1 101069:1 101076:1 101091:1 101120:1 101133:1 101148:1 101153:1 101165:1 101175:1 101188:1 101203:1 101208:1 101220:1 101233:1 101245:1 101255:1 101263:1 
0 0.144625286580977 0.04402606018775784 0 1 0 79772:1 96756:1 101069:1 101230:1 101239:1 101269:1 101274:1 
0 0 0.1865896151280818 0.02106048988020218 0.2091670072462322 0 25926:1 32010:1 36446:1 51191:1 57275:1 61711:1 81015:1 101069:1 101120:1 101131:1 101146:1 101175:1 101186:1 101201:1 101226:1 101241:1 
0 0 0.01457623670115521 0 0.1712938127731979 0 19819:1 23411:1 26189:1 40412:1 55571:1 72603:1 81855:1 101065:1 101093:1 101098:1 101109:1 101120:1 101132:1 101142:1 101159:1 101160:1 101175:1 101192:1 101193:1 101205:1 101219:1 101233:1 101241:1 
0 0.617308544724521 0 0.001353388637392319 1 0 79517:1 101126:1 101137:1 101141:1 101153:1 101163:1 101181:1 101192:1 101203:1 101212:1 101216:1 101230:1 101243:1 101254:1 101269:1 101277:1 
0.08476088032230324 0 0.02277269740527346 0.3510253017656109 0.02626618439127409 0 9262:1 31413:1 46265:1 56678:1 71530:1 100416:1 101071:1 101076:1 101121:1 101135:1 101145:1 101150:1 101164:1 101176:1 101190:1 101200:1 101205:1 101219:1 101233:1 101247:1 101251:1 101265:1 101274:1 
0 0 0 0.2024903607936851 0.1546256982486349 0 9321:1 87980:1 101070:1 101080:1 101092:1 101115:1 101233:1 101247:1 101252:1 101269:1 101272:1 
0 0 0 0.03459985373103093 0 0 9632:1 80358:1 101069:1 101080:1 101117:1 101172:1 101234:1 101244:1 101252:1 
0.06953887357818708 0 0 0 0.7078547339910173 0 76081:1 84234:1 101124:1 101179:1 101234:1 101241:1 101258:1 101268:1 101270:1 
1 0.5048425916846651 0.172613471256538 1 1 0 77589:1 82125:1 101071:1 101126:1 101181:1 101230:1 101245:1 101258:1 
0 0 0 0.6141209508309512 0.8785274198886301 0.306163849877505 189:1 82666:1 101065:1 101118:1 101129:1 101143:1 101156:1 101173:1 101184:1 101198:1 101211:1 101229:1 101245:1 
1 0 0.08050407225257404 0 0.2583906279967507 0 34187:1 59452:1 89913:1 101062:1 101123:1 101131:1 101143:1 101178:1 101186:1 101198:1 101228:1 101239:1 101256:1 
0 0 0 0.6299062274328497 0 0 83835:1 93670:1 101071:1 101082:1 101117:1 101172:1 101231:1 101245:1 101248:1 101267:1 101280:1 
0 0 0 0 0 0.1009327861295371 88673:1 95517:1 101124:1 101179:1 101236:1 101246:1 101256:1 101267:1 
0.5070790013508752 0 0.1516018206000216 0 0.8041135661050275 0 90333:1 96378:1 101126:1 101181:1 101227:1 101241:1 101256:1 101269:1 101274:1 
1 0 0 0 1 0 101230:1 101245:1 101252:1 101280:1 
0.0968915137331036 0 0.07921538163889176 0 0 0 938:1 35043:1 71525:1 78000:1 101065:1 101119:1 101131:1 101143:1 101157:1 101160:1 101179:1 101182:1 101201:1 101208:1 101219:1 101234:1 101240:1 101254:1 101263:1 
0.01607031878826283 0 0 0 0 0 85257:1 88998:1 101120:1 101175:1 101236:1 101241:1 101252:1 101267:1 101275:1 
0 0 0 0 0.3233029686684712 0 29945:1 43564:1 58723:1 77031:1 93778:1 101124:1 101127:1 101146:1 101153:1 101179:1 101186:1 101214:1 101223:1 101234:1 101239:1 101256:1 101267:1 
0 0 0 0.6664861775558293 1 0 77874:1 82125:1 101066:1 101117:1 101172:1 101230:1 101245:1 101258:1 
0 0 0 0.2386618494903343 0.3401360359178015 0 5312:1 19722:1 101071:1 101080:1 101085:1 101102:1 101112:1 101117:1 101172:1 
0 0.02081018490394602 0.10348634439242 0 0 0.265019119145623 2951:1 19913:1 24033:1 25454:1 50719:1 81694:1 101065:1 101079:1 101085:1 101098:1 101113:1 101120:1 101175:1 101233:1 101241:1 101252:1 101263:1 
0 0 0 0 0.6038354637143419 0 28985:1 31886:1 46136:1 52098:1 66348:1 79590:1 101069:1 101124:1 101135:1 101141:1 101155:1 101164:1 101179:1 101185:1 101199:1 101208:1 101220:1 101234:1 
0 0.106805119100681 0 1 1 0.05016417056533896 393:1 85425:1 101065:1 101117:1 101137:1 101148:1 101172:1 101192:1 101203:1 101233:1 101241:1 101256:1 101259:1 101273:1 
0 0 0 0 0.1936799443724961 0 33067:1 53279:1 70931:1 78984:1 101117:1 101131:1 101141:1 101155:1 101167:1 101175:1 101185:1 101199:1 101211:1 101219:1 101230:1 101237:1 
0.1308408622731849 0 0.07211808122210636 0.2955906763712124 0.3944239122574115 0.2875297226179662 1153:1 19736:1 20401:1 30692:1 46640:1 55957:1 71905:1 101065:1 101082:1 101090:1 101098:1 101109:1 101118:1 101135:1 101145:1 101159:1 101168:1 101173:1 101190:1 101200:1 101214:1 101223:1 101233:1 101240:1 101258:1 101259:1 101274:1 
0.08819464435401084 0 0 0 0 0 90310:1 91694:1 101126:1 101131:1 101148:1 101150:1 101181:1 101186:1 101203:1 101205:1 101229:1 101243:1 101252:1 101267:1 101278:1 
0.01862102700987143 0 0 0 1 0 38358:1 63623:1 101118:1 101132:1 101146:1 101150:1 101173:1 101187:1 101201:1 101205:1 101236:1 101245:1 101256:1 
0 0 0 0 0.2184588018458521 0 533:1 85257:1 87178:1 101065:1 101076:1 101083:1 101098:1 101115:1 101117:1 101172:1 101233:1 101241:1 101256:1 101269:1 
0 0 0 0 0.3859437939703144 0 79883:1 87610:1 94103:1 101234:1 101245:1 101256:1 101263:1 
0 0 0 1 0.2836075512658545 0 77086:1 90262:1 101071:1 101082:1 101117:1 101172:1 101230:1 101237:1 101256:1 101269:1 101272:1 
0.03954698469844507 0 0 0.7228504087796146 0.4887950392764057 0.06569018280972781 4563:1 13440:1 101069:1 101082:1 101091:1 101102:1 101113:1 101120:1 101137:1 101175:1 101192:1 
0 0 0 0 0.07052815347136625 0 3851:1 5890:1 79608:1 84672:1 96219:1 101065:1 101080:1 101087:1 101115:1 101234:1 101241:1 101256:1 101261:1 101278:1 
0 0 0 0.3401704232454623 0 0 78813:1 85257:1 101071:1 101077:1 101117:1 101172:1 101234:1 101241:1 101254:1 
0.3331126949153079 0 0 0 0 0 29134:1 33977:1 54399:1 59242:1 77822:1 86957:1 101120:1 101135:1 101175:1 101190:1 101230:1 101247:1 101256:1 101266:1 101274:1 
0.04560691387472 0.122923025450629 0 0.8843360907447984 1 0.06982026775310722 9557:1 29674:1 54939:1 101071:1 101080:1 101084:1 101120:1 101134:1 101175:1 101189:1 
0 0.004385460250365462 0.04459319699513456 0 1 0 31067:1 35715:1 45743:1 55849:1 63835:1 73853:1 76139:1 82399:1 88725:1 101121:1 101131:1 101146:1 101150:1 101164:1 101172:1 101186:1 101197:1 101214:1 101219:1 101234:1 101241:1 101256:1 
0.4361928917100498 0 0.4356391681521605 0 0.2667385549184066 0.01997188909427592 28923:1 54188:1 84717:1 87553:1 101124:1 101179:1 101233:1 101241:1 101252:1 
0 0 0 0 0.4360892742830665 0 32497:1 57762:1 85257:1 101118:1 101131:1 101139:1 101173:1 101186:1 101194:1 101233:1 101241:1 
0.0009851100898075459 0 0 0 0 0 41173:1 50395:1 51279:1 60501:1 80906:1 101121:1 101137:1 101143:1 101153:1 101168:1 101175:1 101190:1 101200:1 101213:1 101216:1 101233:1 101241:1 
0 0 0 0 0.4028242778862612 0 26014:1 45134:1 60293:1 72603:1 101120:1 101128:1 101145:1 101153:1 101168:1 101178:1 101186:1 101201:1 101213:1 101219:1 
0.00709407522655171 0 0.09882883344598098 0.4714008576478033 0 0 31147:1 56412:1 82581:1 96488:1 101071:1 101075:1 101087:1 101121:1 101135:1 101139:1 101176:1 101190:1 101194:1 101234:1 101241:1 101253:1 101263:1 101274:1 
0 0 0.006700141230695026 0 0.1600534484543429 0 38502:1 63767:1 88933:1 96378:1 101118:1 101129:1 101146:1 101173:1 101184:1 101201:1 101234:1 101247:1 101252:1 101262:1 101274:1 
0 0 0.0284752880541164 0.08985027791615981 0.1471694666329224 0 16117:1 24514:1 45666:1 70931:1 76456:1 90561:1 92121:1 97633:1 101071:1 101076:1 101090:1 101098:1 101109:1 101118:1 101132:1 101146:1 101150:1 101164:1 101173:1 101187:1 101201:1 101205:1 101219:1 101230:1 101242:1 101252:1 101263:1 101278:1 
0 0 0 0 0.06274534969019498 0.00621155542710666 2143:1 7678:1 25454:1 50719:1 94105:1 101065:1 101080:1 101120:1 101175:1 101236:1 101242:1 101258:1 101263:1 101272:1 
0 0 0 0 1 0 32179:1 57444:1 101117:1 101131:1 101172:1 101186:1 101236:1 101242:1 101258:1 101263:1 101280:1 
0.1644502585485534 0.05102855712321003 0.1115511489957954 0 0.4507476157050495 0.2020094674802325 77532:1 89998:1 101118:1 101135:1 101173:1 101190:1 101230:1 101244:1 101252:1 
0 0 0 0.4361585262296178 0 0 43411:1 58570:1 69675:1 78210:1 88568:1 101064:1 101078:1 101086:1 101098:1 101117:1 101131:1 101143:1 101157:1 101170:1 101176:1 101190:1 101203:1 101212:1 101222:1 101234:1 101244:1 101252:1 101269:1 101270:1 
0 0 0 0 0 0.2495623066749663 5909:1 16983:1 27126:1 52391:1 83979:1 101066:1 101080:1 101083:1 101098:1 101120:1 101134:1 101175:1 101189:1 101228:1 101245:1 101258:1 101269:1 101273:1 
0 0 0 0 0.1729854725943155 0 76039:1 86430:1 101230:1 101237:1 101256:1 101280:1 
0 0 0 0 1 0 90440:1 101117:1 101172:1 101231:1 101247:1 101256:1 101267:1 101270:1 
0 0 0 0 0.1394648762568311 0 1410:1 85257:1 88178:1 92231:1 101069:1 101126:1 101181:1 101233:1 101241:1 101252:1 101267:1 
0 0 0 0.2351527808370445 0.08236816423927899 0 32179:1 57444:1 77042:1 81594:1 87298:1 101064:1 101076:1 101086:1 101104:1 101115:1 101117:1 101131:1 101172:1 101186:1 101234:1 101245:1 101252:1 
0 0 0 0 1 0 101117:1 101172:1 101228:1 101242:1 101258:1 101266:1 
0 0 0 0 0.4557215602091483 0 938:1 48726:1 56431:1 70931:1 95119:1 100399:1 101065:1 101126:1 101135:1 101146:1 101159:1 101168:1 101172:1 101190:1 101196:1 101211:1 101219:1 101236:1 101241:1 101258:1 101267:1 101274:1 
0 0 0 0 1 0 85257:1 101117:1 101172:1 101233:1 101241:1 101256:1 101266:1 101273:1 
0 0 0 0 1 0 77982:1 101230:1 101240:1 101256:1 101280:1 
0 0 0.5449007717971741 0 1 0 75853:1 101121:1 101135:1 101139:1 101176:1 101190:1 101194:1 101230:1 101243:1 
0.1821488316286194 0 0 0 0.7803167693183143 0 88955:1 94291:1 101117:1 101172:1 101231:1 101242:1 101252:1 101267:1 101271:1 
0 0.06357445640491367 0 0 0.07963119782092998 0 30183:1 31828:1 41962:1 55448:1 57093:1 67227:1 85781:1 101124:1 101131:1 101140:1 101157:1 101179:1 101186:1 101195:1 101212:1 101236:1 101241:1 101258:1 
0.01044976002883719 0 0 0 1 0 30937:1 37037:1 56202:1 62302:1 84037:1 101117:1 101131:1 101142:1 101172:1 101186:1 101197:1 101233:1 101241:1 101253:1 101261:1 101272:1 
0.07807872061706066 0 0 0 0.04603033899895308 0 32206:1 38351:1 66855:1 85257:1 101124:1 101131:1 101146:1 101149:1 101164:1 101175:1 101192:1 101197:1 101212:1 101216:1 101233:1 101241:1 
0 0.01258351641639383 0.0430408964474425 0 0 0 76994:1 86957:1 96452:1 101117:1 101172:1 101230:1 101239:1 101256:1 101261:1 101274:1 
0.1925856457074369 0 0 0.5788586967787347 0 0 17485:1 83835:1 88262:1 91569:1 101064:1 101078:1 101093:1 101098:1 101115:1 101117:1 101130:1 101144:1 101159:1 101167:1 101177:1 101192:1 101200:1 101208:1 101225:1 101231:1 101245:1 101256:1 101267:1 
0 0 0 0.2327741705048825 0 0 4616:1 25454:1 50719:1 84852:1 101065:1 101080:1 101087:1 101096:1 101113:1 101120:1 101175:1 101236:1 101241:1 101258:1 
0.02597229605523272 0 0 0 0.6525486584583763 0 75995:1 97340:1 101117:1 101172:1 101234:1 101245:1 101253:1 101268:1 101274:1 
1 0.6983672629319452 0.01060852855408367 1 1 0 101071:1 101117:1 101172:1 101233:1 101247:1 101254:1 101267:1 101278:1 
0 0 0 0 1 0 80358:1 101234:1 101240:1 101254:1 
0 0 0 0 1 0 78984:1 101126:1 101128:1 101181:1 101183:1 101230:1 101237:1 
0.6445804038397892 0.0008666800841114114 0.04577146374909726 0.1564515381816075 0.8558557587092763 0 81897:1 91045:1 101063:1 101080:1 101124:1 101179:1 101227:1 101241:1 101258:1 101263:1 101280:1 
0.3833908594974361 0.0625265634771138 0.2456298162852403 0 0.2286429105980401 0.07687044933458119 15305:1 83320:1 101070:1 101082:1 101090:1 101098:1 101109:1 101117:1 101172:1 101228:1 101245:1 101258:1 
1 0.4954325825534204 0.5701022365812759 0.4388095732451113 1 0 87120:1 101126:1 101181:1 101234:1 101246:1 101252:1 101280:1 
0 0 0 0.1067633048806943 0.8012771335868066 0 5802:1 17269:1 90310:1 92231:1 101066:1 101076:1 101093:1 101102:1 101113:1 101126:1 101181:1 101229:1 101241:1 101252:1 101267:1 
0 0.003081857563706562 0 0 0 0 30584:1 35764:1 55849:1 61029:1 76643:1 101062:1 101117:1 101131:1 101142:1 101172:1 101186:1 101197:1 101234:1 101244:1 101251:1 101265:1 101277:1 
0 0 0 1 1 0 84643:1 101071:1 101126:1 101130:1 101144:1 101159:1 101168:1 101175:1 101185:1 101203:1 101214:1 101220:1 101226:1 101245:1 
0 0 0 0.6985132358960907 0 0 2345:1 31814:1 57079:1 101069:1 101123:1 101131:1 101178:1 101186:1 
0.3057755260511183 0 0.4265769721115992 0 0.4416238935850548 0 26014:1 51279:1 76641:1 83408:1 101120:1 101127:1 101146:1 101159:1 101175:1 101182:1 101201:1 101214:1 101230:1 101245:1 
0 0 0 0 1 0 72603:1 101123:1 101135:1 101148:1 101149:1 101181:1 101182:1 101214:1 101219:1 101228:1 101241:1 101252:1 
0.2345675096907291 0 0.04043836729238248 0 0.0958832269062827 0.04230355988375626 42165:1 90747:1 101120:1 101129:1 101146:1 101153:1 101181:1 101186:1 101195:1 101206:1 101216:1 101234:1 101244:1 101252:1 
0 0 0 0 1 0 101117:1 101172:1 101231:1 101247:1 101253:1 101261:1 101277:1 
0.02809514839786376 0 0.06216946348824835 0.1958958224253828 0.4993331776533719 0.1383458371477554 228:1 27542:1 31001:1 52807:1 56266:1 82709:1 86796:1 101065:1 101075:1 101089:1 101101:1 101120:1 101135:1 101141:1 101155:1 101175:1 101190:1 101196:1 101210:1 101233:1 101241:1 101252:1 
0.2379892989838754 0 0 1 1 0.0929991874521548 14500:1 78619:1 88501:1 101065:1 101077:1 101091:1 101121:1 101176:1 101234:1 101244:1 101252:1 
0.2208289538610717 0 0 0 1 0 83672:1 94868:1 101062:1 101118:1 101132:1 101173:1 101187:1 101234:1 101245:1 101255:1 101263:1 101280:1 
0 0 0 0 0.4372689879938033 0.005606348459331524 29842:1 32179:1 55107:1 57444:1 92063:1 96897:1 101061:1 101082:1 101120:1 101131:1 101175:1 101186:1 101228:1 101242:1 101251:1 101263:1 101274:1 
0 0 0 0.4761361526738053 0 0 12914:1 83320:1 101071:1 101076:1 101091:1 101102:1 101117:1 101172:1 101228:1 101245:1 
0 0 0 0 1 0 101062:1 101117:1 101172:1 101228:1 101237:1 
0 0 0 0 1 0 77346:1 83672:1 99672:1 101230:1 101245:1 101269:1 101274:1 
0 0 0 1 0.6916154590510692 0 6166:1 85959:1 101070:1 101080:1 101087:1 101104:1 101115:1 101126:1 101136:1 101143:1 101181:1 101191:1 101198:1 101234:1 101246:1 101252:1 
0.2833198829554358 0 0 0.01189221894047036 1 0 85397:1 101117:1 101172:1 101234:1 101241:1 101255:1 101269:1 101274:1 
1 1 0.6297881893404501 0.8244818696137072 1 0 101126:1 101181:1 101226:1 101245:1 101256:1 
0.006223898909088008 0 0 0 0.004109323978394384 0 29842:1 34059:1 46939:1 54271:1 67151:1 89376:1 101120:1 101131:1 101138:1 101159:1 101164:1 101175:1 101182:1 101203:1 101208:1 101215:1 101247:1 101256:1 101263:1 101280:1 
0 0 0 0 0.0107521171168968 0 28063:1 35560:1 53328:1 60825:1 101124:1 101135:1 101142:1 101179:1 101190:1 101197:1 
0 0 0 0.6139128293838056 0 0 13910:1 85257:1 101071:1 101074:1 101091:1 101117:1 101172:1 101233:1 101241:1 101250:1 101260:1 101272:1 
0 0 0 1 0 0 90310:1 101064:1 101078:1 101090:1 101126:1 101131:1 101148:1 101150:1 101160:1 101172:1 101182:1 101196:1 101210:1 101222:1 101233:1 101241:1 101252:1 101259:1 
0.2271159435069646 0 0.03751287913627975 0.06815250966598838 0.3495355849423738 0.00237211831087858 4763:1 27695:1 30485:1 52960:1 55750:1 101069:1 101120:1 101131:1 101159:1 101175:1 101186:1 101214:1 101234:1 101247:1 101252:1 101263:1 101280:1 
0.16142337100228 0 0 0 0 0 34187:1 38800:1 59452:1 64065:1 80358:1 94386:1 101069:1 101121:1 101131:1 101146:1 101150:1 101176:1 101186:1 101201:1 101205:1 101234:1 101258:1 101263:1 101278:1 
1 0 0.02550694883280175 0 0.8633860862108466 0.1884916580489141 88351:1 101124:1 101179:1 101231:1 101241:1 101256:1 
0 0 0 0 0.1784043471294552 0 91136:1 100021:1 101117:1 101172:1 101231:1 101245:1 101253:1 101263:1 101274:1 
0.2012162666479818 0 0.04164778380581302 0.3214191880462747 0.0037988357184602 0 6734:1 27655:1 52920:1 95363:1 101065:1 101076:1 101085:1 101102:1 101124:1 101179:1 101227:1 101241:1 101255:1 101263:1 
0 0 0 0 1 0 30507:1 55772:1 101117:1 101131:1 101172:1 101186:1 101236:1 101241:1 
0.2319359871976855 0 0 0.1219202145087316 0.8374811605368769 0.0455165230260441 31724:1 68157:1 101062:1 101121:1 101131:1 101148:1 101151:1 101162:1 101181:1 101184:1 101195:1 101212:1 101220:1 101233:1 101237:1 
0 0 0.270068863726023 1 0 0 19722:1 101071:1 101073:1 101087:1 101102:1 101112:1 101117:1 101172:1 
0.512239483019384 0 0.1557371443433942 0 0.3666606870244086 0 76667:1 81037:1 101124:1 101179:1 101230:1 101241:1 101269:1 101272:1 
0 0 0 0 0.01791442458361914 0 80358:1 94344:1 99794:1 101117:1 101172:1 101234:1 101247:1 101255:1 101267:1 101274:1 
0 0 0.01106065347287852 0 0.0946876665341672 0 31091:1 39560:1 44399:1 45666:1 56356:1 64825:1 69664:1 70931:1 101118:1 101135:1 101142:1 101153:1 101164:1 101173:1 101190:1 101197:1 101208:1 101219:1 101236:1 101242:1 101258:1 
0 0.8207965479939954 0.9008639603727153 0 0 0 80358:1 101126:1 101181:1 101234:1 101244:1 
0.1399361663588831 0 0 0 1 0 76544:1 100026:1 101230:1 101237:1 101269:1 101274:1 
0 0 0 0 1 0 76421:1 101230:1 101237:1 101269:1 101273:1 
0.1840477774119421 0 0 0 0 0 31067:1 56332:1 82642:1 101121:1 101131:1 101146:1 101157:1 101165:1 101176:1 101186:1 101201:1 101212:1 101220:1 101233:1 101241:1 
0 0 0 0 0.1695093648782403 0 94703:1 101066:1 101117:1 101172:1 101229:1 101243:1 101248:1 101263:1 101277:1 
0 0 0 0 0.1458599399175305 0 4956:1 6206:1 80059:1 95950:1 98723:1 101065:1 101076:1 101093:1 101102:1 101230:1 101245:1 101252:1 101263:1 101278:1 
0.3380321844384901 0 0 1 0.8155504068922965 0 22244:1 101062:1 101081:1 101083:1 101096:1 101113:1 101117:1 101172:1 
0.1306218040897995 0 0.05419022777705112 0.3829821339910212 0.09292228592982998 0 8333:1 29633:1 42258:1 62470:1 80163:1 95556:1 97015:1 101068:1 101076:1 101087:1 101098:1 101115:1 101124:1 101137:1 101139:1 101153:1 101164:1 101181:1 101183:1 101197:1 101208:1 101225:1 101234:1 101247:1 101253:1 101267:1 101278:1 
0 0 0 0.0182087534366567 1 0 78970:1 101065:1 101118:1 101128:1 101173:1 101183:1 101234:1 101247:1 101256:1 101263:1 101275:1 
0.5497082929446381 0.141407268036406 0.06778186748742156 0 0.1849225621448437 0.02727577915152227 76798:1 96098:1 101120:1 101131:1 101175:1 101186:1 101234:1 101258:1 101260:1 101274:1 
0 0 0 0 0.7465645778574272 0 79345:1 94619:1 101126:1 101181:1 101234:1 101258:1 101263:1 101280:1 
0.1292571084611309 0 0 0.2447220376678464 0 0 33305:1 43623:1 58570:1 68888:1 85742:1 88384:1 99668:1 101071:1 101121:1 101135:1 101139:1 101153:1 101176:1 101190:1 101194:1 101208:1 101231:1 101241:1 101256:1 101260:1 101274:1 
0 0 0 0 1 0 28924:1 54189:1 89696:1 101124:1 101179:1 101229:1 101243:1 101256:1 101280:1 
0.5604224306258839 0 0 0 0.810143452036316 0 32179:1 57444:1 92815:1 101123:1 101131:1 101178:1 101186:1 101227:1 101245:1 101252:1 101263:1 101277:1 
0 0 0.07411045521173736 0 0 0 15942:1 33305:1 44494:1 58570:1 69759:1 83902:1 96536:1 101062:1 101076:1 101090:1 101098:1 101121:1 101135:1 101139:1 101153:1 101176:1 101190:1 101194:1 101208:1 101231:1 101241:1 101252:1 101263:1 101278:1 
0 0 0.006916595638462971 0 0 0 28396:1 37083:1 45666:1 53661:1 62348:1 70931:1 101124:1 101132:1 101142:1 101153:1 101164:1 101179:1 101187:1 101197:1 101208:1 101219:1 
0.728969061867718 1 0 1 1 0 101069:1 101076:1 101084:1 101098:1 101115:1 101117:1 101172:1 101236:1 101241:1 101249:1 101263:1 101279:1 
0 0 0 0 0.1176008058085591 0 33305:1 47990:1 72206:1 79532:1 87375:1 101121:1 101135:1 101139:1 101159:1 101164:1 101178:1 101190:1 101203:1 101204:1 101219:1 101230:1 101247:1 101256:1 
0 0.4288749219264621 0.2322545859631056 1 1 0 70931:1 89873:1 101071:1 101076:1 101093:1 101098:1 101115:1 101126:1 101131:1 101148:1 101153:1 101170:1 101175:1 101192:1 101197:1 101205:1 101219:1 101227:1 101241:1 101252:1 101266:1 101272:1 
0 0 0.02185262734305148 0 0 0 82870:1 99672:1 101230:1 101241:1 101269:1 101274:1 
0 0 0 0 0.09720655965073625 0 27126:1 52391:1 81597:1 93762:1 98339:1 101120:1 101175:1 101231:1 101241:1 101250:1 101267:1 101278:1 
0.3975672101269118 0 0.1831250062831631 0.1794362877645782 0 0 34187:1 62615:1 75270:1 101070:1 101073:1 101123:1 101131:1 101140:1 101154:1 101163:1 101174:1 101188:1 101197:1 101210:1 101223:1 
0.1323922429070291 0 0 0 0.4407365805069404 0 25919:1 34680:1 40212:1 55371:1 82474:1 101124:1 101131:1 101142:1 101170:1 101175:1 101203:1 101205:1 101216:1 101226:1 101245:1 
0.150131176287026 0.09279986651891199 0.1068003760807337 0.0745181835515495 0 0.02970579812521135 2987:1 30311:1 32611:1 37493:1 55576:1 57876:1 62758:1 84817:1 101069:1 101079:1 101124:1 101131:1 101142:1 101179:1 101186:1 101197:1 101233:1 101241:1 
0 0.0006185978755925553 0 0 0 0 10499:1 38027:1 48392:1 61823:1 68430:1 76643:1 101064:1 101078:1 101087:1 101126:1 101131:1 101142:1 101152:1 101164:1 101181:1 101187:1 101197:1 101208:1 101222:1 101234:1 
0 0 0 0 0.1326201167279731 0 32179:1 57444:1 83617:1 89703:1 97919:1 101117:1 101131:1 101172:1 101186:1 101226:1 101245:1 101252:1 101259:1 101278:1 
1 0 0.07492377243792893 0 0 0.2000969139274814 27002:1 39402:1 101120:1 101133:1 101146:1 101153:1 101170:1 101175:1 101192:1 101201:1 101214:1 101219:1 101234:1 101237:1 101255:1 
0.139043647155629 0 0.02508713264073084 0.02052914098441821 0.3079039582040565 0 29249:1 31562:1 46762:1 61921:1 74401:1 78125:1 101124:1 101135:1 101159:1 101164:1 101192:1 101197:1 101208:1 101223:1 101234:1 
0 0 0 0 1 0 32179:1 57444:1 101066:1 101126:1 101131:1 101145:1 101153:1 101161:1 101181:1 101186:1 101200:1 101208:1 101216:1 101236:1 101241:1 101256:1 101259:1 101271:1 
0 0 0.07604959112931539 0 0.0482565506918185 0 32593:1 35560:1 57858:1 60825:1 101118:1 101135:1 101142:1 101173:1 101190:1 101197:1 
0 0 0 0 0.02422087332494934 0 90626:1 100271:1 101063:1 101078:1 101091:1 101102:1 101112:1 101117:1 101172:1 101236:1 101240:1 101252:1 101264:1 101274:1 
0 0 0 0 0.1809642575773914 0 34895:1 60160:1 101121:1 101131:1 101146:1 101176:1 101186:1 101201:1 101233:1 101247:1 101252:1 101269:1 
0.1985006790189398 0.07843458183593255 0 0 0.147413373444887 0 34971:1 60236:1 88373:1 101117:1 101131:1 101148:1 101172:1 101186:1 101203:1 101236:1 101239:1 101256:1 101269:1 
0 0 0 0 0.3082898430500026 0 33977:1 48301:1 53354:1 56167:1 90218:1 101118:1 101135:1 101148:1 101150:1 101168:1 101179:1 101190:1 101201:1 101213:1 101216:1 101236:1 101237:1 101252:1 
0 0 0 0.1308435287029663 0 0 7766:1 87980:1 101071:1 101076:1 101093:1 101126:1 101128:1 101181:1 101183:1 101233:1 101247:1 101252:1 101269:1 101272:1 
0 0 0 0 1 0 99237:1 101231:1 101247:1 101251:1 101263:1 101278:1 
0 0 0 0 0 0.006798314792353783 34590:1 45666:1 59855:1 70931:1 79522:1 101118:1 101135:1 101145:1 101154:1 101164:1 101173:1 101190:1 101200:1 101209:1 101219:1 101234:1 101247:1 101258:1 101267:1 101274:1 
0 0 0 0.5221478160072052 0 0 85257:1 96189:1 101071:1 101117:1 101172:1 101233:1 101241:1 101250:1 101260:1 101274:1 
0 0 0 0 0.7755176023310603 0 3851:1 5890:1 80204:1 101065:1 101080:1 101087:1 101115:1 101117:1 101172:1 101230:1 101245:1 101258:1 
0 0 0.01486016366078849 0 0 0 6330:1 81819:1 93821:1 98723:1 101071:1 101080:1 101090:1 101097:1 101109:1 101117:1 101172:1 101231:1 101241:1 101257:1 101263:1 101278:1 
0.2720646792911295 0 0 0 0.4409103960763144 0 32068:1 57333:1 101116:1 101135:1 101171:1 101190:1 101234:1 101241:1 
0.3110950220638464 0.06228308526070966 0.06313805251976211 0 0.7727077528309636 0.1310154319214536 87156:1 96003:1 101124:1 101179:1 101236:1 101241:1 101252:1 101263:1 101272:1 
0 0 0.02876642221638897 0 0.1169527644848586 0 80358:1 101126:1 101130:1 101142:1 101150:1 101181:1 101185:1 101197:1 101205:1 101234:1 
0 0 0 0 0.05289690048008808 0 5802:1 14375:1 77681:1 85411:1 101066:1 101076:1 101091:1 101104:1 101113:1 101118:1 101173:1 101234:1 101245:1 
0.1461262066819967 0 0.006006053395613245 0.4796471306304811 0.655152435080272 0 33256:1 58521:1 88725:1 94142:1 101071:1 101116:1 101131:1 101142:1 101150:1 101171:1 101186:1 101197:1 101205:1 101234:1 101247:1 101256:1 101263:1 
0 0 0 1 1 0 101069:1 101228:1 101237:1 101256:1 101264:1 101278:1 
0 0 0 0.1683851109420893 1 0 85450:1 89451:1 101066:1 101117:1 101172:1 101235:1 101245:1 101256:1 
0.05468506289120248 0.01403635193072701 0.04348464150354815 0 1 0 93833:1 98129:1 101117:1 101172:1 101229:1 101241:1 101250:1 101263:1 101274:1 
0 0 0.0001532927734594946 0 0 0 85425:1 90160:1 101117:1 101172:1 101233:1 101241:1 101256:1 101259:1 
0.02894670984269378 0 0 0 0 0 80204:1 91854:1 97890:1 101122:1 101135:1 101139:1 101177:1 101190:1 101194:1 101230:1 101247:1 101250:1 101263:1 101274:1 
0.05694636199207757 0 0 0 0.07199756812329702 0 28265:1 34972:1 49458:1 64617:1 80641:1 88325:1 101124:1 101131:1 101159:1 101168:1 101192:1 101201:1 101212:1 101216:1 101230:1 101241:1 101256:1 101269:1 101274:1 
1 1 0.3145813911552585 1 1 0 14125:1 101069:1 101072:1 101087:1 101102:1 101115:1 101126:1 101131:1 101148:1 101153:1 101170:1 101181:1 101186:1 101203:1 101208:1 101225:1 101236:1 101241:1 101258:1 101263:1 101280:1 
0 0 0.0001567250005975566 0 0 0 19736:1 22073:1 79517:1 101070:1 101079:1 101093:1 101098:1 101109:1 101117:1 101172:1 101230:1 
0.2013652752565222 0 0 0.4027751996556877 0.03996259052975852 0 19178:1 21720:1 37978:1 63243:1 82709:1 101063:1 101080:1 101086:1 101098:1 101113:1 101117:1 101137:1 101142:1 101172:1 101192:1 101197:1 101233:1 101241:1 
0.003825637140619443 0 0 0 1 0 83278:1 101234:1 101241:1 101248:1 101269:1 
0.1835055869435886 0 0.09139088517915173 0 0 0 25926:1 35076:1 40052:1 47301:1 51191:1 60341:1 65317:1 72566:1 83448:1 101120:1 101135:1 101142:1 101149:1 101164:1 101175:1 101190:1 101197:1 101204:1 101219:1 101233:1 101241:1 
0 0 0 0 0.9061041686463329 0 90685:1 101226:1 101245:1 101252:1 101265:1 
0.2713987732366613 0.1632727186524367 0.09527583186516848 0 0.7080870158739734 0 18754:1 84047:1 92620:1 96432:1 101063:1 101076:1 101086:1 101098:1 101115:1 101118:1 101128:1 101173:1 101183:1 101236:1 101241:1 101252:1 101263:1 101274:1 
0 0.4277416687552151 0 0 0 0 36120:1 43758:1 61385:1 69023:1 101062:1 101118:1 101132:1 101142:1 101157:1 101173:1 101187:1 101197:1 101212:1 101232:1 
0 0 0 0.1181605931099981 0.01891777154644296 0 68676:1 101118:1 101129:1 101143:1 101158:1 101165:1 101176:1 101191:1 101198:1 101212:1 101216:1 101236:1 
0 0 0 1 0.2923090197281875 0 24606:1 101065:1 101075:1 101089:1 101099:1 101113:1 101117:1 101172:1 101233:1 101241:1 101252:1 101265:1 101278:1 
0.0391245453870981 0 0.02178103513813571 0 1 0 81260:1 95715:1 100853:1 101117:1 101172:1 101234:1 101241:1 101255:1 101263:1 101274:1 
0 0 0 0 1 0 30183:1 55448:1 85257:1 101066:1 101124:1 101128:1 101179:1 101183:1 101233:1 101241:1 101258:1 
0 0 0 0 1 0 35715:1 60980:1 79345:1 101126:1 101131:1 101146:1 101150:1 101181:1 101186:1 101201:1 101205:1 101234:1 
0 0 0 0.4045202361932067 0 0 30183:1 55448:1 80204:1 92107:1 101064:1 101078:1 101093:1 101124:1 101128:1 101179:1 101183:1 101230:1 101247:1 101255:1 101263:1 101275:1 
0.1594591083525825 0.1010396694354601 0.05110706422053578 0.002561911733298481 0.1529541432656917 0 31734:1 38376:1 56999:1 63641:1 87307:1 94966:1 97003:1 101126:1 101131:1 101142:1 101157:1 101181:1 101186:1 101197:1 101212:1 101247:1 101252:1 101267:1 101274:1 
0 0 0 0 1 0 90464:1 101234:1 101239:1 101256:1 101280:1 
0 0 0 0 0.8559701432994143 0 80204:1 82527:1 101065:1 101117:1 101172:1 101230:1 101245:1 101255:1 101269:1 
0 0 0.2094586353050352 0 0 0 25454:1 50719:1 84817:1 101120:1 101175:1 101233:1 101241:1 101253:1 101267:1 101274:1 
0 0 0 0 0.38903025316187 0 35560:1 60825:1 85694:1 93049:1 100196:1 101126:1 101128:1 101142:1 101181:1 101183:1 101197:1 101231:1 101241:1 101252:1 101267:1 101274:1 
0.1608032367452764 0 0.07662401707287919 0.2803252986010025 0.09144632857432584 0.02901554453464702 14384:1 23496:1 35088:1 40126:1 60353:1 65391:1 79307:1 101069:1 101081:1 101091:1 101099:1 101109:1 101123:1 101131:1 101142:1 101178:1 101186:1 101197:1 101234:1 101241:1 
0 0.09679925523821785 0 0.1327495938881363 0.2516335318805921 0 26014:1 49886:1 59992:1 101120:1 101127:1 101139:1 101153:1 101164:1 101175:1 101186:1 101203:1 101214:1 101219:1 101247:1 101257:1 101267:1 101279:1 
0 0 0 0 1 0 93670:1 101117:1 101172:1 101228:1 101239:1 101258:1 101267:1 101280:1 
0 0 0 0 0.1080314657257679 0 85257:1 93197:1 101233:1 101241:1 101249:1 101267:1 101270:1 
0.1656225389924107 0.1444639448461594 0.02025143050343994 0 0.1746305789677084 0 27542:1 30563:1 52807:1 55828:1 81049:1 98031:1 101120:1 101131:1 101148:1 101157:1 101175:1 101186:1 101203:1 101212:1 101233:1 101241:1 101250:1 101267:1 101274:1 
0 0 0 0 1 0 26014:1 32428:1 39402:1 51279:1 57693:1 64667:1 77385:1 101120:1 101135:1 101146:1 101150:1 101175:1 101190:1 101201:1 101205:1 101234:1 101247:1 101258:1 101260:1 101278:1 
0 0 0 0 0.5653388838771192 0 80334:1 81696:1 101117:1 101172:1 101234:1 101245:1 
0 0 0 0.154326482949895 0.6850530148915158 0 606:1 38921:1 59133:1 101065:1 101072:1 101121:1 101135:1 101146:1 101149:1 101168:1 101179:1 101190:1 101193:1 101212:1 101222:1 101229:1 101242:1 
0.07528032293163069 0.05781760210284901 0 0.01004975397837369 0 0.1360686509078517 27491:1 52756:1 92492:1 101124:1 101179:1 101236:1 101246:1 101250:1 101267:1 101279:1 
0 0 0.001423662725787713 0 0.3935736438899938 0.0113343253359804 23411:1 57916:1 72576:1 79590:1 101071:1 101082:1 101087:1 101101:1 101109:1 101121:1 101131:1 101140:1 101156:1 101163:1 101171:1 101186:1 101203:1 101209:1 101219:1 101234:1 
0 0 0.03408646423410706 0 0.119840188121603 0 13701:1 18389:1 90165:1 91615:1 98078:1 101071:1 101080:1 101087:1 101102:1 101117:1 101172:1 101228:1 101242:1 101252:1 101263:1 101278:1 
0 0 0.04518365322285949 0 0 0 85425:1 98781:1 101117:1 101172:1 101233:1 101241:1 101256:1 101259:1 101274:1 
1 0.8610743828768304 0.6654015417960079 1 1 0 101063:1 101072:1 101117:1 101172:1 101233:1 101247:1 101256:1 101263:1 101280:1 
0 0 0 0 0.1602338630351951 0 98674:1 101230:1 101247:1 101248:1 101267:1 101274:1 
0 0 0 0 1 0 101229:1 101241:1 101251:1 101269:1 101270:1 
0.1047732214033881 0 0.0008654623088999137 1 0.6663648651107168 0 83219:1 88597:1 101071:1 101082:1 101087:1 101104:1 101112:1 101117:1 101172:1 101234:1 101245:1 101252:1 
0 0 0 0.02968128155561362 0 0 3653:1 10855:1 19663:1 83564:1 101065:1 101077:1 101087:1 101102:1 101112:1 101117:1 101172:1 101233:1 101245:1 101252:1 
0 0 0 0 1 0 81377:1 101236:1 101245:1 101258:1 101280:1 
0 0 0 0.3173809550592484 0.4369583541578253 0 15998:1 76324:1 84817:1 92107:1 101064:1 101076:1 101090:1 101102:1 101112:1 101117:1 101172:1 101234:1 101241:1 101249:1 101263:1 
0 0 0 0 1 0 30507:1 55772:1 97922:1 101062:1 101117:1 101131:1 101172:1 101186:1 101228:1 101242:1 101251:1 101263:1 101278:1 
0 0 0 0 0.7465202006026311 0 20471:1 30507:1 55772:1 98831:1 101065:1 101093:1 101104:1 101113:1 101117:1 101131:1 101172:1 101186:1 101236:1 101241:1 101252:1 101269:1 101278:1 
0.06798977921583144 0.05377520730326887 0 0.3409863339714652 0.2577145049053343 0 82300:1 94028:1 99666:1 101063:1 101082:1 101117:1 101172:1 101233:1 101241:1 101250:1 101267:1 101278:1 
0 0 0 0.03939981413170977 0 0 3348:1 34895:1 35560:1 60160:1 60825:1 94938:1 97347:1 101065:1 101076:1 101104:1 101123:1 101131:1 101142:1 101178:1 101186:1 101197:1 101236:1 101238:1 101252:1 101267:1 101274:1 
0.1613928076986571 0.02224228525632651 0.08124634620071029 0 0.05420894422603752 0 41173:1 47469:1 61385:1 67681:1 71567:1 101126:1 101129:1 101143:1 101153:1 101164:1 101173:1 101187:1 101197:1 101208:1 101219:1 101234:1 101244:1 101252:1 
0 0 0 0.1667482318328924 0.1381986453000841 0 6176:1 25454:1 50719:1 101061:1 101076:1 101086:1 101104:1 101112:1 101120:1 101175:1 
0 0 0 0 0 0.3601835630159593 26111:1 33977:1 51376:1 59242:1 77385:1 97748:1 101120:1 101135:1 101147:1 101150:1 101175:1 101190:1 101202:1 101205:1 101234:1 101247:1 101258:1 101261:1 101274:1 
0.1425031473260143 0 0.008460022213216369 0 0.1345470781608476 0 41599:1 48975:1 66864:1 74240:1 80939:1 101124:1 101131:1 101148:1 101157:1 101168:1 101179:1 101186:1 101203:1 101212:1 101223:1 101227:1 101241:1 
0 0 0 0 0.1476370894169457 0 34712:1 43232:1 59977:1 68497:1 101121:1 101135:1 101146:1 101157:1 101168:1 101176:1 101190:1 101201:1 101212:1 101223:1 101234:1 101241:1 101253:1 101268:1 101276:1 
0 0.09619667053182787 0 0.1445555190728324 0 0.2443974908379511 8815:1 18290:1 33652:1 58917:1 81904:1 94868:1 101066:1 101080:1 101093:1 101102:1 101115:1 101118:1 101135:1 101140:1 101154:1 101173:1 101190:1 101195:1 101209:1 101227:1 101245:1 101257:1 101263:1 
0 0 0 0.2781299504845128 0.9963663786205248 0 4305:1 101069:1 101082:1 101231:1 101245:1 101248:1 101263:1 101274:1 
0 0 0 0 0.7833085129758106 0 83515:1 100803:1 101117:1 101172:1 101231:1 101241:1 101258:1 101259:1 101274:1 
1 0 0 0 1 0 101120:1 101127:1 101142:1 101175:1 101182:1 101197:1 101247:1 101253:1 101267:1 101272:1 
0.1746858954541516 0.1159374442708257 0.1162889694508517 0 0.04509445224010386 0.0452248230061599 29842:1 30507:1 44273:1 48996:1 53661:1 101120:1 101131:1 101142:1 101153:1 101164:1 101179:1 101192:1 101203:1 101213:1 101225:1 101236:1 101241:1 101248:1 
0 0 0 0.03509018194447127 0 0 5714:1 10635:1 79454:1 81037:1 101065:1 101076:1 101091:1 101137:1 101192:1 101234:1 101241:1 101253:1 101267:1 101280:1 
0 0 0 0 1 0 44661:1 69926:1 83448:1 101121:1 101130:1 101144:1 101157:1 101176:1 101185:1 101199:1 101212:1 101233:1 101241:1 101250:1 101267:1 101277:1 
0 0 0 0 0.3244958878327985 0 5430:1 13047:1 32179:1 57444:1 81687:1 89287:1 101047:1 101066:1 101076:1 101091:1 101123:1 101131:1 101178:1 101186:1 101231:1 101245:1 101252:1 101269:1 101278:1 
0 0 0.0503235721075601 0.1431980631969508 0.5200769636441482 0 39910:1 46342:1 65175:1 71607:1 101126:1 101129:1 101146:1 101159:1 101168:1 101181:1 101184:1 101201:1 101214:1 101223:1 
0 0 0.06515739009242574 0.1167848894806258 0.1977732298089178 0 91615:1 98831:1 101069:1 101082:1 101087:1 101104:1 101117:1 101172:1 101229:1 101243:1 101250:1 101263:1 101278:1 
0.1831570860476358 0.2935489716802978 0.1141495718638624 0 0.03641811785262666 0 91767:1 100853:1 101126:1 101181:1 101229:1 101243:1 101252:1 101263:1 101274:1 
0 0 0 0 0.8949327277002731 0 81597:1 88919:1 96852:1 101231:1 101241:1 101256:1 101259:1 101278:1 
0 0 0 1 0 0 24481:1 85411:1 101063:1 101082:1 101093:1 101096:1 101113:1 101228:1 101245:1 
0 0 0 0.07539286256344122 0 0 1582:1 10483:1 17688:1 20220:1 30604:1 55869:1 94686:1 101069:1 101080:1 101087:1 101102:1 101113:1 101126:1 101135:1 101181:1 101190:1 101233:1 101240:1 101256:1 101263:1 101273:1 
0 0.1718696155975421 0 0.01322521727435389 1 0 81574:1 101234:1 101241:1 101250:1 101280:1 
0 0 0 0 0.9067584667499602 0 79044:1 84661:1 101234:1 101245:1 
0 0 0 0.3587763009787289 1 0 17759:1 79590:1 101063:1 101074:1 101091:1 101098:1 101113:1 101118:1 101173:1 101234:1 101237:1 
0 0 0 0 1 0 77385:1 101117:1 101172:1 101234:1 101240:1 101254:1 101280:1 
0 0 0 0 1 0 31236:1 56501:1 87980:1 95119:1 101069:1 101126:1 101135:1 101181:1 101190:1 101247:1 101252:1 101267:1 
0 0 0 1 0.4996877396250579 0 86083:1 93639:1 101064:1 101078:1 101124:1 101137:1 101146:1 101179:1 101192:1 101201:1 101247:1 101252:1 101263:1 101270:1 
0.01272529146399034 0.0004557380280457229 0 0 0 0 20605:1 72359:1 101082:1 101093:1 101094:1 101109:1 101121:1 101135:1 101146:1 101159:1 101170:1 101179:1 101190:1 101203:1 101214:1 101219:1 
0 0 0 0.5357221826152956 0 0 4269:1 80358:1 101069:1 101082:1 101091:1 101104:1 101115:1 101117:1 101172:1 101234:1 101244:1 
0 0 0 0 0.04794406039976932 0 32179:1 57444:1 75962:1 89105:1 91061:1 101121:1 101131:1 101176:1 101186:1 101230:1 101247:1 101256:1 101267:1 101278:1 
0 0.3834495307448066 0 0 0.4129417487945972 0.321208549734454 89714:1 99602:1 101066:1 101231:1 101245:1 101256:1 101266:1 101274:1 
0 0 0.08709369544385152 0 0 0 25454:1 50719:1 80156:1 101065:1 101073:1 101120:1 101175:1 101234:1 101237:1 
0.07586962074252626 0 0 0 0.2672178550410054 0 28924:1 34481:1 43264:1 54693:1 63476:1 101124:1 101135:1 101140:1 101157:1 101179:1 101184:1 101201:1 101225:1 101231:1 101245:1 101252:1 
0.1333137304557936 0 0 0.1332511914533358 0.3163872508889994 0.1502698515853932 27020:1 31016:1 52285:1 56281:1 77039:1 91800:1 101069:1 101124:1 101131:1 101179:1 101186:1 101234:1 101258:1 101263:1 101272:1 
0 0 0 0 1 0 31067:1 40289:1 56332:1 65554:1 77385:1 101124:1 101131:1 101146:1 101150:1 101179:1 101186:1 101201:1 101205:1 101234:1 
0 0 0 1 0.391779105841729 0 16436:1 85257:1 101071:1 101082:1 101091:1 101102:1 101112:1 101117:1 101172:1 101233:1 101241:1 
0 0 0 0 0.7658606144332353 0 27126:1 52391:1 88780:1 93268:1 101120:1 101175:1 101229:1 101243:1 101252:1 101267:1 101273:1 
0.5199258491272924 0 0.02903177962702285 0 0.0392210907721037 0.1687967627736352 27828:1 33403:1 65836:1 84114:1 101120:1 101135:1 101159:1 101168:1 101192:1 101201:1 101208:1 101223:1 101234:1 101245:1 101252:1 
0.4250134431204218 0.1755339649853128 0.1128314123761218 0 1 0 37311:1 62576:1 78619:1 101124:1 101137:1 101142:1 101153:1 101179:1 101192:1 101197:1 101208:1 101234:1 101241:1 101258:1 101263:1 101280:1 
0 0 0 0 1 0 80713:1 84398:1 101234:1 101245:1 
0 0 0 0 0.5859774317541436 0 36120:1 50395:1 56332:1 70607:1 85257:1 101071:1 101082:1 101119:1 101132:1 101142:1 101159:1 101168:1 101176:1 101186:1 101203:1 101212:1 101216:1 101233:1 101241:1 
0.6548834398469595 0 0.03935189397134285 0 0.4525366139263117 0 34187:1 37651:1 59452:1 62916:1 86048:1 93517:1 98445:1 101062:1 101123:1 101131:1 101146:1 101178:1 101186:1 101201:1 101227:1 101246:1 101252:1 101263:1 101274:1 
0 0.1222814762542709 0.01116362211623672 0 0.498256143155605 0.09638262785689632 76305:1 80939:1 89060:1 101118:1 101173:1 101234:1 101241:1 101256:1 101269:1 101280:1 
0 0 0 0 1 0 90773:1 101117:1 101172:1 101236:1 101237:1 101256:1 
0.02101977063265819 0 0 0 1 0 101062:1 101082:1 101116:1 101128:1 101171:1 101183:1 
0.4305204589506722 0 0 0 0 0 25636:1 50901:1 93738:1 101120:1 101131:1 101142:1 101157:1 101175:1 101186:1 101197:1 101212:1 101234:1 101237:1 101248:1 101263:1 
0.04720452278892835 0 0.1492209298785751 1 1 0 86714:1 92418:1 101064:1 101078:1 101117:1 101172:1 101235:1 101242:1 101252:1 101263:1 101271:1 
0.06018954301878982 0 0.06767459090814447 1 0.3700221929264575 0.123393550308424 89284:1 101071:1 101076:1 101084:1 101098:1 101115:1 101117:1 101172:1 101229:1 101242:1 101252:1 101261:1 101275:1 
0 0 0 0 0.06309194442732252 0 28924:1 54189:1 77822:1 99706:1 101124:1 101179:1 101230:1 101247:1 101258:1 101267:1 101278:1 
0 0 0.1424615063185155 0.8343685835615472 0.1516947022820789 0 18390:1 84570:1 101071:1 101073:1 101092:1 101102:1 101117:1 101172:1 101226:1 101241:1 
1 0 0.1605550198036756 0.156613852275038 0.4403713870400925 0 31537:1 40136:1 56802:1 65401:1 101123:1 101131:1 101146:1 101151:1 101168:1 101178:1 101186:1 101201:1 101206:1 101223:1 
0.1737921313360034 0 0.01561861914779401 0.2100946268546586 0.02180371571010317 0 2951:1 9557:1 30711:1 55976:1 77355:1 81493:1 94923:1 101065:1 101080:1 101093:1 101097:1 101109:1 101117:1 101131:1 101172:1 101186:1 101230:1 101245:1 101255:1 101263:1 
0.2619713756015288 0 0.02340976900932937 1 0 0.337815484359892 30305:1 55570:1 101066:1 101124:1 101135:1 101145:1 101179:1 101190:1 101200:1 
0 0.04077577828531578 0 0 1 0 88617:1 101234:1 101239:1 101256:1 101280:1 
0.08796819627908146 0 0 0 0 0 85303:1 86527:1 93864:1 101234:1 101241:1 101252:1 101267:1 
0 0 0 0 0.4133515009120556 0 34648:1 59913:1 80544:1 101116:1 101135:1 101159:1 101161:1 101171:1 101190:1 101214:1 101216:1 101230:1 101245:1 101254:1 
0.03818813018767919 0 0.03780729448444355 0 1 0.3775486132735877 5802:1 12807:1 19663:1 81696:1 94549:1 101069:1 101076:1 101087:1 101102:1 101117:1 101172:1 101228:1 101245:1 101255:1 101263:1 
0 0 0 0 0.1520422654421902 0 37232:1 62497:1 94258:1 101124:1 101135:1 101142:1 101179:1 101190:1 101197:1 101247:1 101256:1 101267:1 101278:1 
0.1548853634373757 0 0.08472561465944799 0 0.1784514368906387 0 28924:1 38476:1 70266:1 74483:1 76395:1 101124:1 101128:1 101142:1 101153:1 101175:1 101203:1 101208:1 101219:1 101234:1 
0.2169348178416918 0 0.2361380176676439 0 0.3906047579594679 0 33517:1 58782:1 77278:1 98086:1 101117:1 101131:1 101172:1 101186:1 101234:1 101245:1 101251:1 101265:1 101274:1 
0 0 0 0 0.4782652062325051 0 35088:1 60353:1 93941:1 101066:1 101117:1 101131:1 101172:1 101186:1 101226:1 101247:1 101253:1 101267:1 101273:1 
0.7115110455948132 0 0 0.8091955015505327 0.2898925445376748 0 13701:1 26671:1 36909:1 51936:1 62174:1 101071:1 101080:1 101087:1 101102:1 101120:1 101129:1 101146:1 101175:1 101184:1 101201:1 
0 0 0 0 1 0 84037:1 88505:1 101117:1 101172:1 101233:1 101241:1 101256:1 101261:1 101272:1 
0 0 0 0.15309956162977 0.4473965990364399 0 4662:1 75908:1 87933:1 101069:1 101082:1 101234:1 101239:1 101256:1 101269:1 101270:1 
1 0 0 0 0 0 28924:1 54189:1 101124:1 101132:1 101179:1 101187:1 101234:1 101241:1 101269:1 101278:1 
0 0 0 0 1 0 79608:1 101117:1 101172:1 101234:1 101247:1 
0 0 0 0.5556875493261425 0 0.0256467670159305 15536:1 24481:1 78267:1 101061:1 101082:1 101091:1 101098:1 101113:1 101117:1 101172:1 101234:1 101240:1 101254:1 101263:1 
0 0 0 0 0 0.09564982420813627 6918:1 31003:1 56268:1 79608:1 100261:1 101065:1 101076:1 101118:1 101135:1 101146:1 101173:1 101190:1 101201:1 101234:1 101258:1 101263:1 101274:1 
0 0 0 0 0 0.1215495727409067 5586:1 13093:1 35101:1 38632:1 60366:1 63897:1 89505:1 101069:1 101076:1 101091:1 101123:1 101131:1 101146:1 101154:1 101178:1 101186:1 101201:1 101209:1 101232:1 101244:1 101252:1 
0 0.005859493429247392 0 0 0.7033706987889512 0 86749:1 101117:1 101172:1 101228:1 101239:1 101256:1 101262:1 101276:1 
0 0.0120947527527847 0.06457546796769555 0.2970266875663073 0.8827534120657954 0 86083:1 100781:1 101071:1 101079:1 101117:1 101172:1 101228:1 101242:1 101252:1 101267:1 101274:1 
0.009584030779841076 0 0 0 0.8850562104354777 0 33830:1 59095:1 101116:1 101135:1 101171:1 101190:1 101226:1 101241:1 
0 0 0 0 1 0 85257:1 101117:1 101172:1 101233:1 101241:1 101258:1 101267:1 101275:1 
1 0 0.03638061590698384 0.9928836197740526 0.2733069698763444 0 25454:1 50719:1 77923:1 90553:1 101064:1 101076:1 101086:1 101104:1 101113:1 101120:1 101131:1 101139:1 101175:1 101186:1 101194:1 101230:1 101244:1 101252:1 
0 0 0 0.10289822515381 0 0 37898:1 45003:1 50040:1 55093:1 73082:1 101120:1 101131:1 101146:1 101157:1 101168:1 101179:1 101203:1 101212:1 101223:1 
0 0.01007350772629699 0 0.2532382502632142 0.8698514059466321 0 39948:1 40613:1 65213:1 65878:1 101069:1 101077:1 101126:1 101134:1 101142:1 101153:1 101161:1 101181:1 101189:1 101197:1 101208:1 101216:1 
0.07621926312688053 0 0 0 0.2330500590417662 0 54097:1 65140:1 70459:1 101121:1 101127:1 101148:1 101156:1 101170:1 101175:1 101192:1 101201:1 101208:1 101223:1 
0.1841434705467554 0.0620211532579934 0.6422700294399575 0.4120901856471394 0.1139809257718566 1 86747:1 100038:1 101069:1 101126:1 101131:1 101146:1 101159:1 101181:1 101186:1 101201:1 101214:1 101247:1 101252:1 101267:1 101278:1 
0.1479427381192033 0 0.08598556236318151 0.2743931263535939 0.3250885405341311 0 85771:1 86087:1 101126:1 101129:1 101146:1 101181:1 101184:1 101201:1 101234:1 101241:1 101256:1 
0.2010688974758713 0 0 0 0.05879657584088785 0 30507:1 55772:1 79195:1 101117:1 101131:1 101172:1 101186:1 101234:1 101245:1 101255:1 101259:1 101277:1 
0 0 0 0 0.272380122857109 0 89714:1 101117:1 101172:1 101236:1 101243:1 101256:1 101267:1 101270:1 
0 0 0 0 0.161909751105943 0 28924:1 32179:1 37493:1 50395:1 65842:1 83883:1 101124:1 101131:1 101142:1 101150:1 101168:1 101172:1 101192:1 101197:1 101208:1 101225:1 101233:1 101241:1 
0 0 0 0.02560588065930109 0.4442761311229336 0 18754:1 41272:1 79590:1 101071:1 101074:1 101091:1 101098:1 101113:1 101118:1 101132:1 101140:1 101157:1 101163:1 101174:1 101188:1 101193:1 101208:1 101222:1 101234:1 101237:1 
0 0 0 0 0.1197657841817955 0 26274:1 35722:1 72603:1 76798:1 101120:1 101136:1 101146:1 101157:1 101179:1 101203:1 101212:1 101219:1 101234:1 101247:1 101252:1 101269:1 
0 0 0 0 0.3893536532727994 0 41641:1 53278:1 65554:1 85257:1 101126:1 101132:1 101147:1 101157:1 101167:1 101179:1 101190:1 101201:1 101213:1 101216:1 101233:1 101241:1 
0 0 0 0 1 0 80713:1 84398:1 101234:1 101245:1 
0.08616026378702157 0 0 0 1 0.02243868457447019 3851:1 5890:1 84661:1 101065:1 101080:1 101087:1 101115:1 101126:1 101181:1 101231:1 101245:1 101258:1 
0 0 0 0.2866226684296287 0 0 26014:1 42285:1 51279:1 67550:1 90731:1 101071:1 101075:1 101093:1 101115:1 101120:1 101135:1 101146:1 101153:1 101175:1 101190:1 101201:1 101208:1 101230:1 101243:1 101252:1 101269:1 
0 0 0 1 0.4471009906538186 0 5177:1 89947:1 101064:1 101076:1 101093:1 101103:1 101113:1 101117:1 101172:1 101229:1 101237:1 101256:1 101269:1 101273:1 
0.267653937070394 0 0 0 0 0 3851:1 5890:1 82927:1 88144:1 101065:1 101080:1 101087:1 101115:1 101117:1 101131:1 101172:1 101186:1 101233:1 101241:1 101256:1 101259:1 
0 0 0 1 0.6656667662867133 0 86272:1 101066:1 101081:1 101086:1 101098:1 101107:1 101117:1 101172:1 101230:1 101245:1 101252:1 101263:1 
0 0 0 1 1 0 8603:1 101071:1 101080:1 101086:1 101100:1 101112:1 101117:1 101172:1 101231:1 101245:1 101253:1 101269:1 101280:1 
0 0 0 0 1 0 79345:1 101234:1 101242:1 101256:1 101263:1 
0.02831229114399245 0 0 1 0.7413634087879503 0 8785:1 101067:1 101076:1 101088:1 101104:1 101113:1 101226:1 101245:1 101256:1 101269:1 101274:1 
0 0 0 1 1 0 78511:1 101069:1 101082:1 101093:1 101098:1 101115:1 101117:1 101172:1 101234:1 
0 0.08057563378495113 0 0 0.3481625179506794 0 83320:1 86650:1 97585:1 101069:1 101228:1 101245:1 101252:1 101262:1 101278:1 
0.01319607220574402 0.1122678272651293 0.1053211823112717 0.2565867074150169 0.8148514128863205 0 27126:1 52391:1 84918:1 101065:1 101082:1 101120:1 101175:1 101236:1 101241:1 101252:1 101280:1 
0 0 0 0 0.6885272900177293 0 3199:1 30507:1 55772:1 91922:1 100768:1 101065:1 101117:1 101131:1 101172:1 101186:1 101228:1 101242:1 101256:1 101263:1 101274:1 
0.7578166733820373 0 0 0 1 0 101116:1 101135:1 101171:1 101190:1 101234:1 101240:1 101250:1 101259:1 101279:1 
0 0.08771511643682454 0 0 0.2835644849027134 0 42568:1 62780:1 83961:1 101118:1 101127:1 101143:1 101153:1 101164:1 101171:1 101187:1 101197:1 101208:1 101223:1 101234:1 101241:1 101258:1 101260:1 101278:1 
0.681132854267929 0.04590428922137507 0.1439929524026822 0 0.3464120721866876 0 68652:1 71567:1 101124:1 101131:1 101148:1 101153:1 101179:1 101192:1 101193:1 101208:1 101219:1 
0 0 0 0.7791661661434922 0.1157527965937227 0 30742:1 56007:1 81034:1 101071:1 101121:1 101135:1 101139:1 101176:1 101190:1 101194:1 101236:1 101245:1 
0 0 0 0.3382138919134817 0 0 6314:1 95363:1 97649:1 101071:1 101080:1 101117:1 101172:1 101229:1 101243:1 101255:1 101263:1 101278:1 
0.0003238225149123066 0 0 0 0 0 25392:1 50657:1 76643:1 97748:1 101065:1 101080:1 101120:1 101128:1 101175:1 101183:1 101234:1 101243:1 101250:1 101267:1 101274:1 
0.5179888758658228 0 0 0 0 0 28924:1 54189:1 101124:1 101135:1 101179:1 101190:1 101226:1 101245:1 101252:1 
0 0 0 0 0.1022027485639285 0 70284:1 75761:1 79337:1 80995:1 101119:1 101133:1 101141:1 101153:1 101165:1 101174:1 101186:1 101198:1 101208:1 101219:1 101230:1 101241:1 
0 0 0.008170239041288989 0 0 0 371:1 13955:1 21724:1 28495:1 53760:1 85257:1 101065:1 101080:1 101087:1 101101:1 101109:1 101124:1 101128:1 101179:1 101183:1 101233:1 101241:1 
0 0 0 0 1 0 86419:1 101228:1 101237:1 101256:1 101280:1 
0.1649005231861026 0 0 0.1353645042355442 1 0 200:1 78979:1 101069:1 101080:1 101116:1 101132:1 101171:1 101187:1 101234:1 
0 0.499860644338761 0 0 0.6839446012393767 0 33977:1 59242:1 101126:1 101135:1 101140:1 101157:1 101181:1 101190:1 101195:1 101212:1 
0 0 0 0 0.1159987214273101 0 87130:1 91121:1 101124:1 101179:1 101234:1 101237:1 101252:1 101263:1 
0 0.1329642016230047 0 0 0 0 35560:1 60825:1 87919:1 101126:1 101134:1 101142:1 101181:1 101189:1 101197:1 101234:1 101246:1 101252:1 101266:1 101274:1 
0 0 0.096741143601804 0.4779960054714734 0.106132745193033 0.0238045182387625 3173:1 15425:1 24986:1 25454:1 50719:1 84128:1 101065:1 101082:1 101084:1 101098:1 101109:1 101120:1 101175:1 101234:1 101241:1 
0.006456467404767779 0.1591352671861923 0 0.007288205890971211 0.5180092594383183 0.2207390353105606 60825:1 72003:1 94444:1 101126:1 101135:1 101145:1 101153:1 101167:1 101175:1 101189:1 101197:1 101214:1 101223:1 101234:1 101246:1 101255:1 101267:1 
0.05036158957744993 0.02216859598295854 0 0.3990306610680713 0.3020811656339432 0.1764244730524845 9630:1 11967:1 25763:1 33449:1 51028:1 58714:1 78159:1 97608:1 101066:1 101076:1 101087:1 101124:1 101135:1 101148:1 101157:1 101179:1 101190:1 101203:1 101212:1 101234:1 101240:1 101254:1 101262:1 101274:1 
0 0 0 0 1 0 101062:1 101117:1 101172:1 101231:1 101240:1 101254:1 101262:1 101274:1 
1 0.9871234404367396 0.4397602932873574 0.190953038442616 0.8645038502567749 0 92360:1 101126:1 101181:1 101227:1 101246:1 101255:1 101263:1 101280:1 
0 0 0 0 1 0 47143:1 72408:1 101118:1 101127:1 101146:1 101157:1 101164:1 101173:1 101182:1 101201:1 101212:1 101219:1 
0 0.4133115052656944 0.1376821570231173 0 0.2292450026352614 0 92517:1 96431:1 101126:1 101181:1 101229:1 101241:1 101253:1 101263:1 101278:1 
0 0 0 0.3284255966402674 0.2912941724995783 0 2824:1 12946:1 15567:1 82830:1 90544:1 92013:1 101069:1 101082:1 101091:1 101098:1 101112:1 101117:1 101172:1 101231:1 101241:1 101256:1 101267:1 
0 0 0 0 0.1560972291768975 0 30362:1 55627:1 80358:1 101117:1 101131:1 101142:1 101172:1 101186:1 101197:1 101234:1 101240:1 101254:1 101263:1 
0 0.2598128631089302 0 0 0 0 82300:1 97063:1 101062:1 101117:1 101172:1 101233:1 101241:1 101250:1 101261:1 101278:1 
0.1581165888263778 0.08526181998520509 0.1369061886933311 0.1825008915902472 0 0 25454:1 35783:1 48218:1 57116:1 68732:1 73834:1 101071:1 101120:1 101135:1 101142:1 101153:1 101164:1 101181:1 101186:1 101202:1 101208:1 101219:1 
0.3538669350007445 0.1613671631512665 0.3080470804899573 0.1064799293754098 0.3449446105295777 0.1407095836675056 26932:1 43613:1 63825:1 101124:1 101131:1 101147:1 101153:1 101170:1 101175:1 101191:1 101197:1 101214:1 101223:1 101233:1 101245:1 
0 0 0 0 0.3536367510761862 0 32179:1 40506:1 52391:1 60718:1 101124:1 101131:1 101142:1 101157:1 101175:1 101186:1 101201:1 101225:1 101236:1 101241:1 101256:1 101263:1 101280:1 
0.1960031159967005 0 0 0 1 0.2303515104707429 79590:1 101063:1 101082:1 101118:1 101132:1 101142:1 101159:1 101165:1 101173:1 101187:1 101197:1 101214:1 101220:1 101234:1 101244:1 
0 0 0 0 0.2672789736647468 0 30689:1 44833:1 50901:1 65045:1 101117:1 101131:1 101146:1 101153:1 101175:1 101190:1 101197:1 101225:1 101226:1 101240:1 101252:1 101269:1 
0 0 0 0 0.158960480545736 0.2129654830603417 28396:1 30507:1 53661:1 55772:1 89732:1 91931:1 101124:1 101131:1 101179:1 101186:1 101228:1 101239:1 101256:1 101267:1 101280:1 
0 0.07893939145654222 0 0 0.9209106767706469 0 27126:1 52391:1 91995:1 101066:1 101120:1 101175:1 101228:1 101241:1 101258:1 101263:1 
0 0 0 0 0.5544737103258923 0 83835:1 101117:1 101172:1 101231:1 101245:1 101252:1 
0 0 0 0 0.1050554423724246 0 88888:1 93723:1 100924:1 101117:1 101172:1 101228:1 101242:1 101256:1 101267:1 101274:1 
0.1937090713227323 0 0 0.2177449055263033 0.1903649096940971 0 26803:1 52068:1 76842:1 101124:1 101132:1 101179:1 101187:1 101230:1 
0 0 0 1 1 0 101063:1 101117:1 101172:1 101235:1 101242:1 101252:1 101261:1 101272:1 
0 0 0 1 1 0 90747:1 101065:1 101073:1 101087:1 101104:1 101117:1 101172:1 101229:1 101242:1 101252:1 
0 0 0.2076025463824009 0 0 0 35560:1 60825:1 90387:1 96441:1 101069:1 101080:1 101121:1 101131:1 101142:1 101176:1 101186:1 101197:1 101233:1 101237:1 101252:1 101260:1 101274:1 
0.1972586068936507 0 0 0.4867957708373001 0.5689638073050947 0 2213:1 79559:1 101069:1 101124:1 101179:1 101230:1 101241:1 101258:1 101267:1 101277:1 
0 0 0 0 0.3136137921014054 0 84852:1 101117:1 101172:1 101236:1 101241:1 101258:1 101264:1 101270:1 
0 0.03148484799743644 0 0 0 0 17646:1 34208:1 59473:1 95363:1 101065:1 101076:1 101087:1 101098:1 101117:1 101131:1 101142:1 101172:1 101186:1 101197:1 101233:1 101240:1 101254:1 101263:1 101275:1 
0.1145841176508926 0.06100913760811588 0.02198134265026684 0.2174422028683878 0.5767976818999977 0 7825:1 15483:1 84590:1 88178:1 101063:1 101080:1 101091:1 101098:1 101117:1 101172:1 101233:1 101241:1 101252:1 
0 0.05575580217801745 0 0 0 0 4662:1 26671:1 50005:1 51936:1 75270:1 101069:1 101120:1 101128:1 101140:1 101151:1 101168:1 101175:1 101183:1 101195:1 101206:1 101223:1 
0 0.01776707546133367 0.003611139790348245 0 0 0 40023:1 55750:1 75080:1 101119:1 101133:1 101142:1 101150:1 101164:1 101175:1 101186:1 101214:1 101219:1 
0.3056703280812073 0 0.01753716868094065 0 1 0 28213:1 53478:1 81597:1 101120:1 101175:1 101231:1 101241:1 101256:1 101267:1 101271:1 
0.3119784733090492 0 0 0 0.1258651626005546 0 228:1 55125:1 60602:1 66876:1 73483:1 86048:1 101065:1 101075:1 101089:1 101101:1 101121:1 101130:1 101144:1 101154:1 101163:1 101175:1 101186:1 101203:1 101208:1 101219:1 101230:1 101247:1 101252:1 101269:1 101270:1 
0 0 0 0 0.9217469733544048 0 4563:1 77650:1 101069:1 101075:1 101087:1 101121:1 101176:1 101230:1 101247:1 101257:1 101267:1 101272:1 
0 0 0 0.1159499396111661 0.06244281670428417 0.01110483023218202 9037:1 14599:1 20586:1 81904:1 90464:1 101066:1 101080:1 101091:1 101102:1 101113:1 101117:1 101172:1 101227:1 101245:1 101256:1 
0 0 0 0 0.4974911526764672 0 94291:1 99287:1 101117:1 101172:1 101229:1 101243:1 101250:1 101267:1 101274:1 
0.3015069561293173 0 0 0 0.3644489625317008 0 32055:1 69148:1 101123:1 101131:1 101140:1 101151:1 101160:1 101173:1 101184:1 101193:1 101208:1 101223:1 
0 0.08119693732119498 0 0 0 0.107660011547241 10483:1 18146:1 81034:1 94923:1 101071:1 101080:1 101087:1 101102:1 101236:1 101245:1 101255:1 101263:1 
0 0 0 0.09300597293225177 1 0 44661:1 69926:1 83448:1 101121:1 101130:1 101144:1 101157:1 101176:1 101185:1 101199:1 101212:1 101233:1 101241:1 101250:1 101267:1 101277:1 
0 0.002019528770146386 0 0 0 0.003180988555081785 10483:1 15692:1 23199:1 91140:1 101071:1 101080:1 101087:1 101098:1 101113:1 101117:1 101172:1 101229:1 101241:1 101258:1 101267:1 101277:1 
0.4804084592279875 0 0.1224838373828112 0.4794675110801306 1 0.008569102820226923 938:1 42090:1 67355:1 77710:1 101065:1 101119:1 101137:1 101139:1 101153:1 101174:1 101192:1 101194:1 101208:1 101234:1 
0.3781593758358738 0 0 1 1 0 79608:1 101071:1 101077:1 101093:1 101097:1 101109:1 101117:1 101172:1 101234:1 101247:1 
0.03848872875916694 0 0 1 0 0 77681:1 85411:1 101065:1 101080:1 101118:1 101128:1 101173:1 101183:1 101234:1 101245:1 
0.2526597111719192 0 0 0.001008251612921978 0.655121744193135 0 83123:1 89095:1 101062:1 101117:1 101172:1 101236:1 101245:1 101252:1 
0 0 0 0 1 0 99858:1 101117:1 101172:1 101228:1 101242:1 101257:1 101266:1 101274:1 
0.2495214263356519 0.4120739746199864 0.2636480781549529 0 0.067845217636363 0 23881:1 80204:1 84888:1 101082:1 101087:1 101104:1 101109:1 101126:1 101181:1 101230:1 101241:1 101255:1 101263:1 101280:1 
0 0 0 0 1 0 33977:1 59242:1 79590:1 101124:1 101135:1 101179:1 101190:1 101234:1 101247:1 101258:1 101263:1 
0 0 0 0.003216116716075551 0.4604772823818377 0 13496:1 40289:1 65554:1 86090:1 101069:1 101072:1 101091:1 101101:1 101125:1 101127:1 101146:1 101180:1 101182:1 101201:1 101234:1 101237:1 101252:1 
0 0 0 1 0 0 12074:1 15418:1 80358:1 101071:1 101077:1 101087:1 101102:1 101234:1 
0 0 0 0.2523148299167979 0.1166382079334409 0 14669:1 40110:1 50247:1 60322:1 70459:1 101062:1 101076:1 101091:1 101104:1 101115:1 101121:1 101135:1 101146:1 101159:1 101164:1 101179:1 101190:1 101203:1 101208:1 101225:1 
0 0.02672400295250256 0 0 0.1001951206561187 0 47338:1 72603:1 84059:1 101071:1 101118:1 101129:1 101146:1 101157:1 101164:1 101173:1 101184:1 101201:1 101212:1 101219:1 101234:1 101241:1 101252:1 101260:1 101278:1 
0 0 0 0.4471914566520855 0 0 85425:1 90333:1 91100:1 100625:1 101071:1 101117:1 101172:1 101233:1 101241:1 101256:1 101263:1 101274:1 
0.7035351348240675 0.05304219623120867 0 0.07057200613342553 0 0 32055:1 47015:1 57320:1 72280:1 101123:1 101131:1 101140:1 101151:1 101168:1 101178:1 101186:1 101195:1 101206:1 101223:1 
0.1506851659003551 0.3497209433938928 0.239085534850959 1 1 0 86272:1 101066:1 101081:1 101086:1 101098:1 101107:1 101117:1 101172:1 101230:1 101245:1 101252:1 101263:1 
0.2930158537775918 0.05171201234338995 0 0 1 0 8283:1 28089:1 53354:1 82906:1 101063:1 101080:1 101086:1 101098:1 101106:1 101124:1 101134:1 101179:1 101189:1 101236:1 101241:1 101258:1 
0 0 0 0 0.2528000996685525 0 36003:1 51162:1 74330:1 77201:1 86318:1 101117:1 101131:1 101146:1 101152:1 101166:1 101179:1 101185:1 101199:1 101214:1 101223:1 101230:1 101239:1 101256:1 
0 0 0 1 0 0.09797185629788079 33977:1 59242:1 101071:1 101073:1 101118:1 101135:1 101139:1 101173:1 101190:1 101194:1 101234:1 101241:1 101258:1 101269:1 101279:1 
0 0 0.05086475305534988 0 0.4045524208963459 0 27444:1 52709:1 77385:1 87154:1 93936:1 101120:1 101128:1 101175:1 101183:1 101234:1 101247:1 101252:1 101267:1 
0.5130070541176189 0 0.1431655446021922 0 0.5806034025706598 0 27444:1 32055:1 39383:1 52709:1 57320:1 64648:1 101120:1 101131:1 101146:1 101175:1 101186:1 101201:1 101247:1 101256:1 101262:1 101276:1 
0.04908630159465921 0.1175801010701427 0 0.1940204701549834 0.3486238236573218 0 9072:1 13672:1 81329:1 90355:1 97160:1 101069:1 101076:1 101091:1 101101:1 101117:1 101172:1 101236:1 101241:1 101252:1 101266:1 101274:1 
0.02617784816743976 0 0 0 0.6169576586525454 0 76766:1 83483:1 100925:1 101230:1 101245:1 101269:1 101278:1 
1 0 0 0 1 0 30507:1 55772:1 101124:1 101131:1 101179:1 101186:1 101230:1 
0 0 0 0.1014878689420286 0.268389582647835 0 29129:1 68632:1 78984:1 101124:1 101137:1 101140:1 101153:1 101164:1 101181:1 101203:1 101212:1 101216:1 101230:1 101237:1 
0 0.04803854011868167 0.01844614946056403 0 0 0 9447:1 35101:1 60366:1 101062:1 101080:1 101123:1 101131:1 101147:1 101157:1 101165:1 101178:1 101186:1 101202:1 101212:1 101220:1 101232:1 
0 0 0 0 0.6553104775698152 0 92641:1 101117:1 101172:1 101231:1 101240:1 101254:1 101267:1 101280:1 
0.1784000235938259 0.03865443137143762 0 0.3774680637285754 0.6721312962366249 0.006050666315871025 34772:1 35858:1 60037:1 61123:1 87962:1 91819:1 101071:1 101074:1 101089:1 101104:1 101124:1 101131:1 101146:1 101159:1 101179:1 101186:1 101201:1 101214:1 101228:1 101239:1 101256:1 101267:1 101280:1 
0 0.09594980669632025 0 0.5138398263160275 0.02792526871472539 0.02158286826465603 24338:1 26761:1 52026:1 82324:1 101071:1 101080:1 101090:1 101104:1 101109:1 101120:1 101175:1 101228:1 101245:1 101250:1 101261:1 101280:1 
1 0 0 0 1 0.2398809590375008 86048:1 101118:1 101130:1 101144:1 101154:1 101173:1 101185:1 101199:1 101209:1 101230:1 101247:1 101252:1 101259:1 101274:1 
0 0 0 0 1 0 101117:1 101172:1 101229:1 101243:1 101256:1 101263:1 101270:1 
0 0.7047712855903677 0 0 1 0 79345:1 101126:1 101181:1 101234:1 101258:1 101267:1 101273:1 
0 0.003877015058770077 0 0 0 0 13239:1 39948:1 40613:1 49209:1 55107:1 55772:1 64368:1 71653:1 101063:1 101080:1 101091:1 101101:1 101107:1 101123:1 101137:1 101142:1 101153:1 101164:1 101175:1 101186:1 101197:1 101214:1 101219:1 
0.1061938751334964 0 0.007501914525027159 0.4189253781761773 0 0 31875:1 36003:1 52087:1 56215:1 77874:1 85176:1 101064:1 101078:1 101117:1 101131:1 101146:1 101152:1 101166:1 101175:1 101190:1 101196:1 101210:1 101222:1 101230:1 101245:1 
1 0.005017527646159267 0 0 0 0 34187:1 59452:1 101062:1 101123:1 101131:1 101140:1 101157:1 101178:1 101186:1 101195:1 101212:1 
0 0 0 0 0.9419980301178212 0 79608:1 89496:1 94184:1 101066:1 101117:1 101172:1 101234:1 101244:1 101252:1 101267:1 101280:1 
0 0.03860424253806821 0 0 1 0 30035:1 55300:1 81782:1 101120:1 101175:1 101236:1 101245:1 101248:1 101263:1 
0 0 0 0 0.09435923213807113 0 13860:1 17967:1 76313:1 85257:1 87178:1 101062:1 101082:1 101087:1 101102:1 101112:1 101117:1 101172:1 101234:1 101241:1 101256:1 
0 0.01809820560558866 0 0 0 0 43555:1 68820:1 100380:1 101062:1 101118:1 101129:1 101138:1 101157:1 101173:1 101184:1 101193:1 101212:1 101233:1 101241:1 101256:1 101268:1 101278:1 
0 0 0 0 0.0456675685817257 0 41042:1 56201:1 70931:1 78236:1 85421:1 101121:1 101135:1 101140:1 101157:1 101173:1 101190:1 101214:1 101219:1 101234:1 101241:1 101258:1 101263:1 101280:1 
0.02097473531167645 0 0.009205307574999447 0.0997370061650594 0 0 39390:1 40848:1 54549:1 56007:1 76276:1 85397:1 101071:1 101075:1 101087:1 101118:1 101132:1 101142:1 101157:1 101168:1 101175:1 101190:1 101201:1 101210:1 101216:1 101230:1 101241:1 
0 1 0 1 1 0.0853769795538635 91325:1 101126:1 101181:1 101233:1 101243:1 101258:1 101263:1 101272:1 
0.07232001347435825 0.2069976510123906 0.04778591500482916 0 0.06584439434295576 0 83835:1 90831:1 93283:1 101126:1 101181:1 101231:1 101245:1 101252:1 101263:1 
0 0 0 0.1545622538760285 0.1909566113024452 0 1410:1 76240:1 86047:1 96920:1 101069:1 101117:1 101172:1 101230:1 101244:1 101252:1 101261:1 101278:1 
0 0 0 0.1325239872611909 0 0 9447:1 45666:1 70931:1 79367:1 101071:1 101080:1 101125:1 101132:1 101147:1 101150:1 101164:1 101180:1 101187:1 101202:1 101205:1 101219:1 101230:1 
0 0.07022255312030316 0 1 0.9945849426036011 0.1218084644123501 30183:1 41962:1 55448:1 67227:1 101124:1 101137:1 101140:1 101157:1 101170:1 101179:1 101192:1 101195:1 101212:1 101225:1 
0 0.1854245488711112 0 0 1 0 35560:1 60825:1 79185:1 88780:1 101126:1 101134:1 101142:1 101181:1 101189:1 101197:1 101234:1 101239:1 101252:1 
0.6288639657005733 0 0 1 0.8895938673916176 0.0813348881131005 79608:1 101064:1 101078:1 101090:1 101126:1 101137:1 101139:1 101152:1 101166:1 101181:1 101192:1 101194:1 101207:1 101221:1 101234:1 
0 0 0 0 0.1766969532164058 0 34596:1 38767:1 54808:1 58979:1 70931:1 101124:1 101135:1 101146:1 101170:1 101179:1 101190:1 101214:1 101219:1 101228:1 101237:1 
0 0 0 0 0 0.00482503671786311 29296:1 34727:1 54561:1 59992:1 81082:1 101124:1 101131:1 101148:1 101154:1 101179:1 101186:1 101203:1 101209:1 101230:1 101245:1 
0.7375908281846286 0 0.04164565274767933 0 0.003168524392875136 0 34187:1 59452:1 82542:1 101123:1 101131:1 101143:1 101178:1 101186:1 101198:1 101234:1 101241:1 
0.1799915517023557 0.3515243075016803 0.1817202817677622 0.4729151004043379 0.5856550495121666 0.08514157921884785 4409:1 19047:1 94472:1 100503:1 101065:1 101079:1 101093:1 101098:1 101115:1 101117:1 101137:1 101142:1 101159:1 101172:1 101192:1 101197:1 101214:1 101236:1 101239:1 101248:1 101267:1 101278:1 
0.2401706651847801 0.04965624012849924 0 0.4935583825893216 0 0 34169:1 36120:1 51279:1 70266:1 70931:1 77111:1 101071:1 101075:1 101089:1 101097:1 101111:1 101121:1 101131:1 101142:1 101157:1 101168:1 101175:1 101190:1 101201:1 101208:1 101219:1 101230:1 
0.1540891655032236 0 0.007301577453369217 0 0 0.1799469663014675 94767:1 101120:1 101175:1 101236:1 101242:1 101252:1 101267:1 
0 0 0 0.1596934810806587 0.5316125004714903 0 34820:1 36047:1 56733:1 72280:1 101121:1 101135:1 101146:1 101155:1 101162:1 101171:1 101190:1 101201:1 101213:1 101223:1 
0.01837513072451851 0 0 0.2211032104723469 0.2939984264269361 0 2472:1 8274:1 85357:1 88707:1 101069:1 101080:1 101117:1 101172:1 101228:1 101241:1 101256:1 
0 0 0 0 1 0 19348:1 24832:1 30507:1 55772:1 81509:1 87452:1 101071:1 101080:1 101091:1 101098:1 101109:1 101117:1 101131:1 101172:1 101186:1 101228:1 101241:1 101252:1 
0.1260819958869592 0 0 0.1626358058719333 0.6171561776290653 0 29249:1 34811:1 44083:1 54514:1 60076:1 69348:1 84643:1 101071:1 101124:1 101135:1 101144:1 101157:1 101179:1 101190:1 101199:1 101212:1 101228:1 101245:1 
0.178265653854522 0.09643459642190831 0.2158453083623232 0.6812305575578315 1 0 90747:1 99525:1 101065:1 101082:1 101087:1 101098:1 101115:1 101229:1 101241:1 101252:1 101263:1 101278:1 
0 0 0 0.03491105916359497 0.2552323181711226 0 78395:1 101066:1 101117:1 101172:1 101230:1 
0 0 0 1 1 0 79345:1 93778:1 101065:1 101234:1 101240:1 101254:1 101267:1 
0.323903093485467 0 0 0 0 0 34539:1 59804:1 79454:1 81037:1 101120:1 101135:1 101159:1 101175:1 101190:1 101214:1 101234:1 101241:1 101256:1 
0 0 0 0 1 0 82652:1 96065:1 101117:1 101172:1 101228:1 101245:1 101249:1 101263:1 101274:1 
0 0.003876585813025044 0 0 0 0.004049496148311444 1261:1 38733:1 43495:1 53892:1 58654:1 75962:1 101069:1 101082:1 101126:1 101135:1 101146:1 101157:1 101164:1 101179:1 101190:1 101197:1 101209:1 101220:1 101230:1 
0.6126890224622237 0.04726089599791963 0.06901695283249808 0 0.9636167231278493 0 70284:1 75761:1 79337:1 80995:1 101119:1 101133:1 101141:1 101153:1 101165:1 101174:1 101186:1 101198:1 101208:1 101219:1 101230:1 101241:1 
0 0 0 0 0.592472336361326 0 28283:1 53548:1 85257:1 101066:1 101124:1 101128:1 101179:1 101183:1 101233:1 101241:1 101258:1 
1 0 0 0 1 0 101117:1 101172:1 101233:1 101247:1 101254:1 101267:1 101278:1 
0 0.04821910111141611 0.06325431714365207 0 0.2057766145052374 0 15629:1 29842:1 30507:1 38972:1 55107:1 55772:1 64237:1 101071:1 101093:1 101098:1 101120:1 101131:1 101142:1 101175:1 101186:1 101197:1 
0 0 0 0.03332991870480343 0.8744347365819191 0 76890:1 86045:1 94121:1 96419:1 101117:1 101172:1 101234:1 101237:1 101252:1 101267:1 101274:1 
0.1524749406162528 0 0.07627429682288629 0.2951752063198253 0.1820397094255015 0.04365452104233599 35637:1 44384:1 48464:1 53517:1 63609:1 73892:1 101071:1 101118:1 101132:1 101142:1 101153:1 101168:1 101179:1 101185:1 101197:1 101214:1 101219:1 101229:1 101243:1 
0 0 0 1 0 0 78267:1 101071:1 101117:1 101172:1 101234:1 101247:1 
0 0 0 0 1 0 91802:1 101117:1 101172:1 101231:1 101240:1 101254:1 101267:1 101280:1 
0.08587322622743998 0 0 0.0828316078732729 0.5814266199341612 0.09567792105220835 39640:1 67430:1 77395:1 101118:1 101127:1 101146:1 101157:1 101168:1 101179:1 101190:1 101201:1 101208:1 101222:1 101234:1 
0.2116113406456664 0 0 0 0.8035476322562126 0 76061:1 90911:1 101230:1 101243:1 101252:1 101280:1 
0.1065202682488799 0.09911675404653371 0 0 0.4138903334523479 0 1257:1 76544:1 82673:1 89162:1 101069:1 101077:1 101117:1 101172:1 101230:1 101241:1 101256:1 101266:1 101274:1 
0.2455170066976862 0.04938968548723773 0.008277758899114742 0.1140199953500883 0 0 7861:1 28202:1 33829:1 54041:1 81241:1 100416:1 101063:1 101080:1 101124:1 101131:1 101148:1 101153:1 101164:1 101175:1 101192:1 101197:1 101208:1 101225:1 101227:1 101241:1 101252:1 101266:1 101274:1 
0 0 0 0 1 0 49027:1 69878:1 71135:1 101119:1 101131:1 101146:1 101150:1 101168:1 101174:1 101188:1 101200:1 101208:1 101219:1 101236:1 101241:1 
0.1925286829827923 0 0 0 0.1231202399804281 0.008148863295512822 27375:1 41105:1 52640:1 66370:1 85178:1 101124:1 101135:1 101142:1 101157:1 101170:1 101179:1 101190:1 101197:1 101212:1 101225:1 101226:1 101245:1 101256:1 101268:1 101278:1 
0.208277426693617 0 0.1900281116590034 0.9873319514502671 0.7980025278691372 0.2052828271858745 3348:1 20401:1 27252:1 52517:1 101065:1 101076:1 101104:1 101109:1 101124:1 101179:1 101233:1 101240:1 101251:1 101265:1 
0 0 0 0 0.9889823248881964 0 25609:1 38211:1 75983:1 84037:1 101124:1 101129:1 101146:1 101170:1 101192:1 101201:1 101209:1 101216:1 101234:1 101241:1 101258:1 101263:1 101280:1 
0.7281676148188672 0 0 0 0.003661097349225709 0.00578521663253885 35900:1 101116:1 101131:1 101146:1 101154:1 101168:1 101176:1 101190:1 101214:1 101219:1 101234:1 101241:1 
0 0 0 0 0.2741163904191413 0 4189:1 6887:1 82927:1 101065:1 101076:1 101118:1 101132:1 101146:1 101150:1 101173:1 101187:1 101201:1 101205:1 101234:1 101241:1 
0 0 0 0 0.2352986325501864 0 23718:1 32179:1 57444:1 87774:1 101062:1 101076:1 101083:1 101101:1 101109:1 101117:1 101131:1 101172:1 101186:1 101228:1 101241:1 101256:1 
0.626446445864513 0.06043323970029692 0 1 1 0 94613:1 101065:1 101080:1 101117:1 101172:1 101230:1 101258:1 101267:1 101278:1 
0 0 0 0 0.9721204399450741 0 31067:1 37648:1 47338:1 56332:1 62913:1 72603:1 77878:1 85500:1 101121:1 101131:1 101142:1 101154:1 101164:1 101176:1 101186:1 101197:1 101209:1 101219:1 101234:1 101241:1 
0.1901515776328238 0 0.05390900735268608 0 0.3917378413269563 0.03612296576163398 38334:1 63599:1 88280:1 101124:1 101137:1 101142:1 101179:1 101192:1 101197:1 101247:1 101252:1 101259:1 101270:1 
0.5013888734602333 0.3671742261859215 0.1464744544458409 0.5789469530051128 0.3982454043983841 0.09155307868199829 15244:1 43930:1 69195:1 82709:1 101061:1 101076:1 101091:1 101098:1 101115:1 101126:1 101131:1 101145:1 101153:1 101181:1 101186:1 101200:1 101208:1 101233:1 101241:1 101258:1 
1 0 0 0 0 0 29134:1 54399:1 87762:1 101120:1 101129:1 101146:1 101175:1 101184:1 101201:1 101247:1 101252:1 101259:1 101274:1 
0.1632218122106441 0 0 0 0.1524754392183616 0.009485491635857364 28251:1 37970:1 53516:1 63235:1 81037:1 94991:1 101120:1 101137:1 101146:1 101170:1 101175:1 101192:1 101201:1 101225:1 101234:1 101241:1 101258:1 101263:1 101280:1 
0.04905314017701738 0 0 0 0.09780686205981068 0.02585583392925448 29767:1 30438:1 36537:1 55032:1 55703:1 61802:1 86945:1 101124:1 101135:1 101146:1 101150:1 101179:1 101190:1 101201:1 101205:1 101229:1 101241:1 101256:1 
0.2543500172303078 0 0 1 1 0 87883:1 101070:1 101077:1 101117:1 101172:1 101228:1 101245:1 101252:1 
0.2857022298908184 0.03492731622477958 0 0 1 0.08832404383602828 34431:1 35764:1 101117:1 101131:1 101142:1 101153:1 101162:1 101175:1 101184:1 101200:1 101214:1 101215:1 101236:1 101242:1 101258:1 101266:1 
0 0 0 0.009022380650819119 0.2830874521088914 0 19568:1 44613:1 45870:1 69878:1 71135:1 98515:1 101069:1 101082:1 101083:1 101098:1 101112:1 101137:1 101139:1 101153:1 101164:1 101192:1 101194:1 101208:1 101219:1 101247:1 101250:1 101267:1 101278:1 
0.08187251716704944 0 0 0 0.2733145472451428 0 27397:1 32055:1 38800:1 53959:1 67966:1 76313:1 101124:1 101131:1 101146:1 101170:1 101179:1 101203:1 101208:1 101216:1 101234:1 
0.5450854992400899 0.5379804539984139 0.1750004173987617 1 1 0 99439:1 101065:1 101080:1 101117:1 101172:1 101236:1 101241:1 101269:1 101274:1 
0 0 0 0 0.257168683895338 0 35885:1 46136:1 51044:1 61295:1 79590:1 101121:1 101135:1 101142:1 101157:1 101164:1 101175:1 101190:1 101197:1 101225:1 101234:1 101237:1 
0 0 0 0.05152504097953374 0 0 49375:1 74640:1 101064:1 101078:1 101090:1 101117:1 101130:1 101144:1 101156:1 101164:1 101172:1 101185:1 101199:1 101211:1 101219:1 
