svm_type c_svc
kernel_type linear
nr_class 7
total_sv 18455
rho -1.16877 -0.887836 -1.11037 -1.1595 0.145783 -1.44505 0.668671 -0.214131 -0.508343 1.19074 -1.10783 -0.931311 -0.705979 1.01522 -1.17499 -0.561042 1.24489 -1.46323 1.4706 0.304699 -1.55468
label 4 2 5 3 7 1 6
probA -2.10281 -1.82793 -2.50096 -1.76601 -1.13429 -3.06564 -2.07923 -2.24126 -2.03535 -1.98177 -2.74772 -2.22976 -1.66435 -1.7295 -2.8646 -2.41138 -2.49497 -2.56862 -1.74898 -2.61105 -2.90738
probB 0.125203 -0.115499 0.155442 -0.163431 0.0084435 0.280012 -0.154671 -0.042212 -0.104079 0.0131718 0.0868411 0.334651 0.183015 0.24018 0.228158 -0.0565584 -0.144994 0.163851 0.171 -0.195723 0.131921
nr_sv 4106 2708 1835 1524 3545 4161 576
SV
0.06752791601141543 0.1432442237982965 0 0 1 0 30543:1 40499:1 40509:1 
0 0 0 0.2012239823997964 0.1267338470625334 0 14320:1 17219:1 26803:1 40426:1 40455:1 40462:1 40471:1 40488:1 
1 0 1 0 1 0 40452:1 40474:1 40495:1 40502:1 
0 1 1 1 1 0 40428:1 40442:1 40457:1 40479:1 40494:1 40512:1 
0 0.2445737868329051 0.3218611917703145 0.9119664765406781 0.1899336810918231 0.1792418848344555 2600:1 8785:1 39973:1 40429:1 40440:1 40448:1 40470:1 40498:1 40510:1 
0 0.06560650105730798 0 0.4913432342246695 0.3614772396778121 0 8974:1 30939:1 36347:1 40427:1 40440:1 40499:1 40506:1 
0.08820856406489772 1 0.5312208950051234 1 1 0 38658:1 40427:1 40443:1 40457:1 40479:1 40501:1 40506:1 
1 1 1 1 1 0 35742:1 40433:1 40437:1 40457:1 40479:1 40498:1 40506:1 
1 0 0 1 1 0 40431:1 40443:1 40447:1 40462:1 40472:1 40486:1 40498:1 40512:1 
0 1 0 0 1 0 40457:1 40466:1 40477:1 40481:1 40493:1 40510:1 
0 0 0 0 0.3032418226843187 0 30569:1 40448:1 40470:1 40499:1 40512:1 
0.6771964793734191 0 0 0 0.1728651185047966 0 35934:1 40449:1 40463:1 40471:1 40485:1 40498:1 40506:1 
0 0 0 1 0 0 34881:1 40428:1 40440:1 40448:1 40470:1 40499:1 
1 0.3829571312207623 1 1 0.3936113100406524 0.6002259896504657 31164:1 40429:1 40452:1 40466:1 40490:1 40495:1 40510:1 
0.5056329495589962 0 0 0 1 0 30799:1 35637:1 40495:1 40506:1 
0 0 0 0 1 0 15348:1 25454:1 40426:1 40448:1 40462:1 40470:1 40484:1 40498:1 40512:1 
0 0.02748855972068982 0 0 0.4936004936375068 0 33335:1 35446:1 40426:1 40448:1 40470:1 40495:1 40510:1 
0 1 0 0 1 0 40448:1 40470:1 40494:1 40506:1 
0.1214682385973537 0.02065228267801651 0.2258027125262448 0 0.09439394754017814 0.03143003312583924 11272:1 27301:1 40455:1 40466:1 40479:1 40484:1 40499:1 40510:1 
0.06956046939334957 0.1775369913091373 0.3971867436277718 0 1 0 236:1 18358:1 28464:1 31526:1 37821:1 40429:1 40448:1 40462:1 40470:1 40484:1 40495:1 40510:1 
0 0 0 0.2253620245214101 0 0 19926:1 30032:1 40429:1 40446:1 40457:1 40462:1 40479:1 40484:1 40491:1 40506:1 
0 0 0 0.1796331344362485 0 0 13336:1 19736:1 24789:1 37767:1 40427:1 40437:1 40455:1 40462:1 40473:1 40487:1 40499:1 40506:1 
1 0 0 0 1 0 40452:1 40466:1 40474:1 40488:1 40495:1 40512:1 
0 0 0 0 1 0 1153:1 39780:1 40429:1 40446:1 40499:1 40506:1 
0 0 0 0.9786566334486654 0.4493860807168621 0 31687:1 39019:1 40433:1 40444:1 40448:1 40470:1 40495:1 40510:1 
0.5253533455590572 0.1495339558454038 0.2005990557897061 0.05560694278206624 0.578732438378754 0.03391745883872232 15250:1 27538:1 37736:1 40454:1 40462:1 40471:1 40488:1 40501:1 40506:1 
0 0 0 0 0 0.2343811948470624 8040:1 33979:1 40429:1 40444:1 40495:1 40503:1 
0 0 0 0.7036391080993695 0.7809873126207958 0 34881:1 36627:1 40429:1 40444:1 40448:1 40470:1 40499:1 40506:1 
1 1 1 1 1 0 40435:1 40455:1 40477:1 40493:1 40510:1 
0 0 0 0 1 0 16477:1 21530:1 27126:1 40426:1 40454:1 40462:1 40473:1 40484:1 40491:1 40502:1 
0.306124448268574 1 0.4103118522880286 0.1211028705157362 0.6811314276757934 0.1716768970375832 26526:1 40457:1 40466:1 40479:1 40488:1 40499:1 40511:1 
0.821127189947214 0 0 0.01649001675269491 1 0 34192:1 40499:1 40512:1 
1 0 0 0 0 0 16621:1 24243:1 34895:1 40455:1 40462:1 40477:1 40481:1 40495:1 
0.1180242052332745 0 0 0 0.7257258231771267 0 20275:1 34113:1 40455:1 40461:1 40473:1 40485:1 40499:1 
0 0 0 0 1 0 33142:1 40411:1 40426:1 40448:1 40470:1 40499:1 40510:1 
0 0 0 1 0 0 34727:1 40428:1 40446:1 40495:1 40507:1 
0.3395818321971953 0 0 0.06606929669798807 0.6568369714885178 0 14993:1 25099:1 34243:1 40455:1 40468:1 40477:1 40490:1 40499:1 40511:1 
0 0 0 0 1 0 31067:1 35715:1 40495:1 40510:1 
0 0 0 1 1 0 39780:1 40432:1 40446:1 40448:1 40470:1 40498:1 40506:1 
1 1 1 0 1 0 40457:1 40479:1 
0 0 0 0 1 0 31780:1 40495:1 40504:1 
1 0 0.8150595798703383 1 1 0 13975:1 20359:1 36961:1 40435:1 40441:1 40451:1 40460:1 40473:1 40481:1 40498:1 40510:1 
1 0 0 0.9143211482483635 1 0 32350:1 40448:1 40470:1 40499:1 40510:1 
0 0.1955507793782784 0.005209707715172382 0 1 0 6918:1 30836:1 37906:1 40429:1 40440:1 40499:1 40506:1 
0 0 0 0 1 0 34113:1 40429:1 40444:1 40452:1 40462:1 40479:1 40485:1 40499:1 
0 0.5553454111645648 0 0 0.8046621705124022 0 31219:1 35852:1 40495:1 40506:1 
0.5606265960851755 0.008324412125198971 0.9296667221179866 0.211620389415712 0.3492227765548135 0 10767:1 16851:1 21904:1 26340:1 35538:1 40433:1 40451:1 40462:1 40473:1 40488:1 40491:1 40506:1 
0 0.2819172485269075 0 0.1782919689589929 0 0 21860:1 40457:1 40468:1 40477:1 40488:1 40495:1 
1 0 0 1 1 0.1708014072402345 39886:1 40455:1 40463:1 40477:1 40485:1 40498:1 40510:1 
0 0 0 0 1 0 289:1 6549:1 13336:1 33142:1 40433:1 40440:1 40455:1 40460:1 40471:1 40481:1 40499:1 40509:1 
1 0.389796421228308 0.6616949116028558 1 1 0.2690044270639561 28257:1 40425:1 40443:1 40448:1 40463:1 40472:1 40484:1 40494:1 40506:1 
0.005026468734539002 0 0 0 0 0 3237:1 14110:1 19892:1 30039:1 34040:1 40429:1 40451:1 40462:1 40470:1 40484:1 40495:1 
0.03653880317002349 0.2128294998830501 0.1301823058530718 0.595117062567997 1 0 2262:1 37875:1 40429:1 40443:1 40448:1 40470:1 40501:1 40506:1 
0 0 0 0 1 0 34040:1 40495:1 40507:1 
0 0.192354478367686 0.1890833255956582 0.1475482100248906 1 0 29595:1 40457:1 40458:1 40469:1 40488:1 40512:1 
0.1120237704597219 0 0 0 0.6655727980213624 0 13970:1 24076:1 40455:1 40459:1 40477:1 40481:1 40493:1 40506:1 
0 0 0 0 1 0 34704:1 40448:1 40470:1 40499:1 40507:1 
0 0 0 0 0.5989762741522535 0 17020:1 22073:1 25275:1 40454:1 40462:1 40473:1 40488:1 
0.2087362475856621 0 0 0.1265443881098684 1 0 10724:1 20830:1 40434:1 40446:1 40455:1 40468:1 40477:1 40490:1 40496:1 40512:1 
0 1 1 1 1 0 40435:1 40446:1 40493:1 40504:1 
1 0.2056752880674796 1 0 1 0.01701043893671304 18974:1 40449:1 40466:1 40479:1 40481:1 40493:1 40510:1 
1 0 0 0 1 0 31792:1 40455:1 40459:1 40477:1 40481:1 40499:1 40510:1 
0 0 0 0 0.02170822543986091 0 33166:1 38584:1 40451:1 40473:1 40495:1 40510:1 
0.2796818398177403 0 0 1 0.3857534165610889 0 20133:1 30931:1 40428:1 40446:1 40452:1 40462:1 40473:1 40485:1 40499:1 40505:1 
0 0 0 0 0.3489669819755288 0 17020:1 27126:1 34959:1 38659:1 40448:1 40462:1 40470:1 40484:1 40495:1 40506:1 
0 0 0 0 1 0 14320:1 24426:1 38195:1 40455:1 40477:1 40499:1 40510:1 
0 1 1 1 1 0 40429:1 40444:1 40448:1 40470:1 
0 0.2974733315242973 0 0.9454724120454049 1 0.2680466589873302 3595:1 33517:1 40429:1 40446:1 40449:1 40459:1 40471:1 40481:1 40495:1 40506:1 
1 1 1 1 1 0 40457:1 40479:1 40501:1 40506:1 
0.2173561981106884 0.08795962968158527 0 0.0009385918656305447 0 0 16392:1 21445:1 26497:1 40449:1 40466:1 40477:1 40488:1 
1 0 0 1 0.2052965823422777 0.02338433578274179 19847:1 29953:1 33515:1 40428:1 40440:1 40449:1 40466:1 40471:1 40488:1 40499:1 40509:1 
1 1 1 0 1 0 40499:1 40506:1 
0 0.1298726526191849 0 0 0 0 27825:1 34970:1 40452:1 40468:1 40479:1 40488:1 40495:1 
0.1290501661580987 0 0 0.3288857941687657 0.4847974163092265 0 31473:1 39822:1 40455:1 40459:1 40477:1 40481:1 40499:1 40510:1 
1 1 1 0 1 1 40455:1 40462:1 40476:1 40481:1 40496:1 40506:1 
0 0 0 1 0 0 5079:1 40427:1 40444:1 40448:1 40470:1 40496:1 40510:1 
0 0 0 0 0.6888198831874877 0 30944:1 40495:1 40502:1 
1 0 1 1 1 1 15533:1 25639:1 40426:1 40456:1 40466:1 40478:1 40488:1 40499:1 40504:1 
0 0 0 0 1 0 3230:1 39780:1 40433:1 40443:1 40448:1 40470:1 40498:1 40506:1 
1 1 0 1 1 0 40468:1 40490:1 40512:1 
1 0 0 0 1 0 40455:1 40459:1 40477:1 40481:1 40491:1 40510:1 
0.1205782351486056 1 0.3551754243918679 0 0.3992708822937723 1 25636:1 40448:1 40468:1 40479:1 40484:1 40496:1 40510:1 
1 1 0 1 0.647092877149971 0.04805916740446876 29296:1 40457:1 40463:1 40477:1 40488:1 40498:1 40506:1 
0.8163103717284473 0 0 0.2251828464512431 1 0 23840:1 40455:1 40460:1 40477:1 40488:1 40500:1 40509:1 
1 0.8779548114687683 0 1 1 0.7873307522108073 18290:1 26000:1 40449:1 40466:1 40471:1 40488:1 
0 0 0 0 1 0 40426:1 40447:1 40465:1 40469:1 40487:1 40494:1 40508:1 
0.1994214171223303 0 0.4028423896221972 0 0 0 606:1 19568:1 39240:1 40429:1 40436:1 40454:1 40462:1 40477:1 40485:1 40498:1 40506:1 
0 0 0 0.9045770147371586 0.3196939860463517 0 1596:1 7529:1 40433:1 40444:1 40448:1 40470:1 
0 0 0 0 1 0 36032:1 40448:1 40470:1 40493:1 40506:1 
0.06104380554343153 0.02342955605766495 0 0 0.4878666286725923 0 32158:1 37551:1 40430:1 40448:1 40470:1 40499:1 40506:1 
0.07528315327199504 0.08158719175280692 0.009684802364089277 0.6575515820957835 0.7371694208559113 0 17380:1 22433:1 37812:1 40427:1 40446:1 40452:1 40462:1 40473:1 40481:1 40498:1 40510:1 
0 0 0 0 0 0.1951694299919014 29767:1 34113:1 40426:1 40449:1 40460:1 40471:1 40488:1 40499:1 40503:1 
0.3354603794454785 0 0 1 0.5175727752061905 0 32488:1 40435:1 40444:1 40452:1 40474:1 40495:1 
0.008718323477556605 0 0 0.8748613667298469 0 0 9678:1 37906:1 40428:1 40444:1 40448:1 40470:1 40501:1 40506:1 
0.448481247837167 0 0 1 0.3061683620147325 0 24396:1 33996:1 40435:1 40443:1 40451:1 40468:1 40477:1 40488:1 40499:1 
0 0 0 1 0 0 34895:1 40431:1 40443:1 40448:1 40470:1 40495:1 40510:1 
0 0 0 0 1 0 35429:1 40433:1 40448:1 40470:1 40501:1 40506:1 
1 1 1 1 1 0.4764394957234117 40429:1 40438:1 40448:1 40470:1 40495:1 40510:1 
0 0 0 0 1 0 40448:1 40470:1 40491:1 40510:1 
0 0 0 0 0.2190465567427118 0 22287:1 40449:1 40463:1 40473:1 40484:1 40501:1 40505:1 
0.9848654821566736 0 0 1 1 0 40427:1 40441:1 40499:1 40512:1 
0.5723484036611879 1 0.9569555315025751 1 1 0.01222836403817771 9237:1 37786:1 40427:1 40444:1 40457:1 40479:1 40498:1 40510:1 
0 0.2027304501491523 0 0 1 0 17436:1 25130:1 40457:1 40462:1 40477:1 40481:1 40495:1 40510:1 
0 0 0 0.9613760338185409 0.5981415464279713 0 3167:1 8681:1 40433:1 40444:1 40448:1 40470:1 40493:1 40507:1 
1 0 0 0 0.07957128324866579 0.1642051211506656 22925:1 40448:1 40468:1 40473:1 40490:1 40496:1 40504:1 
0 0 0 0 1 0 34131:1 40448:1 40470:1 40499:1 40509:1 
0.7776950224933212 0 0.1814512832538769 0 1 0.1939128765900682 17663:1 20586:1 40449:1 40462:1 40477:1 40481:1 40499:1 40512:1 
1 0 0.4894355593400331 0 0.1827288285137466 0 5878:1 11512:1 21618:1 34187:1 40433:1 40440:1 40451:1 40468:1 40473:1 40490:1 40495:1 40507:1 
0.6927785832998133 0 0 0 0.01763378734140436 0 20501:1 36154:1 40449:1 40465:1 40477:1 40481:1 40492:1 40506:1 
0 0 0 0 0.2089545291329074 0 14113:1 15304:1 20223:1 25454:1 34649:1 40455:1 40466:1 40477:1 40484:1 40495:1 40512:1 
1 0.1320199745427184 0.8390185457767896 0 0.2128646113204243 0 11391:1 21497:1 34616:1 40451:1 40473:1 40495:1 
0 0 0 0 1 0 39826:1 40499:1 40506:1 
1 0 0.4009597680562336 1 1 0.1072837893467785 40493:1 40503:1 
0.4492066764374846 0.3078572929816756 0.2821650192554743 0 0.9971272735777221 0 11823:1 26538:1 35823:1 40451:1 40466:1 40479:1 40488:1 40499:1 40506:1 
1 1 1 0 1 0 40457:1 40479:1 40501:1 40510:1 
0 0 0 0 1 0 40448:1 40470:1 40494:1 40512:1 
0 0 0 0 1 0 40448:1 40470:1 40493:1 40507:1 
0.8520784090953685 0.3259299956290754 0.09263395549779749 0 1 0 10604:1 31044:1 40455:1 40466:1 40477:1 40481:1 40495:1 40504:1 
0 0 0.2259171512271697 0 0 0 38484:1 40449:1 40458:1 40473:1 40488:1 40499:1 40506:1 
0.8465219952732118 0.2721869987260256 0.4972152633346843 0 0.707783248934479 0.1512297889241663 12968:1 38657:1 40455:1 40468:1 40479:1 40484:1 40493:1 40506:1 
0 0 0 0.2820436926138527 0.2219408694118634 0 6738:1 19840:1 22036:1 38211:1 40427:1 40444:1 40448:1 40462:1 40473:1 40484:1 40493:1 40510:1 
0 0 0 0 1 0.1645476066522404 4660:1 8252:1 40429:1 40440:1 40448:1 40470:1 40496:1 40511:1 
0 0 0 0 1 0 39166:1 40449:1 40463:1 40471:1 40485:1 40491:1 40510:1 
0.7641607705601779 0 0 0.3801206557967018 1 0 5788:1 27301:1 34806:1 40427:1 40444:1 40455:1 40459:1 40476:1 40484:1 40499:1 
0.2743223492626755 0.1830545497581436 0.4034100514040032 1 0.9795836364110744 0.1496619653506181 11442:1 40435:1 40455:1 40468:1 40479:1 40481:1 40496:1 40506:1 
0 0 0 0 1 0 4269:1 36032:1 40433:1 40444:1 40457:1 40479:1 40493:1 40506:1 
0.2174360750530877 0 0 0 0 0.02215596795647445 15114:1 32679:1 40451:1 40466:1 40471:1 40481:1 40499:1 
1 0 0.1838343001666761 0 0.4871955772791766 0.08266072565941045 33815:1 35560:1 40455:1 40459:1 40490:1 40499:1 40506:1 
1 1 1 1 1 0.02657534921374821 8252:1 40435:1 40440:1 40452:1 40458:1 40479:1 40490:1 40500:1 40510:1 
0.5136002335334657 0.01256046521949219 0.05349623483195846 0.2738705705771355 0.4339698214361996 0 14162:1 18267:1 24268:1 28373:1 40451:1 40466:1 40473:1 40488:1 40501:1 40510:1 
1 1 1 1 1 0.3525502728752878 40429:1 40446:1 40452:1 40474:1 40499:1 40505:1 
0.6006216223873624 0.1904440845628766 0.9018338300103338 0.5442828671130518 0.6473852108908085 0.02948460360968047 7539:1 13828:1 23934:1 40429:1 40440:1 40451:1 40465:1 40473:1 40487:1 
0.01450021555635801 0.3794755926499214 0 0.7690920541389423 0 0.07519111838650862 3170:1 7700:1 15530:1 25636:1 33180:1 40433:1 40440:1 40448:1 40462:1 40470:1 40484:1 40499:1 40509:1 
0.1630653420426704 0 0 0 1 0 14645:1 15445:1 24751:1 25551:1 40455:1 40466:1 40477:1 40488:1 
0.2844176335865188 0.2980337507987437 0.03173894523871314 0.353849326647552 0 0 18146:1 24350:1 31459:1 40399:1 40452:1 40466:1 40473:1 40490:1 40499:1 40506:1 
0 0 0 0 1 0 39184:1 40499:1 40510:1 
0.3202817609910266 0.04889218804939797 0.1950276893811589 0.6922147348209097 0.2968893053917187 0.03463050165027342 12329:1 22435:1 39071:1 40428:1 40440:1 40455:1 40477:1 40498:1 40506:1 
1 0 0 1 0.3427602383336288 0 10295:1 40446:1 40451:1 40468:1 40477:1 40487:1 
1 1 1 1 1 0 40457:1 40479:1 40492:1 40506:1 
0.2907055792789562 0.08213126765362914 0.07213608448678237 0 0.5704053117890822 0 15437:1 23230:1 37627:1 40454:1 40462:1 40477:1 40487:1 40501:1 40506:1 
1 0.228130427492183 0.619830460030966 0.5578051000538327 0.3585246941299468 0.1489277680759823 4392:1 36154:1 40429:1 40440:1 40452:1 40474:1 40492:1 40506:1 
0 0 1 0.893428725674883 1 0 10295:1 20401:1 40429:1 40437:1 40451:1 40473:1 40493:1 40510:1 
1 0 0 0.2416154174003988 1 0 32768:1 40448:1 40470:1 40499:1 40507:1 
0.2347558332576658 0.2738647960333117 0.1311004776592442 0 0.3426011993716197 0 16188:1 26294:1 31274:1 40457:1 40466:1 40479:1 40488:1 40495:1 40512:1 
0.2124057021975772 0 0.1802744311610023 1 0 0.1577094428577417 4577:1 5242:1 15533:1 26428:1 40429:1 40440:1 40449:1 40466:1 40479:1 40488:1 40498:1 40505:1 
1 1 0 0.2491426504587356 1 0 30485:1 40455:1 40462:1 40473:1 40485:1 40495:1 
0 0.9986689306616503 0.2704829160480674 1 1 0.01974286256991008 39184:1 40446:1 40457:1 40479:1 40496:1 40510:1 
0.07621317844741321 0.3094108558885836 0 0.3045002117173731 0.1416343409744484 0.2106058760329594 19190:1 24620:1 33095:1 40449:1 40466:1 40477:1 40488:1 40499:1 40511:1 
0.4147934533269441 1 0.6663771957243554 1 1 0.07065431243233468 36521:1 40430:1 40457:1 40479:1 40498:1 40510:1 
0 0 0 0.06075617980258777 0 0 11967:1 22073:1 38031:1 40435:1 40451:1 40473:1 40493:1 40510:1 
0 0 0 1 1 0 40435:1 40446:1 40447:1 40459:1 40469:1 40481:1 40499:1 40509:1 
0 0 0 0 1 0 38560:1 40448:1 40470:1 40498:1 40506:1 
1 0 0 0 1 0 35429:1 40452:1 40466:1 40473:1 40481:1 40498:1 40506:1 
0.971253406410544 1 0 0 0.2162410054964241 0 3131:1 40433:1 40455:1 40463:1 40473:1 40487:1 40501:1 
0 0 0 0 0.180994399536745 0 533:1 8040:1 40429:1 40444:1 40448:1 40470:1 40494:1 40506:1 
0 0 0 1 1 1 40435:1 40448:1 40470:1 40496:1 40511:1 
0 1 0 0 1 0 40501:1 40502:1 
0 1 1 1 1 0 40429:1 40446:1 40448:1 40470:1 40501:1 40506:1 
0 0 0 0 1 0 40448:1 40470:1 40496:1 40505:1 
0.1267244569683931 0 0 0 0.6352106909728172 0.001922224106139563 4660:1 8016:1 19049:1 24102:1 26382:1 35541:1 40429:1 40440:1 40448:1 40462:1 40473:1 40484:1 40496:1 40506:1 
0 0.723467866520586 0 0 0 0 18446:1 28552:1 40457:1 40462:1 40479:1 40484:1 40501:1 40506:1 
0 0 0 0 1 0 4166:1 9322:1 40429:1 40444:1 40448:1 40470:1 40493:1 40507:1 
0 0.03572335024023676 1 0 0.7442355256734411 0 4028:1 18446:1 28552:1 40429:1 40457:1 40462:1 40479:1 40484:1 40494:1 40508:1 
0.9489367869928174 0 0.3038059545630639 0 0.07296148966504039 0 19148:1 29254:1 38568:1 40450:1 40462:1 40472:1 40484:1 40501:1 40510:1 
0 1 1 1 1 0 40457:1 40466:1 40479:1 40488:1 40512:1 
0 0 0 0 1 0 13901:1 24007:1 40455:1 40477:1 40501:1 
0 0 0 0 1 0 40448:1 40470:1 40495:1 40512:1 
1 1 1 1 1 0 40431:1 40443:1 40455:1 40477:1 
0.5860706868152298 0.0814169899151013 0.3164028144965305 1 1 0 4033:1 40429:1 40446:1 40451:1 40466:1 40477:1 40487:1 
0.6836844278980364 0 0 0.5396469009486653 0 0.05806630617162305 1004:1 39030:1 40429:1 40452:1 40466:1 40490:1 40497:1 40510:1 
0 0 0 0 0.7442858145727796 0 15908:1 39780:1 40435:1 40446:1 40452:1 40462:1 40476:1 40481:1 40498:1 40506:1 
0.5600269002361601 0.1076974811846787 0.3342600310775365 0 0.4941604208739327 0 18575:1 22036:1 40448:1 40462:1 40473:1 40484:1 40498:1 40505:1 
0 0 0 0 1 0 34113:1 40455:1 40461:1 40475:1 40485:1 40499:1 
0.6878834386426778 0.6668199545191016 0 1 0.7514075239706314 0 14286:1 40431:1 40446:1 40455:1 40466:1 40477:1 40488:1 40501:1 40502:1 
0 0.6939898238912796 0 1 0 0 32733:1 40435:1 40441:1 40457:1 40479:1 40499:1 40509:1 
0 0 0 0 1 0 13765:1 33142:1 40455:1 40460:1 40471:1 40481:1 40499:1 40512:1 
0 0.06665183158982796 0.03917358149332557 1 1 0 38981:1 40435:1 40448:1 40470:1 40493:1 40506:1 
0 0 0 0 1 0 13901:1 24007:1 40455:1 40477:1 40494:1 40508:1 
0 0 0 0 0.0308354262872726 0 13531:1 15982:1 22584:1 25454:1 30979:1 38779:1 40451:1 40462:1 40477:1 40484:1 40495:1 40510:1 
0 0 0 0 1 0 40448:1 40470:1 40496:1 40510:1 
0.2522335697654396 0.209921970579102 0.1228389928847279 1 1 0 34949:1 40429:1 40444:1 40495:1 
0 0 0 0 0.9939075558283116 0.2727466860257114 38541:1 40448:1 40470:1 40493:1 40510:1 
0 0 0.04794050767746093 0 0 0 3230:1 23314:1 32158:1 37551:1 40433:1 40448:1 40461:1 40473:1 40484:1 40499:1 40506:1 
0.02004816165265757 1 0.07252108220362795 0.9590594904788595 0.1277706352448361 0 14736:1 19722:1 21609:1 40435:1 40437:1 40455:1 40466:1 40473:1 40487:1 40501:1 40512:1 
1 0 0.07948958746249457 0.5929798791676268 1 0 40455:1 40466:1 40477:1 40488:1 40498:1 40512:1 
0.5258847131622826 0 0 0 0.7946487048236762 0 19412:1 40452:1 40462:1 40475:1 40480:1 40494:1 40508:1 
1 0 0 1 1 0 412:1 5446:1 40429:1 40440:1 40457:1 40463:1 40477:1 40488:1 
0 0.138430308824467 0.1242797860964302 0.9837220829710907 0.93787347619452 0 7678:1 40429:1 40444:1 40448:1 40470:1 
0.907059183258021 0 0 0 1 0 37137:1 40430:1 40455:1 40477:1 40493:1 40506:1 
0 0 0 0 0.1056640506344666 0 38610:1 40452:1 40474:1 40498:1 40506:1 
1 0 1 0 1 0.6064129606738267 40455:1 40466:1 40472:1 40486:1 
0 0 0 0 1 0 34727:1 40495:1 40504:1 
0 0 1 0 1 0 40448:1 40470:1 40498:1 40505:1 
0.4483514523585734 0 0 0 0 0 39813:1 40448:1 40470:1 40492:1 40506:1 
0 0 0 0 1 0 40448:1 40470:1 40495:1 40512:1 
1 0.3408908556137746 0.810058551460302 0.291226347411455 1 1 13237:1 35817:1 40455:1 40466:1 40477:1 40481:1 40499:1 40506:1 
1 1 1 1 1 0 40457:1 40479:1 40494:1 40512:1 
1 1 1 0 1 0 40457:1 40479:1 40501:1 40507:1 
0.7130867865658549 0 0 0.9726987268543801 0 0 5427:1 34105:1 40427:1 40444:1 40452:1 40462:1 40472:1 40486:1 40495:1 40502:1 
1 0.6905996266973428 0.5875056817223173 0 1 0.3809831815798024 39064:1 40455:1 40462:1 40479:1 40485:1 40499:1 40506:1 
0 0 0 0 1 0 30563:1 40495:1 
0 0 0 0 1 0 40448:1 40470:1 40494:1 40508:1 
0.2003695773439838 1 0.04002194421254185 0 0.8663326558701424 0.06445388909725394 37899:1 40426:1 40452:1 40474:1 40501:1 40510:1 
0.152752818715472 0 0 0 1 0 40448:1 40470:1 40496:1 40504:1 
0.1832027586986923 0 0 0 0.03985301271621819 0 34956:1 40447:1 40463:1 40471:1 40488:1 40499:1 40509:1 
0 0 0 0 1 0 40448:1 40470:1 40496:1 40512:1 
0 0 0 1 0 0 33868:1 40431:1 40443:1 40457:1 40459:1 40475:1 40487:1 40499:1 
0 0 0 0 1 0 40448:1 40470:1 40491:1 40507:1 
0 0 1 1 1 0 40428:1 40440:1 40448:1 40470:1 40501:1 40510:1 
0 0 0 0 0 0.006278780239661995 27391:1 30799:1 36308:1 40452:1 40466:1 40479:1 40484:1 40495:1 40506:1 
0.6506427641358343 0.7048784701726899 0.2215445957617379 0.5041626409296923 1 0 14404:1 15556:1 40451:1 40462:1 40479:1 40488:1 40495:1 
0.141468131229854 0 0.2086540460607506 1 0.3447161857799547 0 32158:1 40428:1 40440:1 40448:1 40470:1 40499:1 40506:1 
0.6421587254896057 1 0 0 1 0 40448:1 40470:1 40494:1 40506:1 
0 0.0001110932445513358 0 0 0 0 16935:1 37716:1 40451:1 40466:1 40490:1 40491:1 40510:1 
0.04464657206646469 0 0.07519946619304875 0 1 0 38435:1 40448:1 40470:1 40495:1 40506:1 
0 0 0 0 0 0.3730217872256975 21314:1 30979:1 38921:1 40433:1 40455:1 40466:1 40473:1 40490:1 40495:1 40510:1 
0.6451902805816119 0.10259248314569 0.1895663895875229 0.2981223856359242 0.681360379791442 0.1219818881352911 18954:1 33903:1 40433:1 40451:1 40466:1 40490:1 40499:1 40510:1 
0 0 0 0 1 0 34113:1 40429:1 40446:1 40452:1 40474:1 40499:1 40509:1 
0.1287223177077455 1 1 0.2217978301771623 1 0 38601:1 40457:1 40479:1 40501:1 40510:1 
0 0 0 1 0 0 38708:1 40431:1 40443:1 40448:1 40458:1 40475:1 40487:1 40496:1 40510:1 
0 0 0 0 1 0 34131:1 40448:1 40470:1 40499:1 
0 0 0 0.2125586048700008 0 0 749:1 9322:1 39934:1 40429:1 40444:1 40493:1 40510:1 
1 1 1 1 1 0 40431:1 40443:1 40457:1 40462:1 40475:1 40487:1 40498:1 40506:1 
1 1 1 1 1 0 40457:1 40479:1 40494:1 40506:1 
0.03917339032061239 0.1695682967269485 0.1681257450184807 0 0.5603802978095022 0 15279:1 31097:1 37112:1 40426:1 40452:1 40466:1 40478:1 40481:1 40499:1 40506:1 
0.3856657401982513 0 0.2259817037405279 1 0.6325070369425506 0.4696606453304404 18146:1 20742:1 29287:1 40435:1 40446:1 40452:1 40466:1 40473:1 40488:1 
0.7592270784527464 0 0 0 1 0 39701:1 40450:1 40463:1 40479:1 40485:1 40491:1 40510:1 
1 1 1 0 1 0.1466392332184427 12285:1 40451:1 40466:1 40490:1 40496:1 40506:1 
0.9011761071133938 0 0 0 1 0 37020:1 40448:1 40470:1 40493:1 40510:1 
0 0 0 0 1 0 40457:1 40460:1 40477:1 40481:1 40491:1 40510:1 
0.7127793364588955 0.9615898591800642 0.1569784827331592 1 0.1974893572115169 0 4671:1 40429:1 40436:1 40449:1 40462:1 40479:1 40488:1 40498:1 40502:1 
0 0 0 0 1 0 40448:1 40470:1 40496:1 40512:1 
1 0 0.7077941539213216 0 1 0.1949566309255765 37353:1 40455:1 40466:1 40479:1 40488:1 40499:1 40506:1 
1 1 0 1 1 0 29190:1 37037:1 40435:1 40441:1 40457:1 40471:1 40488:1 40498:1 40506:1 
0 0 0 1 1 0 34648:1 40433:1 40446:1 40499:1 40512:1 
0.9480814213671466 0.5518886758879518 0.4202960935201941 1 1 0.1086769616773541 13372:1 32179:1 40427:1 40441:1 40455:1 40465:1 40476:1 40490:1 40495:1 40506:1 
0.7007861554010631 0.447199326649743 0.01699428093760228 0.8727751507097246 1 0 1153:1 37674:1 40429:1 40446:1 40499:1 40506:1 
0.8879151036675728 1 0.3080092030978332 1 1 0 3643:1 40433:1 40446:1 40457:1 40490:1 40499:1 40512:1 
0 0 0 0 0.2506594813194234 0 24871:1 27387:1 40427:1 40444:1 40447:1 40466:1 40473:1 40484:1 
0.5236799821424235 0 0 0 0.7286870919926284 0.2162661708610769 14137:1 24243:1 34772:1 40455:1 40459:1 40477:1 40481:1 40495:1 40510:1 
0.8357237146314458 0.5292366340081487 0.003693319863021971 1 1 0 7328:1 36833:1 40432:1 40444:1 40448:1 40470:1 40498:1 40506:1 
0 0.3405177669680943 0.4418781803979508 0 1 0 28202:1 40457:1 40463:1 40477:1 40488:1 40492:1 40506:1 
0.5507187964514731 0.07049103721052133 0.2985424898731117 0.5966273658874859 0.5408656912179254 0 3261:1 7181:1 27126:1 36740:1 40433:1 40440:1 40454:1 40458:1 40469:1 40484:1 40498:1 40506:1 
1 1 1 0 1 0 40499:1 40506:1 
0.2672769270311503 0 0.2867617707881075 0 0 0.3360328383025623 17462:1 29364:1 39934:1 40433:1 40449:1 40462:1 40479:1 40484:1 40492:1 40510:1 
0 0 0 0 1 0 24714:1 40449:1 40459:1 40477:1 40487:1 
0.5953246933487814 0.01778173938050637 0.1221760172763101 1 0.2912574051470861 0 1703:1 29086:1 40433:1 40446:1 40448:1 40462:1 40476:1 40488:1 
1 0.2122932923779416 0 0 1 0.5276355954217555 28396:1 40452:1 40468:1 40479:1 40488:1 40499:1 40511:1 
1 0 0 1 1 0.2273678032597828 15146:1 40435:1 40441:1 40455:1 40466:1 40479:1 40487:1 
1 1 1 0 1 1 40447:1 40462:1 40479:1 40484:1 40499:1 40506:1 
0 0 0 0.2539666444877119 0.144508636091996 0 2687:1 8040:1 40429:1 40444:1 40448:1 40470:1 40501:1 40512:1 
0 0 0 0.6596362040692706 0.3427851493036195 0 34727:1 39549:1 40432:1 40441:1 40495:1 40506:1 
0 0 0 0 0.3065731335449978 0 8252:1 18431:1 27126:1 34113:1 40432:1 40440:1 40452:1 40462:1 40474:1 40484:1 40499:1 
1 1 1 0 1 0 40457:1 40463:1 40479:1 40485:1 40495:1 
0 0 0 0 1 0 40448:1 40470:1 40495:1 40510:1 
0 0 0 0 0.611164029289827 0 15348:1 25454:1 33087:1 40448:1 40462:1 40470:1 40484:1 40499:1 
0.09764367238640667 0.135315649581991 1 0 1 0 36295:1 40448:1 40470:1 40498:1 40506:1 
0 0 0 1 1 0 40427:1 40444:1 40448:1 40470:1 
0 0 0 0 0.8218137923013861 0 4563:1 40433:1 40443:1 40448:1 40470:1 
0 0 0 0 1 0 39780:1 40448:1 40470:1 40498:1 40506:1 
0.9387415340990485 0 1 1 1 0 29163:1 40431:1 40443:1 40448:1 40461:1 40476:1 40484:1 
0 0 0.2982635665123401 0 0.9082246938522774 0 29703:1 40452:1 40461:1 40473:1 40484:1 
0 0 0 0 0.02098551888247255 0 23059:1 27126:1 40435:1 40455:1 40459:1 40477:1 40484:1 
0.5028134522746296 0.06793586336465944 0.169293734073821 0 0.5457171461401221 0.03456335671656127 13045:1 19011:1 40128:1 40451:1 40466:1 40490:1 40493:1 40510:1 
0 0 0 0 0.2067021505403516 0 21765:1 25597:1 40449:1 40463:1 40473:1 40484:1 
0 0 0.05435335485274036 0.5775241943648539 0.6008536872158232 0 34603:1 35783:1 40430:1 40444:1 40452:1 40474:1 40499:1 40506:1 
0 0 0.0007213587019079458 0 0 0.002160545947683346 220:1 9075:1 27461:1 39930:1 40433:1 40444:1 40454:1 40462:1 40473:1 40488:1 40498:1 40506:1 
0 0 0 0 0.02345234668091481 0 15114:1 20077:1 25130:1 40451:1 40466:1 40477:1 40481:1 40493:1 40512:1 
0.06937446431729645 0 0 0 0.2619051214391405 0 24975:1 37789:1 40426:1 40452:1 40468:1 40477:1 40481:1 40499:1 40506:1 
0.1139880949432621 0 0.03152229412998806 0 0.5550292800135324 0.2118983467833408 29400:1 30409:1 40449:1 40466:1 40471:1 40488:1 40495:1 40503:1 
0.4482830204976712 0.1024428363719806 1 0 1 0 39809:1 40448:1 40470:1 40492:1 40506:1 
0 0 0 0.4774715349567556 0 0 19553:1 25252:1 30409:1 39129:1 40435:1 40443:1 40452:1 40466:1 40477:1 40485:1 40495:1 40510:1 
0 0 0 0 1 0 33336:1 39780:1 40425:1 40444:1 40448:1 40470:1 40499:1 40506:1 
0 0 0 1 1 0 40435:1 40444:1 40491:1 40510:1 
0 0 0 0 1 0 29502:1 40457:1 40463:1 40473:1 40488:1 
0 0 0 1 1 0 40428:1 40442:1 40448:1 40470:1 
0 0 0 0 1 0 4538:1 34113:1 40429:1 40444:1 40452:1 40474:1 40499:1 40502:1 
0 0 0 0 1 0 17020:1 27126:1 40454:1 40462:1 40476:1 40484:1 
0 0 0 1 1 0 40433:1 40444:1 40448:1 40470:1 40496:1 40510:1 
0 0 0 0 1 0 4660:1 8252:1 40429:1 40440:1 40448:1 40470:1 40496:1 40510:1 
0 0.06710267253805008 0 0.4137157747293646 1 0 2560:1 40433:1 
0 0 0 0 0.03070951243915831 0 254:1 25061:1 34548:1 40433:1 40443:1 40457:1 40463:1 40477:1 40481:1 40495:1 
0 0.5874911390024039 0 1 1 0 12766:1 22872:1 40446:1 40455:1 40477:1 
0.1147414409547587 0.004132566928220441 0 0.1266433097415079 0.1217146840645264 0 2016:1 16787:1 26893:1 34203:1 40433:1 40449:1 40466:1 40471:1 40488:1 40495:1 
0 0 0 0.172738940758903 0 0 15090:1 20200:1 34881:1 40425:1 40446:1 40455:1 40462:1 40471:1 40481:1 40499:1 
0 0 0.03477203234913705 0 0 0.03717773379805767 685:1 8512:1 13919:1 24025:1 40433:1 40440:1 40455:1 40465:1 40477:1 40487:1 
0 0 0 0.7652021044160762 0.2839304977242585 0 25454:1 32859:1 40435:1 40443:1 40448:1 40466:1 40479:1 40484:1 40495:1 
0 0 0 0 1 0 40448:1 40470:1 40494:1 40508:1 
0 0 0 1 1 0 38067:1 40446:1 40499:1 40506:1 
0 0 0 0 0.4826835703966942 0 22636:1 27126:1 32401:1 40023:1 40455:1 40462:1 40477:1 40484:1 40499:1 40506:1 
0.1612448503098727 0 0 0 0.02944421848224003 0 29630:1 40426:1 40449:1 40463:1 40479:1 40484:1 40496:1 40512:1 
0 0 0 0 1 0 40448:1 40470:1 40496:1 40505:1 
0.8232176933178259 1 1 0.504045583660495 1 0.7601632501272096 13742:1 39532:1 40426:1 40455:1 40468:1 40479:1 40490:1 40499:1 40506:1 
0.8051010347352578 0 0.2930264000137282 0 0.3033185383516509 0 412:1 8290:1 40429:1 40440:1 40457:1 40479:1 40494:1 40506:1 
0.5738397585558231 0.2646209146095222 0.1281181189482003 1 0.1729453104594288 0 2710:1 40429:1 40444:1 40468:1 40490:1 40496:1 40508:1 
0.4658967129871784 0.6629961108896206 0.1800151908483749 0 1 0.05323886297187231 12633:1 22739:1 37037:1 40455:1 40462:1 40477:1 40484:1 40498:1 40506:1 
0 0 0 0 1 0 34920:1 40499:1 40509:1 
0 0 1 1 1 0 40428:1 40440:1 40448:1 40470:1 40496:1 40510:1 
0 0 0 0 1 0 39184:1 40493:1 40510:1 
0 0 0 0.2814619693967268 0 0 17151:1 22204:1 27126:1 40428:1 40446:1 40452:1 40462:1 40473:1 40484:1 40501:1 40510:1 
0 0 0 1 1 0 6310:1 40435:1 40444:1 40448:1 40470:1 40500:1 40512:1 
0.4728770473512706 0 0 0 0.883748157006682 0 10295:1 20401:1 34948:1 40451:1 40473:1 40499:1 40502:1 
0 0.7266824161065024 0 0 0 0 34040:1 40457:1 40468:1 40479:1 40481:1 40495:1 40512:1 
0 0 0 0 1 0 33868:1 40499:1 40505:1 
1 1 1 0.7239277030226314 1 0 40457:1 40479:1 40498:1 40508:1 
1 0 0 1 0 0.1582265440546336 38568:1 40428:1 40440:1 40455:1 40465:1 40477:1 40487:1 40499:1 40510:1 
0 0 0 0 0 0.04561361122510123 11406:1 15571:1 37454:1 40455:1 40462:1 40479:1 40481:1 40491:1 40510:1 
0 0 0 0 1 0 35622:1 40448:1 40470:1 40493:1 40510:1 
0.1432699961916389 0 0 0.8145089635648525 0.6685517724280522 0 5170:1 31171:1 40430:1 40444:1 40448:1 40470:1 40495:1 40510:1 
0.3544032254328869 0.2792026004847171 0.1263296606212193 0.5113283146568613 0.2847425162662733 0.05547458196716059 18758:1 23811:1 39887:1 40429:1 40443:1 40449:1 40466:1 40477:1 40490:1 40493:1 40510:1 
1 1 1 1 0.8736134518979916 0 7766:1 40435:1 40440:1 40457:1 40462:1 40473:1 40490:1 40501:1 40506:1 
1 0 0 1 0 0 20359:1 35309:1 40435:1 40452:1 40458:1 40473:1 40481:1 40499:1 40510:1 
0 0 0 0 1 0 25454:1 32759:1 39944:1 40452:1 40466:1 40479:1 40484:1 40499:1 40506:1 
0 0 0 0 1 0 1277:1 39780:1 40433:1 40443:1 40498:1 40506:1 
0 0.2895996124180532 0.1487988218006546 1 1 0 4846:1 40429:1 40443:1 40448:1 40470:1 
1 0 1 1 0 0 35823:1 40449:1 40466:1 40471:1 40488:1 40499:1 40506:1 
0 0 0 1 0 0 32118:1 40431:1 40443:1 40457:1 40459:1 40475:1 40487:1 40495:1 
0 0.1198121114597512 0 0 1 0 31058:1 40499:1 
0 1 0 1 1 0 37786:1 40426:1 40441:1 40457:1 40479:1 40493:1 40510:1 
0 0 0 0 1 0 39780:1 40448:1 40470:1 40498:1 40506:1 
0 0 0 0 1 0 40496:1 40510:1 
0 0 0 0 1 0 34131:1 40499:1 40509:1 
1 1 1 0 1 0 40448:1 40470:1 40499:1 40506:1 
0 0 0 0 1 0 40448:1 40470:1 40500:1 40507:1 
1 0 0 1 0.9111201865918714 0.4279380121737817 20200:1 23343:1 25407:1 40435:1 40452:1 40462:1 40477:1 40488:1 40498:1 40506:1 
0 0 0.7446798386504303 0 0.8443234031353806 0 22391:1 31908:1 40455:1 40461:1 40473:1 40481:1 40499:1 40512:1 
0.6869459634533533 0.002878221621399116 0.3451380903682289 1 0.4031961499849196 0.03258823482750332 27711:1 32176:1 40432:1 40441:1 40448:1 40468:1 40473:1 40484:1 40499:1 40502:1 
0.4064093476547957 1 0 1 1 0 40433:1 40449:1 40460:1 40471:1 40488:1 40512:1 
0 0 0 0.1464044870813009 0.4222819721120167 0 561:1 40429:1 40446:1 40457:1 40479:1 
0.1698395002779794 0.1288607282384698 0.6533331867596567 1 1 0 2689:1 33322:1 40429:1 40446:1 40448:1 40470:1 40499:1 40505:1 
0 0 0 1 0 0 30572:1 40427:1 40441:1 40448:1 40470:1 40499:1 40504:1 
0 0 0 0 0.5785088872229259 0 35164:1 35429:1 40495:1 40506:1 
0.7426514317180977 0.1955849220141652 0.1693269357985846 0 0.767123277494295 0.0358120812001451 12946:1 18254:1 32366:1 40455:1 40466:1 40490:1 40495:1 40510:1 
0 0 0 1 0 0 34881:1 40429:1 40444:1 40499:1 
0 0 0.004211883262166744 0 0.4696237042546348 0 33380:1 37165:1 40448:1 40470:1 40495:1 40506:1 
0 0 0 0 1 0 23657:1 27126:1 40455:1 40468:1 40477:1 40484:1 40501:1 40510:1 
0 0 0.8674306075587042 0 1 0 37899:1 40448:1 40470:1 40499:1 40510:1 
0.2372250749659154 0 0 0 0.1372633489298101 0 13106:1 19813:1 35164:1 40455:1 40462:1 40477:1 40481:1 40495:1 40506:1 
0.4186749614996864 1 1 0.08089403227690757 0.6134554660742708 0 38403:1 40457:1 40462:1 40479:1 40481:1 40499:1 40506:1 
0 0 0.007981190088403905 1 1 0.03138264371167566 3815:1 40433:1 40451:1 40459:1 40473:1 40481:1 40495:1 40505:1 
1 1 0.4008571401027828 0.1800899171535086 1 0.09320356309085276 13891:1 36216:1 40455:1 40465:1 40476:1 40481:1 40498:1 40510:1 
0 0 0 0 1 0 6272:1 17020:1 27126:1 40426:1 40440:1 40448:1 40462:1 40470:1 40484:1 40501:1 40506:1 
0.8723749252894496 0 0 0 1 0 32544:1 40451:1 40463:1 40477:1 40487:1 40499:1 
0 0 0 1 1 0 7613:1 40433:1 40444:1 40448:1 40470:1 
0 0 0 1 0 0 9322:1 39934:1 40435:1 40444:1 40493:1 40510:1 
0 0 0 1 1 0 33868:1 40446:1 40448:1 40470:1 40499:1 40505:1 
0 0 0 0 0.6670055934384274 0.01544916635036129 12383:1 15503:1 20556:1 39780:1 40430:1 40451:1 40466:1 40477:1 40481:1 40498:1 40506:1 
0.1206193834366865 0.481182012438372 0.4826734263415608 1 1 0 39425:1 40429:1 40446:1 40448:1 40470:1 40498:1 40506:1 
0 0 0 0 1 0 40448:1 40470:1 40496:1 40512:1 
1 1 1 0 1 0 40499:1 40506:1 
1 0.9506382946310764 0 0 0 0 22204:1 26090:1 40457:1 40460:1 40473:1 40484:1 40499:1 40509:1 
1 1 0.3710929840512936 0 1 0 14286:1 15908:1 40431:1 40446:1 40455:1 40462:1 40477:1 40488:1 40501:1 40502:1 
0 0.1190608981918202 0 0 1 0.06614994560079032 34648:1 40430:1 40452:1 40474:1 40499:1 40509:1 
1 1 0.1301111718168168 1 1 0 40490:1 40512:1 
0.4747117110469052 0.5124974286862413 1 1 1 0.4383264896972566 1602:1 9827:1 40433:1 40440:1 40448:1 40470:1 
0.1599659285845833 1 0.337770217940101 1 1 0 38808:1 40429:1 40443:1 40498:1 40506:1 
0.2806762571987164 0 0 0 1 0 25884:1 33860:1 35518:1 40450:1 40464:1 40474:1 40484:1 40495:1 40506:1 
0.943557242708546 0.7128277601701801 0.4358912078579825 0.9691615568499256 0.6651532603802381 0.03425789365675091 31104:1 37398:1 40429:1 40437:1 40447:1 40468:1 40476:1 40490:1 40499:1 40506:1 
0.8138778585952905 0 0 0 1 0 30979:1 40495:1 40510:1 
0 0 0 0 1 0 39780:1 40430:1 40448:1 40470:1 40498:1 40506:1 
0 0 0 0 0.9502096632981708 0 11030:1 20126:1 39780:1 40451:1 40466:1 40478:1 40481:1 40498:1 40506:1 
0 0 0 0 1 0 31208:1 40452:1 40466:1 40477:1 40485:1 40495:1 40502:1 
0 1 1 1 1 0 40433:1 40440:1 
0 0 0 0 1 0 533:1 8040:1 40429:1 40444:1 40448:1 40470:1 40494:1 40506:1 
0 0.305403270303781 0 1 1 0 40433:1 40448:1 40470:1 40500:1 40511:1 
0 0 0.1387032174726973 0 0.130359244251186 0 20309:1 27126:1 39905:1 40431:1 40443:1 40455:1 40463:1 40473:1 40484:1 40499:1 40510:1 
0.2838790782442908 0 0.1650944719397607 0.6011362272160988 0.4106109885063396 0 10806:1 18380:1 23433:1 26929:1 40427:1 40444:1 40451:1 40466:1 40477:1 40484:1 
0 0 0 0.9461051188304461 0 0 4774:1 32881:1 40429:1 40443:1 40452:1 40474:1 40495:1 40502:1 
0 1 1 1 1 0 40429:1 40443:1 
0 0 0 0 1 0 15348:1 25454:1 40448:1 40462:1 40470:1 40484:1 40501:1 40506:1 
0 1 0.409321733900995 1 0 0 31780:1 40427:1 40444:1 40457:1 40479:1 40495:1 40509:1 
0 0 0 0 1 0 38389:1 40448:1 40470:1 40493:1 40510:1 
1 1 1 1 1 0 40457:1 40479:1 40492:1 40506:1 
0.8249628497406382 0 0 0 1 0 37038:1 40448:1 40470:1 40491:1 40510:1 
0 0 0 1 1 0 40431:1 40443:1 40448:1 40470:1 40496:1 40512:1 
0 0 0 0 0.5208259921620824 0 2505:1 25454:1 35742:1 40429:1 40452:1 40466:1 40470:1 40484:1 40492:1 40506:1 
1 1 0 0 1 0 40448:1 40470:1 40499:1 
0.01497234595953806 0 0 0.04244960939075353 0.6831249110028815 0 15024:1 16669:1 26803:1 40304:1 40455:1 40462:1 40471:1 40488:1 40501:1 40506:1 
0 0 0 1 0 0 34881:1 40430:1 40446:1 40452:1 40474:1 40499:1 40509:1 
0.01068340670301965 0 0.004275230795558545 0 0.0004530949463578572 0 12386:1 22492:1 32693:1 40435:1 40455:1 40477:1 40495:1 
0.7306150787876623 0 0 0.2393862542059581 0.6065913507515209 0.2225928134670832 19785:1 40449:1 40466:1 40474:1 40485:1 40501:1 
0 0 0 0 1 0 40448:1 40470:1 40496:1 40512:1 
0 0 0 0 0.0323310007760935 0.02248798751946995 14606:1 25179:1 39780:1 40455:1 40464:1 40477:1 40481:1 40498:1 40506:1 
0.599151019571358 0.2918780600749852 0.158917306472563 0.7602180289853218 0.6081231013222024 0.1221614291950081 1912:1 25993:1 40433:1 40443:1 40448:1 40467:1 40473:1 40484:1 
0.8691252047398961 1 1 1 1 0 5614:1 40432:1 40440:1 40457:1 40462:1 40473:1 40481:1 40498:1 40510:1 
0 0 0 1 1 0 31916:1 40448:1 40470:1 40495:1 40510:1 
0.4118964027317388 0 0.05921232317776357 0.5678021196236197 0.04519612161867959 0 2606:1 14515:1 40429:1 40444:1 40451:1 40468:1 40479:1 40481:1 40493:1 40510:1 
0 0 0 0 0.4872180533467791 0 4660:1 5991:1 26283:1 39780:1 40429:1 40440:1 40448:1 40462:1 40473:1 40484:1 40498:1 40506:1 
0 0 0 0 0.6552012923911402 0 31067:1 36111:1 40448:1 40470:1 40495:1 40510:1 
0 0.005924580207446674 0 0 1 0 39266:1 40448:1 40470:1 40498:1 40510:1 
0.3181682678739415 0.017883171270331 0.137638166294421 0 0.3321835676330113 0.5077659352754414 19429:1 21183:1 25407:1 38425:1 40449:1 40466:1 40473:1 40488:1 40498:1 40506:1 
0 0 0 0 1 0 25454:1 40446:1 40457:1 40459:1 40470:1 40484:1 40499:1 40512:1 
0 0 0 0 0.5809610504046224 0.1305900421623163 3595:1 15445:1 25551:1 40429:1 40444:1 40449:1 40466:1 40471:1 40488:1 
0 0 0 0 1 0 33868:1 40499:1 40506:1 
0.1387387245981917 0 0 0 0.8979373251794823 0 23848:1 32002:1 40449:1 40466:1 40477:1 40481:1 40499:1 40504:1 
0 0 0 1 1 0 6314:1 40435:1 40444:1 40448:1 40470:1 40494:1 40508:1 
0 0 0 0.496810280872074 1 0 38250:1 40433:1 40493:1 40506:1 
0 0 0 1 0 0 39780:1 40431:1 40443:1 40448:1 40461:1 40472:1 40486:1 40498:1 40506:1 
1 0.8646296928241056 0.1671485237282306 0.005131066825684595 1 0.09320652099999099 14320:1 26550:1 40455:1 40466:1 40477:1 40484:1 
0.09932160033375435 1 0.01561690827004219 1 0.6809823847537083 0 33119:1 35560:1 40425:1 40443:1 40457:1 40479:1 40499:1 40506:1 
0 0.4253676852397072 0 0 0 0 20077:1 25130:1 31908:1 40457:1 40466:1 40477:1 40481:1 40499:1 40506:1 
0 0.1347362914033665 0 1 0.8502796769613131 0 4348:1 35226:1 40429:1 40446:1 40449:1 40459:1 40475:1 40487:1 40499:1 
1 0 0 0 1 1 40455:1 40466:1 40477:1 40488:1 40501:1 40511:1 
0 0 0 0 1 0 9678:1 40433:1 40444:1 40448:1 40470:1 40493:1 40507:1 
0 0.1527541556556667 0 1 1 0 37286:1 40433:1 40446:1 40501:1 40510:1 
0.2512583299826404 1 0.8794133782770057 1 0.9246025579237889 0.00409861317776119 34837:1 39220:1 40425:1 40443:1 40457:1 40479:1 40499:1 40506:1 
0.9324667251590698 1 0 0 1 0.02743813998155379 11831:1 21937:1 38708:1 40455:1 40463:1 40477:1 40485:1 40499:1 40510:1 
0 0 0 0 1 0 37165:1 40455:1 40459:1 40477:1 40481:1 40491:1 40506:1 
0 0.843223847074582 0 1 1 0 33655:1 40448:1 40460:1 40471:1 40481:1 40499:1 40512:1 
1 1 1 1 1 0 40429:1 40446:1 40457:1 40479:1 40493:1 40510:1 
0.6555300891909431 0 0 0 0 0 13975:1 16391:1 34160:1 40451:1 40466:1 40479:1 40488:1 40495:1 40510:1 
1 1 1 1 1 1 40429:1 40446:1 40455:1 40466:1 40473:1 40487:1 40501:1 40509:1 
0 0 0 0 0.5493332013095001 0 30848:1 40210:1 40448:1 40470:1 40495:1 40510:1 
0.02306452959206217 0 0 0.803387410678437 0.5688476326091222 0.04648845326170544 4201:1 36427:1 40429:1 40446:1 40448:1 40470:1 40492:1 40510:1 
0 0 0 0 1 0 40448:1 40470:1 40496:1 40506:1 
1 1 0 0 1 1 40449:1 40463:1 40471:1 40485:1 40495:1 
0 0 0 1 0 0 18146:1 23199:1 36777:1 40435:1 40444:1 40452:1 40466:1 40477:1 40488:1 40499:1 40506:1 
0 0 0 1 0.8478788814232483 0 393:1 40429:1 40449:1 40463:1 40471:1 40481:1 40496:1 40512:1 
0 0 0 1 0 0 32204:1 39934:1 40435:1 40446:1 40449:1 40459:1 40471:1 40481:1 40499:1 40510:1 
0 0 0 1 0.1525719586852398 0 39780:1 40427:1 40446:1 40448:1 40470:1 40498:1 40506:1 
1 0.730812735303796 1 0.08721260678952335 1 0.1350730813236512 31629:1 40455:1 40462:1 40490:1 40495:1 40504:1 
0 0 0 1 1 0 40428:1 40442:1 40448:1 40470:1 40494:1 40508:1 
1 1 1 1 1 1 40429:1 40446:1 40455:1 40466:1 40473:1 40487:1 40501:1 40509:1 
1 0 0 0.5078310402209694 1 0 11030:1 20961:1 30400:1 40434:1 40444:1 40451:1 40458:1 40473:1 40485:1 40499:1 
0 0 0 1 0.1010185286722845 0 3804:1 39628:1 40433:1 40446:1 40448:1 40470:1 40501:1 40510:1 
1 1 0 0 1 0 40448:1 40470:1 40494:1 40506:1 
0 0 0 0 1 0 825:1 30799:1 38578:1 40429:1 40495:1 40506:1 
0 1 0 0 1 0 39732:1 40448:1 40470:1 40501:1 40510:1 
0.3061630568710421 0 0 0 0 0 16376:1 26482:1 33095:1 40452:1 40466:1 40474:1 40488:1 40499:1 40509:1 
0 0.7798504430979148 0.6993010296723379 0.9865020684449911 0.6472903179116258 0 19926:1 30032:1 40429:1 40446:1 40457:1 40462:1 40479:1 40484:1 40491:1 40506:1 
0 0 0 0 0.2156719520514399 0 18671:1 28777:1 40447:1 40466:1 40469:1 40488:1 
0 0 0 0 0.9066266637379601 0 31154:1 40448:1 40470:1 40495:1 40506:1 
0 0.04902190792672155 1 0 1 0 40448:1 40470:1 40493:1 40506:1 
0.03150636270589349 0 0 1 1 0 18709:1 40452:1 40466:1 40475:1 40487:1 40501:1 40510:1 
0 0 0.8047743969128477 1 1 0 31616:1 40428:1 40442:1 40448:1 40470:1 40499:1 40509:1 
0 0 0 0 1 0 17020:1 27126:1 36961:1 40448:1 40462:1 40470:1 40484:1 40495:1 40510:1 
1 1 1 1 0 0.9603088269065015 33655:1 40448:1 40460:1 40479:1 40485:1 40499:1 40511:1 
1 0.07310441332854722 1 1 1 0.1580246294177735 14794:1 24900:1 40431:1 40444:1 40455:1 40477:1 40492:1 40511:1 
0.7059018925149827 0 0.2741584416637987 0.622956604319176 0 0.03351233007068693 36833:1 40449:1 40466:1 40471:1 40488:1 40498:1 40506:1 
0.240779964204358 0 0 0 0.5836273734722915 0 21901:1 34113:1 40450:1 40462:1 40473:1 40485:1 40499:1 
0.4009544028150788 0 0 0 0.2228350867608158 0 4019:1 9678:1 12875:1 15496:1 20549:1 27387:1 40429:1 40444:1 40455:1 40462:1 40473:1 40484:1 
0.2455029701600083 0.05512036529141159 0 0.4515818423405714 0.4649458716392607 0.0368911004664677 14859:1 24965:1 40455:1 40477:1 40501:1 40510:1 
1 1 1 1 0.6184434081178531 0.1009950403832147 30376:1 40449:1 40459:1 40473:1 40490:1 40495:1 40509:1 
0 0 0 0 0.9044326770255505 0 14563:1 25454:1 40451:1 40459:1 40470:1 40484:1 40494:1 40506:1 
0.5772423581221512 0 0 1 1 0.06210807734658168 37458:1 40433:1 40443:1 40455:1 40477:1 40496:1 40506:1 
0 0 0 0.1504802762525498 0.03236526329088463 0 6626:1 39780:1 40432:1 40440:1 40452:1 40474:1 40498:1 40506:1 
0.5235287953898285 0 0 0 0 0 13531:1 32118:1 40451:1 40460:1 40471:1 40485:1 40495:1 40512:1 
0 1 0 0 1 0 40448:1 40470:1 40501:1 40506:1 
0 0 0 0 0 0.2401679830584263 4504:1 31471:1 40433:1 40495:1 40509:1 
0 0.1211535248170716 0.02209815221995334 0 0.8875366652149358 0 17020:1 27253:1 37147:1 40457:1 40462:1 40479:1 40484:1 40491:1 40510:1 
0 1 1 1 1 0 40435:1 40446:1 40457:1 40479:1 40493:1 40510:1 
0 0 0 0 1 0 40448:1 40470:1 
0 0.7267440500651794 0 1 0.7557221140235523 0 6330:1 34584:1 40435:1 40444:1 40448:1 40470:1 40499:1 
0 0 0 0 1 0 39780:1 40448:1 40470:1 40498:1 40506:1 
0 0 0 0 1 0 17020:1 27126:1 40429:1 40446:1 40448:1 40462:1 40470:1 40484:1 40492:1 40506:1 
0 0 0 1 0 0 3131:1 40433:1 40444:1 40449:1 40466:1 40477:1 40487:1 
0 0 0 0 1 0 40448:1 40470:1 40499:1 40507:1 
1 1 1 1 1 0 40455:1 40466:1 40478:1 40485:1 40493:1 40504:1 
0 0 0 1 1 0 4269:1 40433:1 40444:1 40448:1 40470:1 40501:1 40509:1 
0.3399000555362757 0 0 0 0.4116753523016682 0 14090:1 16175:1 40455:1 40462:1 40477:1 40490:1 40495:1 
0 1 0 0 1 1 40448:1 40470:1 40499:1 40511:1 
0 0 0.2706620412962854 0.5091397159984874 0 0 33744:1 40428:1 40442:1 40457:1 40462:1 40473:1 40481:1 40495:1 40509:1 
0 0 0 0 0.7300887908855526 0 32376:1 40161:1 40448:1 40470:1 40495:1 40510:1 
1 0 0 0 0.2451640663696428 0 10789:1 29502:1 40455:1 40466:1 40477:1 40488:1 
0.2916197989136257 0 0.08037825705552898 0.8711532195212047 0.18229748591094 0.100575817242697 15258:1 20311:1 29474:1 40435:1 40455:1 40466:1 40477:1 40484:1 40496:1 40510:1 
0.7973069423453421 0.3754765104037703 0.0647225440517607 1 0.6525402465490926 0.4224213182330828 8283:1 19840:1 22293:1 39635:1 40435:1 40444:1 40448:1 40462:1 40473:1 40490:1 40496:1 40506:1 
0 0 0.001230786436913924 0.6917881488357238 1 0 3950:1 40429:1 40446:1 40448:1 40470:1 40495:1 40512:1 
0 0 0 0 1 0 33034:1 40448:1 40470:1 40499:1 40507:1 
1 0 0 0 0 0 13765:1 23871:1 40455:1 40463:1 40477:1 40485:1 40495:1 40510:1 
0 0.009965380254769072 0 0 1 0 39983:1 40493:1 40510:1 
1 0 0.4635446169220891 0 0 0 13765:1 35560:1 40455:1 40460:1 40479:1 40488:1 40499:1 40506:1 
0 0 0 0 0 1 39934:1 40448:1 40470:1 40498:1 40510:1 
0 0 0 0 0 0.4188872863612607 1029:1 16329:1 22199:1 40433:1 40454:1 40462:1 40477:1 40487:1 
0 0 0 0 1 0 33750:1 40448:1 40470:1 40495:1 40509:1 
0.8236455107042784 0.02734487504936312 0.1898951329870775 0 1 0 18814:1 40455:1 40462:1 40477:1 40481:1 40501:1 40506:1 
1 0.4431110357865504 0.633965596307503 1 0.8390545777798334 0.01683451819624814 14255:1 40429:1 40444:1 40451:1 40468:1 40479:1 40488:1 40499:1 40506:1 
0 0 0 1 0 0 38087:1 40435:1 40444:1 40448:1 40470:1 40491:1 40510:1 
0 0 0 0.5711835511330343 0 0 25658:1 31166:1 40428:1 40442:1 40448:1 40461:1 40475:1 40484:1 40499:1 40505:1 
1 0.3496673220725146 0.04363856714994152 1 1 0.09025937208493325 10724:1 20830:1 40434:1 40446:1 40455:1 40468:1 40477:1 40490:1 40496:1 40512:1 
0 0 0 0 1 0 40448:1 40470:1 
0 0.2753297058535333 0.3912324337507449 0 0 0 2505:1 37801:1 40429:1 40457:1 40479:1 40496:1 40506:1 
0.008289830765972891 0 0 0 0 0 33507:1 40455:1 40466:1 40477:1 40481:1 40495:1 40512:1 
1 1 1 1 1 1 40433:1 40454:1 40462:1 40473:1 40488:1 40494:1 40508:1 
1 1 1 0 1 0 40450:1 40462:1 40471:1 40488:1 
1 1 0 1 1 0 40430:1 40448:1 40470:1 40498:1 
0.05521356498522567 1 0.523596961923641 0 0 0 31067:1 39732:1 40457:1 40479:1 40495:1 40510:1 
0 0 0 0 0.2128800329455049 0 31908:1 39670:1 40433:1 40499:1 40510:1 
0 0 0 0 1 0 40496:1 40510:1 
0.009902507288278673 0 0 0 0.08547169524338666 0 11571:1 21677:1 40455:1 40459:1 40477:1 40481:1 40496:1 40510:1 
0.1675116586989437 0 0 0 0 0 15908:1 20961:1 29595:1 40428:1 40440:1 40452:1 40462:1 40473:1 40488:1 
0.2772111803678735 0 0 0 0.1180483090997463 0 13918:1 24024:1 33087:1 35997:1 40451:1 40473:1 40499:1 40506:1 
0.0975353027341558 0.1354175167655121 0.07714366138811032 0 1 0 39529:1 40448:1 40470:1 40498:1 40506:1 
0 0.9358781679690286 0.5283445559476648 1 1 0.02867045861817344 14758:1 24864:1 35783:1 40431:1 40446:1 40451:1 40468:1 40473:1 40490:1 40496:1 40506:1 
0 0 0 0 0.6611029762048642 0 30572:1 40499:1 
0 1 0 0 1 0 30485:1 40452:1 40474:1 40495:1 
1 0 0 0 0 0 11843:1 30720:1 40435:1 40451:1 40468:1 40473:1 40484:1 40495:1 40512:1 
0 1 0.6647975429022936 0 1 0 40494:1 40506:1 
1 0 0 0 1 0.4008220381299155 40449:1 40466:1 40477:1 40485:1 40501:1 
1 0 0 1 1 0.02972635577905565 40426:1 40445:1 40452:1 40474:1 40496:1 40512:1 
0.6926500071263531 0.2722067099941727 0 1 1 0.004220732135208911 9529:1 18290:1 40435:1 40444:1 40449:1 40466:1 40479:1 40487:1 40493:1 40504:1 
0 0.5163560684951187 0.5663522054401737 0 0.9247409582997176 0 32118:1 40457:1 40460:1 40471:1 40481:1 40495:1 40512:1 
0 0 0 0 1 0 40448:1 40470:1 
0 1 1 0 1 0 40501:1 40506:1 
0 0.5586364295377496 0.2977896993903987 0.4283610636935581 0.2428996220501954 0 15909:1 37429:1 40446:1 40457:1 40462:1 40479:1 40481:1 40501:1 40506:1 
0 0 0 0 0.1504730470823538 0 37901:1 40457:1 40468:1 40479:1 40481:1 40501:1 40506:1 
0.3120248234781273 0.03215159922896833 0 0 1 0.08862354072949677 30926:1 40452:1 40474:1 40499:1 40510:1 
0 0 0 0 1 0 40496:1 40510:1 
0 0.4730291626150651 0.4143047250985931 0 0.4831849163957 0 27017:1 31535:1 40457:1 40461:1 40479:1 40488:1 40499:1 40509:1 
0.7711814478482961 0.04953337366778598 0.07222543949485787 0.02620561178095983 0.2512137364461092 0 34846:1 36811:1 40449:1 40466:1 40471:1 40488:1 40499:1 40506:1 
0.720958626825239 0.3724499433034359 0 0 1 0 29712:1 40451:1 40462:1 40478:1 40488:1 
0 1 0 0 1 0 40499:1 40510:1 
1 1 1 0 1 0 40448:1 40470:1 40498:1 40506:1 
0.130930360136945 0.8066671905361441 0.2024417246319928 0.3172966554112487 0.1228366927754923 0.1390025262620308 3170:1 5424:1 33507:1 38674:1 40433:1 40440:1 40457:1 40462:1 40479:1 40490:1 40495:1 40506:1 
0 0 0 0 1 0 17020:1 27126:1 40429:1 40446:1 40448:1 40462:1 40470:1 40484:1 40501:1 40506:1 
0.1091767047492557 0 0 0 0 0 13901:1 39135:1 40433:1 40455:1 40458:1 40472:1 40486:1 40499:1 40506:1 
0 0 0 0 1 0 40457:1 40466:1 40477:1 40481:1 40491:1 40508:1 
1 0.1448399961431211 0.2047187738016824 0.1109676804271474 1 0.05349760965346158 11077:1 19080:1 26761:1 40451:1 40462:1 40479:1 40484:1 40501:1 40510:1 
0 0 0 0 1 0 40495:1 40507:1 
0 0 0 0 0.9049011992356579 0 36845:1 40491:1 40510:1 
0.1098079361628439 0.1471985016923077 0.2685468192273228 0 1 0 4660:1 8336:1 40429:1 40440:1 40457:1 40461:1 40475:1 40487:1 40495:1 40502:1 
0 0 0 1 1 0 40431:1 40443:1 40448:1 40458:1 40475:1 40487:1 40496:1 40505:1 
1 0.00320150011932374 1 1 1 0 40457:1 40463:1 40475:1 40480:1 40494:1 40508:1 
0.312964249465425 0 0 0 0.9805497446960456 0.09046915181945309 13330:1 32426:1 38822:1 40455:1 40458:1 40471:1 40485:1 40499:1 40506:1 
1 0 1 0 1 1 40449:1 40458:1 40490:1 40496:1 40512:1 
0 0 0 1 0 0 31882:1 40429:1 40444:1 40499:1 40508:1 
0 0 0 0 1 0 6914:1 40433:1 40440:1 40451:1 40466:1 40477:1 40487:1 40493:1 40507:1 
1 1 0 0 1 0 40448:1 40470:1 40494:1 40506:1 
0.8677692442438953 1 0 0 1 0 40426:1 40448:1 40470:1 40499:1 40507:1 
0 0 0.351842559815033 0 0.3294401923178168 0 12142:1 22248:1 38601:1 40451:1 40473:1 40496:1 40510:1 
0 0 0 0.9159699332216508 1 0.0427128929616268 3595:1 16215:1 21268:1 33142:1 40429:1 40444:1 40448:1 40466:1 40477:1 40481:1 40499:1 40509:1 
0 0 0 0 0 0.0002028110348619492 13503:1 23609:1 34611:1 40426:1 40455:1 40477:1 40499:1 40507:1 
0.1439481937623319 0.01120412156216265 1 0 1 0 24061:1 40426:1 40448:1 40463:1 40473:1 40487:1 40493:1 40510:1 
0 0 0 0 1 0 36845:1 40450:1 40462:1 40471:1 40481:1 40496:1 40510:1 
0.4060985969897721 0.2588878887088269 0.1160363693397292 1 0.347132430150714 0 15036:1 17488:1 22541:1 40435:1 40437:1 40451:1 40462:1 40473:1 40487:1 
0 0.8960264027266014 0 0 0 0 39780:1 40430:1 40445:1 40457:1 40479:1 40498:1 40506:1 
0.1622518303554498 0 0.2514813256908993 0.4488102394092305 0.738612232163295 0.17283733218709 200:1 10197:1 24643:1 40433:1 40451:1 40460:1 40477:1 40487:1 
0.02264867795498329 0 1 1 1 0 40428:1 40440:1 40448:1 40470:1 40501:1 40510:1 
0.9171588442470348 0 1 0 0.6659486658911782 0 14683:1 15348:1 40451:1 40462:1 40479:1 40489:1 40495:1 40502:1 
0.6035571885253348 0.166833105639921 0.3727583504147791 0.6598383551748745 0.1214878798232874 0.118142916167556 14339:1 23314:1 40301:1 40429:1 40441:1 40455:1 40473:1 40484:1 40499:1 40506:1 
0 1 0 0 1 0 40448:1 40470:1 40501:1 40506:1 
0.02704913902047252 0.4369676801503484 0 0 1 0 20694:1 40457:1 40463:1 40477:1 40487:1 40501:1 40507:1 
0 0 0 0 1 0 17020:1 27126:1 34404:1 40455:1 40462:1 40477:1 40484:1 40499:1 40510:1 
0 0 0 0 0.04393127281076127 0 17020:1 22073:1 26203:1 40454:1 40462:1 40473:1 40484:1 40496:1 40510:1 
0 0 0 0 1 0.9985764759150239 34920:1 40448:1 40470:1 40499:1 40512:1 
1 0.5695745502593347 0.2834231982876229 1 1 0 39948:1 40434:1 40437:1 40450:1 40464:1 40471:1 40488:1 40498:1 40506:1 
1 0 1 0 1 0 40448:1 40470:1 40493:1 40504:1 
0.2939449793969932 0.0813123153142145 0.001433446403703717 0 0.2478706834193676 0 19291:1 24344:1 40452:1 40462:1 40473:1 40488:1 
0.01229265230097688 0.6814329380621715 0 0 1 0 28905:1 33876:1 40452:1 40467:1 40471:1 40488:1 40495:1 40512:1 
0 0 0 0 0.2171365163522136 0 17960:1 23013:1 27126:1 33149:1 38250:1 40446:1 40452:1 40466:1 40477:1 40484:1 40499:1 40506:1 
1 0.09810675788253861 1 1 1 0 40446:1 40452:1 40462:1 40476:1 40488:1 40496:1 40502:1 
0 0 0 0 1 0 35538:1 40452:1 40474:1 40491:1 40506:1 
0 0 0 0 1 0 40448:1 40470:1 40499:1 40512:1 
0.7919217122399305 0.1483505436044664 0 0.3617826243147887 0.6897918435830062 0.027676366284326 1056:1 6106:1 40433:1 40444:1 40452:1 40466:1 40477:1 40482:1 40498:1 40506:1 
0.2680750909417358 0 0 1 0 0 14873:1 24979:1 40435:1 40444:1 40451:1 40473:1 40495:1 
1 0 1 1 1 0 40435:1 40448:1 40462:1 40470:1 40484:1 
0 0 0 0 1 0 4269:1 39934:1 40433:1 40444:1 40448:1 40470:1 40493:1 40510:1 
0 1 0 0 1 0 30485:1 40452:1 40474:1 40495:1 
0.03173902986967456 0.0006220304342665476 0 0 0 0 4577:1 9899:1 19203:1 39828:1 40429:1 40440:1 40457:1 40462:1 40479:1 40481:1 40501:1 40506:1 
0.3925938178803621 0 0 0 0 0 27970:1 40450:1 40468:1 40473:1 40488:1 
0 0.2490783546865179 0.03272407909833314 0 1 0 31558:1 40449:1 40459:1 40471:1 40481:1 40495:1 40506:1 
0 0 0 0 1 0 39780:1 40448:1 40470:1 40498:1 40506:1 
0 0 0 0.7943091357367439 1 0 971:1 23199:1 40429:1 40443:1 40449:1 40463:1 40477:1 40481:1 40496:1 40506:1 
0.01583886183725515 0.469110424158258 0.1181002542289133 0 0 0.02895289855143052 40000:1 40449:1 40462:1 40473:1 40485:1 40499:1 40506:1 
0 0 0.3417728491392972 0.04923989968460601 0.8626175490467889 0 1737:1 9568:1 15348:1 25454:1 40429:1 40444:1 40454:1 40462:1 40476:1 40484:1 40493:1 40510:1 
0.7593077323066093 0 1 0 0.1078342857654838 0.05390138298650039 25641:1 31166:1 40432:1 40440:1 40448:1 40461:1 40469:1 40484:1 40499:1 40505:1 
0.07734797389873115 0.01269123264236667 0 1 1 0.06904226626508317 4730:1 40429:1 40443:1 40449:1 40463:1 40477:1 40481:1 40498:1 40511:1 
0.3592683998583674 0.05149499850484389 0.1621066364051672 0.120903471339997 0.8886805185256522 0 3283:1 19178:1 27292:1 34158:1 38319:1 40429:1 40452:1 40462:1 40474:1 40484:1 40499:1 40506:1 
0 0 0 0 1 0 37429:1 40448:1 40470:1 40501:1 40506:1 
1 1 1 1 1 1 40430:1 40454:1 40460:1 40479:1 40490:1 40493:1 40504:1 
0 0 0 0 1 0.3493527175618326 33606:1 40448:1 40470:1 40495:1 40505:1 
1 0 1 0 1 0 40455:1 40466:1 40477:1 40488:1 40499:1 40510:1 
1 1 1 1 1 1 40435:1 40454:1 40466:1 40473:1 40488:1 40499:1 40509:1 
0 0.1940349559894647 0.3680662202057132 1 0.0202584807118327 0 35317:1 40427:1 40441:1 40457:1 40479:1 40499:1 
0 0 0 0 0.07042211303867504 0 16325:1 21378:1 34727:1 40455:1 40466:1 40477:1 40481:1 40495:1 40512:1 
0.1101985740873975 0 0 0.2469598736949661 0 0.006651688253784962 36420:1 40427:1 40444:1 40455:1 40477:1 40492:1 40506:1 
0 0 0 1 1 0 2409:1 40433:1 40443:1 40448:1 40470:1 40498:1 40512:1 
1 0.7300037908336322 0.2161199485595182 1 1 1 15533:1 40457:1 40466:1 40471:1 40488:1 40499:1 40504:1 
0.8563158933118173 0.4182235840945076 0.3444684020768822 0 1 0.0262833467778971 37399:1 40455:1 40477:1 40498:1 40506:1 
1 1 0 1 1 0.9556940074388227 8184:1 40435:1 40444:1 40452:1 40474:1 40498:1 40505:1 
0 0 0 0.181793691729311 0 0 2808:1 19348:1 22645:1 31058:1 37991:1 40433:1 40444:1 40452:1 40462:1 40477:1 40481:1 40499:1 40506:1 
0 0 0 0 1 0 19736:1 24789:1 25454:1 40435:1 40454:1 40462:1 40473:1 40484:1 40493:1 40507:1 
0.9350044598713936 0 0 0 1 0 11397:1 40451:1 40466:1 40477:1 40485:1 40495:1 40512:1 
0.4541254531967883 0.1787040453379143 0 0.5261624590578959 0.7468820646073411 0 533:1 6082:1 19995:1 33016:1 40429:1 40444:1 40457:1 40466:1 40477:1 40488:1 40495:1 40509:1 
0.7173043736083226 0.4411725037106255 0.2923095661038692 0 1 0 38219:1 40451:1 40465:1 40473:1 40487:1 40498:1 40506:1 
0 1 1 1 1 0 40429:1 40446:1 40448:1 40470:1 
1 0 1 0 1 0 40448:1 40470:1 40495:1 40506:1 
0.167832749422427 0.2021973653183086 0 0.7888533570873247 1 0 36783:1 40426:1 40443:1 40448:1 40470:1 40499:1 40506:1 
0.4640370837838173 0 0 0 0 0.0004288946921248095 32845:1 39811:1 40426:1 40441:1 40499:1 40506:1 
0 0 0 0 1 0 39780:1 40448:1 40470:1 40498:1 40506:1 
1 1 1 1 1 0.4912958207935646 40456:1 40461:1 40473:1 40490:1 40501:1 40504:1 
0 0 0.8771763206571103 1 1 0 34131:1 40435:1 40440:1 40499:1 40506:1 
0 0 0 1 1 0 39780:1 40435:1 40446:1 40448:1 40470:1 40498:1 40506:1 
0 0.3593730212322998 0 0.3269840294108232 0.6834364598318012 0 2110:1 40433:1 40444:1 40457:1 40479:1 40494:1 40506:1 
1 0 1 0 1 0 40451:1 40466:1 40473:1 40488:1 40512:1 
0.9421213774100134 0.337899522104669 0.5919993097439176 0 1 0 36777:1 40455:1 40477:1 40492:1 40506:1 
0 0 0 0 0.1542871413709198 0 30799:1 35522:1 40495:1 40506:1 
0.1164655318081511 0 0.01290082094818891 0 1 0 18954:1 23871:1 37442:1 40455:1 40466:1 40477:1 40481:1 40493:1 40510:1 
1 0 0 1 0 0 37801:1 40433:1 40468:1 40490:1 40499:1 40506:1 
0 0 0 0.5173253935138831 0.2093507497946906 0.003366607606976399 34332:1 38834:1 40433:1 40444:1 40452:1 40474:1 40495:1 40510:1 
1 1 1 1 1 0.5776572824080004 40432:1 40444:1 40457:1 40479:1 40501:1 40506:1 
1 1 0.5774170333721191 1 1 0.3382969996724815 28548:1 40433:1 40444:1 40454:1 40468:1 40476:1 40484:1 
0.1536343915794649 0.07592579105394723 0 0.3682494063795931 0.7423061218806872 0.1832432627254104 2452:1 40433:1 40452:1 40474:1 40498:1 40510:1 
0.410559129153466 0.178182220930604 0.4454175746232825 0.2253944751182446 0.3708546572994005 0.01160148283796453 470:1 11261:1 21367:1 36311:1 40429:1 40455:1 40477:1 40501:1 40506:1 
0.1550076698003087 0 0.01357180162239844 0.20805242172895 0.5376981986715768 0 10362:1 20468:1 40427:1 40455:1 40465:1 40477:1 40487:1 40493:1 40510:1 
1 1 1 1 1 0 40457:1 40479:1 40501:1 40506:1 
0 0 0 0 0.0357877707187229 0 4660:1 9899:1 35923:1 40429:1 40440:1 40499:1 40506:1 
1 0 0.6114901877694269 0.5101470267875862 1 0.2293771436999604 19943:1 30049:1 36590:1 40426:1 40441:1 40448:1 40462:1 40470:1 40484:1 40498:1 40506:1 
0.5943209074340456 0 0 0 0 0.0548710400351051 19926:1 30032:1 40457:1 40462:1 40479:1 40484:1 40499:1 40510:1 
0.08770155778233354 0.0228410812886555 0.4219950666881501 1 1 0 39826:1 40429:1 40446:1 40499:1 40506:1 
1 0 1 1 1 0 40428:1 40446:1 40455:1 40466:1 40477:1 40487:1 
0 0 0 0 0.2188167154419798 0 23199:1 36905:1 40427:1 40449:1 40463:1 40477:1 40481:1 40501:1 40506:1 
1 0 1 0 1 0 40451:1 40466:1 40473:1 40488:1 40512:1 
0.1060059960845064 0 0 0.3439936224342082 0 0.006023293761167237 34892:1 36854:1 40433:1 40444:1 40449:1 40466:1 40471:1 40488:1 40495:1 40510:1 
0.3032558515294421 0.1457468923743015 0.1398049863781064 0.627187600404492 0.5036774023592746 0 2111:1 32874:1 40429:1 40443:1 40448:1 40466:1 40473:1 40487:1 40499:1 
1 1 1 0 1 0 40448:1 40470:1 40498:1 40506:1 
0.01208493256560734 0 0 0 0.8832247093796228 0 33782:1 40051:1 40452:1 40474:1 40495:1 40510:1 
0 0 0.2395636542339652 0.7116021134272413 1 0 938:1 26931:1 32233:1 40429:1 40450:1 40468:1 40470:1 40484:1 40499:1 
0.7958015580072786 0 0 0 1 0 25454:1 40450:1 40468:1 40476:1 40484:1 40499:1 40509:1 
1 1 0 1 1 0 40430:1 40457:1 40462:1 40473:1 40485:1 40497:1 40512:1 
1 0.2967123124610504 0.5330060228454573 0.0005708953692732524 1 0.01664507364739847 16896:1 20359:1 40426:1 40454:1 40462:1 40473:1 40485:1 40499:1 40504:1 
0.3944143076360471 0 0 0 0 0 36466:1 40452:1 40466:1 40474:1 40488:1 40495:1 40510:1 
0.1775624077601544 0 0 0 0.8093769117684824 0 25276:1 40449:1 40466:1 40470:1 40488:1 40501:1 40506:1 
0 1 0 0 1 0 40448:1 40470:1 40501:1 40510:1 
0 0 0 0 1 0 15348:1 25454:1 40457:1 40462:1 40479:1 40484:1 40501:1 40506:1 
0 0 0 0 0.4559309284387658 0 14395:1 24501:1 34113:1 40455:1 40477:1 40499:1 
0 0 0 0 0.01562098226944485 0 13765:1 25454:1 40455:1 40463:1 40477:1 40484:1 40499:1 40506:1 
0.6010678306297539 0 0 1 0.7935751106013926 0 7181:1 17020:1 27126:1 40435:1 40440:1 40454:1 40462:1 40476:1 40484:1 40493:1 40510:1 
0 0 0 0 0.5622033811685658 0 35135:1 35538:1 40448:1 40470:1 40495:1 40506:1 
0 0.3992832496725875 0 0 1 0 24789:1 25454:1 40457:1 40459:1 40473:1 40484:1 40501:1 40507:1 
0 0 0 0 1 0 40448:1 40470:1 40501:1 40508:1 
1 1 0.6492337937667194 0 0 0.0104334478282342 18389:1 40457:1 40466:1 40473:1 40490:1 40498:1 40509:1 
0 1 1 0 1 0 40448:1 40470:1 40493:1 40506:1 
0 0 0 0 1 0 32519:1 40452:1 40466:1 40477:1 40481:1 40499:1 
0.4149197357957306 0 0.03267659761539777 0.436669543000244 0.6284327258507379 0.2853637222984535 3925:1 18109:1 23162:1 40433:1 40456:1 40462:1 40473:1 40485:1 40494:1 40504:1 
0.08367963083361868 0 0.0252626005469452 0 1 0.07197143651116901 29443:1 32179:1 40426:1 40449:1 40460:1 40471:1 40484:1 40495:1 40509:1 
0.7955933863700971 0 0.1425545641687031 0.5141518247120596 0 0 14320:1 24426:1 40455:1 40462:1 40477:1 40484:1 40512:1 
0.1888895514451279 0 0 0.8299228650172155 1 0.2734572098594394 10351:1 23944:1 30836:1 40428:1 40442:1 40451:1 40465:1 40473:1 40481:1 40499:1 40509:1 
0.2345978353990869 0.03596643039187605 0.01094557054269467 0.9526744950841706 0.0179239025281479 0 33782:1 40446:1 40452:1 40474:1 40495:1 40510:1 
0.2016207160207971 0.2098252049645613 0 0.6118800020309973 1 0.23990869328373 23204:1 40425:1 40443:1 40448:1 40463:1 40473:1 40490:1 40494:1 40506:1 
0 0 0 0.1255053988294994 0 0 7964:1 39672:1 40427:1 40444:1 40448:1 40470:1 40498:1 40506:1 
1 1 1 1 1 0.1090639455570805 40433:1 40444:1 40457:1 40479:1 40494:1 40506:1 
0 0 0 0 1 0 40448:1 40470:1 40496:1 40507:1 
0.04458097090034042 0 0.07510746398621834 0 1 0 39113:1 40448:1 40470:1 40495:1 40506:1 
0 0 0 0 1 0 40448:1 40470:1 40491:1 40509:1 
0.00100559645408244 0.4350344450138157 0 0.7609430307049664 1 0 21268:1 28337:1 40457:1 40465:1 40477:1 40488:1 
1 1 0 1 1 1 40449:1 40463:1 40471:1 40485:1 40499:1 
1 1 1 1 1 0 40457:1 40479:1 40501:1 
0 0 0 1 1 0 40433:1 40444:1 
1 1 0 0 1 1 40452:1 40474:1 40499:1 
0 0 0 0 0.1886225581446308 0 31190:1 40455:1 40477:1 40495:1 
1 0.2111009327337541 0.02733548257512572 1 1 0 39806:1 40446:1 40499:1 40506:1 
0.2398901216163876 0 0 0 0 0.001651227480677328 19373:1 24426:1 40447:1 40466:1 40477:1 40490:1 40499:1 40508:1 
0 0.1471484930910778 0.5318847737069353 0 1 0 40426:1 40448:1 40470:1 40493:1 40502:1 
0 0.08255818855995611 0.192335177008727 0 1 0.8845367818066793 14137:1 38031:1 40455:1 40466:1 40479:1 40481:1 40493:1 40510:1 
0.3436288922920017 0.5929239825550044 0 1 1 0.05205057232269819 24624:1 40425:1 40443:1 40452:1 40466:1 40473:1 40487:1 
0 0.08749181147510783 0.2208304146703912 1 1 0 6918:1 40429:1 40440:1 40494:1 40512:1 
0 0 0 0 1 0 39780:1 40448:1 40470:1 40498:1 40506:1 
0 1 0 0 1 1 40447:1 40465:1 40473:1 40487:1 40498:1 40511:1 
0.1981744303254472 0 0 1 0 0 36032:1 40433:1 40444:1 40452:1 40474:1 40493:1 40506:1 
0 1 1 1 1 0 40429:1 40446:1 40449:1 40459:1 40471:1 40481:1 
1 1 1 1 1 0 40429:1 40446:1 40457:1 40479:1 40495:1 40506:1 
0 0 1 1 1 0 40431:1 40443:1 40448:1 40470:1 40493:1 40502:1 
0 0 0 1 1 0 34113:1 40427:1 40446:1 40449:1 40463:1 40479:1 40485:1 40499:1 40509:1 
0 0 0 0.9495099180616271 0.8908834308595154 0 2857:1 40433:1 40444:1 40448:1 40470:1 40499:1 40505:1 
0 0 0 0 1 0 39780:1 40448:1 40470:1 40498:1 40506:1 
0.6266372759379103 0 0 0.3625552935186962 0.559236723022249 0 16624:1 40435:1 40448:1 40466:1 40478:1 40481:1 40501:1 40508:1 
0 0 0 0.6959777756599588 0 0 18419:1 24901:1 27126:1 35358:1 40435:1 40437:1 40449:1 40462:1 40477:1 40484:1 40499:1 40511:1 
1 0.1719352947316233 0 1 1 0 32685:1 40446:1 40499:1 
1 0 0 1 1 0.04093260842348824 10724:1 40435:1 40444:1 40455:1 40468:1 40479:1 40488:1 40496:1 40512:1 
0 0 0 1 0 0 31166:1 40428:1 40442:1 40447:1 40464:1 40472:1 40486:1 40499:1 40505:1 
0 0.393509216697717 0.2530958001350331 0.3479238679916082 0 0 5041:1 6330:1 13193:1 23299:1 40429:1 40444:1 40451:1 40473:1 
0 0 0 0 0.9745012390502433 0 38456:1 40491:1 40510:1 
1 1 1 1 1 0 40435:1 40446:1 40455:1 40477:1 40501:1 40506:1 
0 0 0 0.005370048155756019 1 0 39945:1 40428:1 40442:1 40448:1 40470:1 40498:1 40506:1 
0 0 0 0.06561362078888169 0.6675222057767882 0 4278:1 9678:1 40433:1 40444:1 40448:1 40470:1 40493:1 40502:1 
1 0 1 1 1 1 40429:1 40446:1 40449:1 40466:1 40477:1 40485:1 40493:1 40510:1 
1 0.4167886220252536 0.2176698610087757 0 0 0 33061:1 39831:1 40457:1 40466:1 40479:1 40481:1 40499:1 40510:1 
1 1 0 0 1 0 40448:1 40470:1 40494:1 40506:1 
0.2186744387144438 0 0 0.9891890213505088 0.6112944145784954 0 9486:1 35889:1 40435:1 40440:1 40448:1 40463:1 40475:1 40487:1 40493:1 40510:1 
0.3310039432245461 1 0.6364533563945257 1 1 1 3595:1 40429:1 40444:1 40457:1 40479:1 40499:1 40512:1 
0 0.3906416744762148 0 0.7627211740260774 1 0.4980137201884258 5424:1 37834:1 40433:1 40440:1 40448:1 40470:1 40496:1 40506:1 
0 0 0 0 0 0.003815607228912418 5964:1 12578:1 22684:1 40435:1 40440:1 40455:1 40465:1 40477:1 40487:1 
0.3152950193038891 0.1453921917176016 0.3150594402120858 0.4460260908307187 0 0 10295:1 23255:1 28357:1 40435:1 40451:1 40466:1 40473:1 40484:1 
1 1 1 0.1376445711877648 1 0 40457:1 40479:1 
1 0 1 0 1 1 40449:1 40466:1 40477:1 40484:1 40499:1 40510:1 
0 0 0 0 1 0 35618:1 40448:1 40470:1 40493:1 40510:1 
0 0.4681214613163016 0 0 1 0 30847:1 35557:1 40449:1 40463:1 40471:1 40481:1 40499:1 40510:1 
0.2493203668431578 1 0.5768196929966434 0.05870290552692364 1 0 32547:1 40457:1 40479:1 40499:1 40510:1 
0 0 0.489561765556225 1 1 0 4269:1 40433:1 40446:1 40448:1 40470:1 40498:1 40506:1 
0 0 0 0 1 0 40496:1 40510:1 
0.3831246292965669 0.116591331905553 0 0.05193846332214028 0 0 16005:1 21107:1 27083:1 39185:1 40426:1 40454:1 40462:1 40473:1 40488:1 40498:1 40506:1 
0 0 0 0 0.5360879730836844 0 38241:1 40499:1 40506:1 
0.4009743567805963 0.3303561058534055 0.09650011497079314 0 0.235252479138818 0 20082:1 31183:1 40424:1 40455:1 40462:1 40479:1 40488:1 40499:1 40510:1 
0.1033776427488619 0 0.0365408454079421 1 0.4070937322137997 0 17152:1 27258:1 40435:1 40456:1 40466:1 40478:1 40488:1 40496:1 40511:1 
0.568300463788858 0.2639521236207191 0.6641888682274674 1 1 0 5424:1 15146:1 33142:1 40432:1 40440:1 40455:1 40466:1 40477:1 40485:1 40499:1 40505:1 
0 0 0 0 1 0 15024:1 25130:1 34113:1 40455:1 40460:1 40477:1 40482:1 40499:1 40512:1 
1 0.1589467004398217 0.01645162323603004 0 1 0 40155:1 40499:1 40506:1 
1 1 1 1 1 1 40427:1 40444:1 40455:1 40477:1 40492:1 40506:1 
1 1 0 1 1 0 40426:1 40452:1 40474:1 40501:1 40504:1 
0 0 0 0.8403106342228426 0 0 16716:1 32397:1 39699:1 40428:1 40442:1 40448:1 40462:1 40475:1 40487:1 40495:1 40510:1 
0 0 0 0 1 0 39780:1 40448:1 40470:1 40498:1 40506:1 
0.7083469404994517 0.02292157994136107 0 1 1 0.02630729288278053 9696:1 32350:1 40427:1 40444:1 40452:1 40474:1 40499:1 
0 0 0.1468314336119069 0.7662843382325584 0 0 4577:1 5242:1 37104:1 40429:1 40440:1 40448:1 40470:1 40499:1 40506:1 
0 0 0 0 0.0004251045454175985 0 14211:1 24317:1 31856:1 40455:1 40477:1 40499:1 40506:1 
0.257081525797871 0 0 0 0.3084569398839166 0 22489:1 25783:1 40455:1 40458:1 40473:1 40488:1 40495:1 
0.2885012509637058 0.09376543607279061 0.07744808039308576 0 0.6027105606412635 0.01386614383343955 27179:1 32384:1 40449:1 40460:1 40471:1 40488:1 40499:1 40506:1 
0 0 0 0 0.247431424705406 0 30763:1 40452:1 40466:1 40477:1 40481:1 40495:1 40504:1 
0.6722223801053361 0 0 0 0 0 20556:1 33868:1 40457:1 40462:1 40477:1 40481:1 40499:1 
0 0 0 0.196003864426256 0 0 17020:1 29908:1 36617:1 40435:1 40455:1 40462:1 40473:1 40488:1 40496:1 40506:1 
0 0 0 0 0.3101330216717705 0.3517200587265849 2600:1 17020:1 25239:1 40429:1 40444:1 40454:1 40462:1 40473:1 40484:1 
0 0 0 0 0.9122776688654856 0 17020:1 27126:1 33167:1 36922:1 40448:1 40462:1 40470:1 40484:1 40495:1 40506:1 
0 0 0 0 1 0 17020:1 27126:1 40448:1 40462:1 40470:1 40484:1 40501:1 40510:1 
0 0 0 1 1 0 40446:1 40448:1 40470:1 40499:1 40505:1 
0.8564346856187608 0.3297774918502449 0.28324662844033 0 1 0 36327:1 40455:1 40477:1 40499:1 40506:1 
0 0.5612969436303545 0 0 1 0 40448:1 40470:1 40493:1 40511:1 
0.2432909274709892 0 0 0 0.1115569315410702 0 6914:1 14747:1 18348:1 40426:1 40440:1 40451:1 40462:1 40469:1 40487:1 40499:1 40512:1 
1 1 1 0 1 1 40455:1 40477:1 40501:1 40510:1 
0.8147528872427579 0.2475002895025685 0.07780144810540114 0 1 0.418592923406521 38966:1 40498:1 40506:1 
0 0 0 1 1 0 40435:1 40446:1 40448:1 40470:1 40496:1 40510:1 
1 0 0 0 1 0 40000:1 40451:1 40463:1 40473:1 40485:1 40499:1 40506:1 
0.1105358490160575 0.1012410250128395 0.09736475185243351 0.7148491234069171 0.5849661759533592 0.233927796921625 16292:1 26398:1 36703:1 40435:1 40449:1 40466:1 40471:1 40488:1 40498:1 40506:1 
0.3307008960991873 1 0.6782569234677823 0.1435600261878973 1 0 35412:1 40457:1 40479:1 40499:1 40506:1 
0.8523327815502177 1 1 1 1 1 40433:1 40446:1 40457:1 40479:1 40499:1 40511:1 
0.009591654196400852 0.0003663624571479188 9.593823060168938e-05 0 0 0.001069454719432049 8868:1 12479:1 20777:1 29425:1 40433:1 40444:1 40455:1 40468:1 40473:1 40488:1 
0.01640249261130133 0 0 0 1 0 30518:1 40448:1 40470:1 40499:1 40510:1 
0 0 0 0 1 0 15024:1 31166:1 40455:1 40460:1 40471:1 40481:1 40499:1 
0.4348073348864973 0.8337203826775657 0.3759912008698491 0.2807838131948812 0.4212156592491998 0 5242:1 20563:1 34750:1 36149:1 40426:1 40440:1 40450:1 40464:1 40477:1 40490:1 40499:1 40506:1 
0 1 0 0 1 0 40448:1 40470:1 40501:1 40506:1 
0 0.2483133932490324 0 0 1 0 38754:1 40501:1 40506:1 
0.9453547738161443 0 0.09474477524716966 0.9960898667456635 0.9959229379725035 0 16624:1 40435:1 40448:1 40466:1 40478:1 40481:1 40501:1 40508:1 
0.03901362242627592 0.909247712991993 0.2160887392424665 0.04448016964732835 0.6389303832127184 0 22925:1 40448:1 40468:1 40473:1 40490:1 40501:1 40509:1 
0.1435818670225365 0 0 0.4877353585968761 0.04934492180662502 0 11281:1 19618:1 27301:1 40433:1 40440:1 40455:1 40462:1 40477:1 40484:1 
0 0 0 0 1 0 31908:1 40455:1 40459:1 40477:1 40481:1 40499:1 40512:1 
0.1524565409904934 0.02856044686263121 0.05693111805933211 0 0.09702948592529037 0 19929:1 24982:1 28899:1 40455:1 40462:1 40473:1 40488:1 
0.09183586943520834 0 0 0 1 0 6914:1 40429:1 40440:1 40452:1 40463:1 40474:1 40485:1 40499:1 40504:1 
0 0 0 1 0 0 17872:1 39780:1 40434:1 40446:1 40457:1 40462:1 40469:1 40481:1 40498:1 40506:1 
1 1 0 1 1 0 38140:1 40492:1 40510:1 
0 0 0 0 1 0 40448:1 40470:1 40501:1 40507:1 
0 0 0 0.5245564693299493 0 0 4269:1 32505:1 40433:1 40444:1 40449:1 40463:1 40471:1 40485:1 40495:1 40502:1 
0.8081803253256101 1 0 1 1 0 7328:1 40435:1 40444:1 40501:1 40506:1 
0 0 0 0 1 0 17436:1 27126:1 40452:1 40462:1 40477:1 40484:1 40495:1 
0 0 0 0 1 0 11272:1 21378:1 40289:1 40455:1 40466:1 40477:1 40488:1 40501:1 40510:1 
1 1 1 1 1 0 40435:1 40440:1 40457:1 40462:1 40479:1 40487:1 
0 0 0 0 0.0005212805925232673 0 11397:1 16024:1 21503:1 26130:1 40451:1 40466:1 40473:1 40488:1 
1 0 0 0 0 0 38568:1 40448:1 40470:1 40496:1 40510:1 
1 1 0.6245810318154883 0 1 0 39867:1 40493:1 40510:1 
1 1 1 1 1 0 40429:1 40446:1 40457:1 40479:1 40501:1 40506:1 
0 0.26711717000872 0 1 0.1977411303274588 0 38687:1 40435:1 40446:1 40449:1 40459:1 40471:1 40481:1 40493:1 40510:1 
1 0 0 1 1 0.1237636090909583 533:1 37364:1 40429:1 40444:1 40455:1 40463:1 40477:1 40485:1 40498:1 40510:1 
0.610996283956218 0.206285311716317 0.04011427177508576 0.4150578844099116 0 0.2745783584191945 846:1 8689:1 10219:1 20325:1 37232:1 40429:1 40444:1 40455:1 40477:1 40498:1 40506:1 
0.1165017866265043 0 0.05499272339858863 0.9824489692610572 0.0683309071273463 0 8340:1 36757:1 40435:1 40440:1 40448:1 40462:1 40479:1 40485:1 40495:1 40510:1 
1 0.7564222819760826 0 1 1 0 24243:1 35429:1 40429:1 40446:1 40449:1 40468:1 40477:1 40481:1 40498:1 40506:1 
1 1 1 1 1 0.07350423442957738 40429:1 40446:1 40457:1 40462:1 40473:1 40490:1 40501:1 40506:1 
1 0 0 0 1 0 40452:1 40474:1 40493:1 40510:1 
1 1 1 1 1 0.1816460532592791 40429:1 40446:1 40457:1 40462:1 40473:1 40490:1 40501:1 40506:1 
0 1 0 1 1 0 40426:1 40449:1 40459:1 40471:1 40481:1 40499:1 40509:1 
0 0.16213419848756 0.2017497012281647 0 0.09606526099389788 0.03546887986500437 10343:1 17798:1 40379:1 40455:1 40462:1 40479:1 40487:1 40491:1 40506:1 
0 0 0 0 0.0618434777804012 0 9680:1 39780:1 40429:1 40440:1 40448:1 40470:1 40498:1 40506:1 
0.5159592240798716 0.2199336474197728 0.1212828341809691 0.3635795506810982 0 0.1157310034442704 9425:1 13901:1 24007:1 38595:1 40429:1 40444:1 40455:1 40468:1 40477:1 40490:1 40498:1 40510:1 
0 0 0 0 1 0 34040:1 40448:1 40470:1 40495:1 40505:1 
0 0 0 0 1 0 33868:1 40448:1 40470:1 40499:1 40505:1 
0 0 0 0.9462098099994165 0 0 3728:1 40433:1 40444:1 40491:1 40509:1 
1 0.8230591962224207 0.5575932553587434 0.1643800178524715 1 0.099765125559121 29975:1 40449:1 40459:1 40476:1 40484:1 40499:1 40509:1 
1 0 1 0 1 0 37499:1 40448:1 40470:1 40498:1 40506:1 
0.311715257574645 0.1412411078352079 0.07811828064279421 0.0318540384371916 1 0.002203164656478444 12666:1 22772:1 40455:1 40477:1 
0 0 0 1 1 0 35715:1 40435:1 40446:1 40448:1 40470:1 40491:1 40510:1 
0.1190143921351744 0 0 0.2837608122181839 0.3867245673410194 0 11305:1 30835:1 36219:1 40451:1 40463:1 40479:1 40481:1 40495:1 40510:1 
0 0 0 1 0.140342816570366 0 35862:1 40428:1 40442:1 40448:1 40470:1 40496:1 40506:1 
0 0.121566787738489 0 0 0 0 31780:1 40433:1 40457:1 40479:1 40495:1 40507:1 
0 1 1 1 1 0 40429:1 40446:1 40501:1 40506:1 
0 1 0.4773347603663052 1 1 0 34243:1 40457:1 40479:1 40499:1 40511:1 
0.3170647536121184 0 0.4021655525692041 0 0 0.591686969700286 11910:1 33034:1 40455:1 40460:1 40471:1 40481:1 40499:1 
0 0 0.9989891792808221 0 0.9555741477715989 0.01303664961904517 29703:1 40452:1 40461:1 40473:1 40484:1 
0 0.3555656816146947 0 0.7102603901889694 0 0.2657187790420597 3131:1 18493:1 36427:1 40433:1 40446:1 40449:1 40466:1 40471:1 40485:1 40492:1 40510:1 
0 0 0 0 1 0 40448:1 40470:1 40491:1 40512:1 
0 0 0 0 1 0 40448:1 40470:1 40491:1 40510:1 
0 0.67501776092485 0 0 1 0 38708:1 40448:1 40470:1 40494:1 40510:1 
0.004068789179148513 0.8003106357292716 0 0.861691354324183 0.2734254156717624 0 20624:1 40457:1 40460:1 40473:1 40488:1 
1 0 0 0 1 0 14320:1 40455:1 40459:1 40470:1 40488:1 40499:1 40509:1 
0 0 0.100896636491195 1 1 0 38708:1 40431:1 40443:1 40448:1 40461:1 40475:1 40487:1 40496:1 40510:1 
0.1681577017282813 0.4517421819955587 0.1409382515077721 0 0.2816078949092866 0 16575:1 23217:1 40457:1 40462:1 40473:1 40488:1 40512:1 
0 0 0 1 1 0 40428:1 40440:1 40448:1 40470:1 40496:1 40512:1 
0.9520363102363061 0 0.3700661227378545 0 1 0 10855:1 40451:1 40458:1 40479:1 40484:1 40512:1 
0.005354670399217833 1 0.2275094372414516 0 0.7295268655873264 0 30931:1 37931:1 40427:1 40441:1 40457:1 40479:1 40499:1 40510:1 
0 0 0 0.4193937309371469 0 0 25276:1 40433:1 40449:1 40466:1 40470:1 40488:1 40501:1 40506:1 
0.009627241509862848 0.0198295364700411 0 0.8342711581450764 1 0 1257:1 32143:1 38632:1 40433:1 40441:1 40448:1 40470:1 40495:1 40510:1 
0.3494036234507861 0 0.04171891106807676 0 1 0 26370:1 40447:1 40465:1 40476:1 40484:1 
1 0 0 1 1 0 39340:1 40434:1 40444:1 40450:1 40463:1 40477:1 40488:1 40498:1 40506:1 
0.3205680935611092 0 0 0.3922443790074722 0.1340915592215322 0 1277:1 10989:1 18106:1 21095:1 28212:1 40433:1 40443:1 40451:1 40466:1 40473:1 40488:1 
0 0.7999487483360651 0 0 0.09657706322229942 0 14758:1 24864:1 33087:1 40451:1 40473:1 40499:1 
0 0 0 0 1 0 17020:1 27126:1 40435:1 40448:1 40462:1 40470:1 40484:1 40494:1 40507:1 
1 1 1 1 1 0 40429:1 40446:1 40451:1 40473:1 40501:1 40504:1 
0.3692172167864122 0.001534286767651199 0.05024155067952061 0 0.3288607181047652 0 11323:1 21429:1 33095:1 40455:1 40477:1 40499:1 40509:1 
0 0 0 0 0.2197719947084135 0 17428:1 27534:1 40447:1 40466:1 40469:1 40488:1 40512:1 
1 1 1 0 1 0 40457:1 40479:1 40493:1 40507:1 
0 0 0 0 1 0 15348:1 25454:1 40448:1 40462:1 40470:1 40484:1 40501:1 40504:1 
0 0.06997253159733123 0 0 1 0.1379568343868934 14087:1 40455:1 40460:1 40471:1 40488:1 40512:1 
0 0 0 0 0 0.002218060405837317 2075:1 26090:1 40429:1 40444:1 40448:1 40461:1 40479:1 40484:1 
0 0 0 0 1 0 17020:1 27126:1 38551:1 40454:1 40462:1 40476:1 40484:1 40496:1 40506:1 
0.2840915868054426 0 0 0 1 0 15571:1 27346:1 33197:1 39093:1 40446:1 40448:1 40462:1 40469:1 40484:1 40495:1 40506:1 
1 1 1 1 0.6493541225054255 0 9262:1 40429:1 40440:1 40448:1 40468:1 40473:1 40490:1 40498:1 40512:1 
1 0.1840668972962681 0.2495001191818598 0.1900397427724775 1 0 9447:1 11451:1 40430:1 40444:1 40451:1 40464:1 40475:1 40490:1 40493:1 40510:1 
0 0 0 0 1 0 9899:1 33836:1 36707:1 40435:1 40440:1 40448:1 40470:1 40499:1 40510:1 
0.6942672785623839 0 0 0 0.8795400533484825 0 40412:1 40448:1 40470:1 40496:1 40506:1 
0.2537027555973134 0 0.1356042231206112 1 1 0 728:1 28682:1 40429:1 40442:1 40449:1 40466:1 40471:1 40488:1 40499:1 40512:1 
0.3985382466320437 0.9292533042122832 0 0 1 0 33744:1 36216:1 40448:1 40470:1 40495:1 40510:1 
0.6764434685410211 0.7995292329671545 0.3210616997238988 0 0.5703765583246303 0.04653162711312458 10784:1 18564:1 40455:1 40462:1 40479:1 40488:1 40495:1 
0 0 0 0 1 0 9678:1 40433:1 40444:1 40448:1 40470:1 40493:1 40507:1 
0 0 0 0 0.2323372238677902 0.1923847263913495 12410:1 27301:1 33136:1 40455:1 40463:1 40474:1 40484:1 40499:1 
0 0 0 0.3481691824923044 0 0 7576:1 39948:1 40426:1 40444:1 40448:1 40470:1 40498:1 40506:1 
0.05317047358388255 1 0.9205006229135786 1 1 0 9899:1 40435:1 40440:1 40457:1 40479:1 40501:1 40502:1 
1 0 1 1 1 0 40429:1 40448:1 40466:1 40470:1 40488:1 40495:1 
0 0 0 0 1 0 17020:1 22073:1 40451:1 40462:1 40473:1 40485:1 40491:1 40505:1 
0 0 0 0 0.6385141140723173 0 32376:1 40430:1 40448:1 40470:1 40495:1 40507:1 
0 0 0 0.1999804483263525 1 0.00864705383693381 3390:1 30183:1 40433:1 40443:1 40456:1 40458:1 40469:1 40488:1 40499:1 40502:1 
0 0 0 0 0.04230867512545341 0 12473:1 22579:1 34763:1 40324:1 40455:1 40459:1 40477:1 40481:1 40499:1 40510:1 
0.8180034692739996 0.01348118641467026 0 0 0 0 10253:1 15989:1 40451:1 40462:1 40479:1 40488:1 40493:1 40510:1 
0.2857218298049617 0 0 1 1 0 6287:1 34060:1 40435:1 40444:1 40448:1 40470:1 40495:1 40502:1 
1 0 0 1 1 0 40435:1 40446:1 40447:1 40463:1 40472:1 40486:1 40492:1 40512:1 
0 1 1 1 1 0 32733:1 40430:1 40457:1 40479:1 40499:1 40509:1 
0 1 0 0 1 0 40493:1 40510:1 
0.5773724453382865 0.1593256771505038 0.05251815344875108 1 0.3233795227766775 0.03515968177534574 14067:1 15205:1 34925:1 40435:1 40446:1 40455:1 40462:1 40473:1 40485:1 40499:1 40512:1 
0 0 0 0 1 0 36219:1 40448:1 40470:1 40493:1 40510:1 
0 0 0 0 1 0 17020:1 27126:1 40454:1 40462:1 40476:1 40484:1 40492:1 40510:1 
0.0003803245441836465 0 0 0 0 0.002162894916681178 12410:1 16869:1 37232:1 40455:1 40466:1 40479:1 40488:1 40501:1 40506:1 
0 0.2460964603750021 0 0 1 0 40448:1 40470:1 40498:1 40512:1 
0 0 0 1 0.6922498018747045 0 6236:1 39908:1 40435:1 40444:1 40448:1 40470:1 40498:1 40506:1 
1 1 1 0 1 1 40449:1 40466:1 40479:1 40487:1 
1 1 1 0 1 0.9959604943530371 40447:1 40464:1 40475:1 40490:1 40501:1 40506:1 
0.08388100678967561 0.1209742315765091 0 0 1 0 34160:1 40455:1 40477:1 40495:1 40502:1 
0 0 0 0 0.1623715198527822 0 34131:1 36856:1 40448:1 40470:1 40499:1 40510:1 
0 0 0 0.1357093704238711 0 0 4397:1 7994:1 40429:1 40444:1 40457:1 40468:1 40479:1 40481:1 40501:1 40506:1 
0 0 0 1 0 0 12142:1 22248:1 40435:1 40441:1 40451:1 40473:1 40493:1 40510:1 
0.01532792885372209 0.4139086621654967 0.2625210928308462 0.3091141328746448 1 0 2584:1 40429:1 40448:1 40470:1 40501:1 40509:1 
0.6794482057579193 0 0.7503070391713298 0.4158958182220978 0.06281739324235143 0 17645:1 20958:1 37165:1 40427:1 40454:1 40462:1 40477:1 40481:1 40498:1 40506:1 
1 1 1 0 1 1 40455:1 40477:1 40496:1 40506:1 
0 0 0 0 1 0 39780:1 40448:1 40470:1 40498:1 40506:1 
0 0 0 0 0 0.007224045517198721 14483:1 26761:1 30715:1 36890:1 40451:1 40479:1 40484:1 40495:1 40510:1 
0.06162761576129509 0.7235813251210275 0.2340813892593894 0.1743412645139434 0.2558926123524607 0 1810:1 19860:1 40072:1 40429:1 40443:1 40457:1 40462:1 40479:1 40481:1 40501:1 40506:1 
0.5585298330021489 0.03045852922844619 1 1 1 0 266:1 8164:1 18358:1 28464:1 40429:1 40440:1 40448:1 40462:1 40470:1 40484:1 40500:1 40507:1 
1 0 0.1644209737538742 0 0 0.2303332525654674 16373:1 40452:1 40462:1 40472:1 40486:1 40492:1 40511:1 
0 0 0 0.9371900555009092 1 0 38943:1 40491:1 40506:1 
0 0 0 0 1 0 39780:1 40426:1 40446:1 40448:1 40470:1 40498:1 40506:1 
0 0 0 0 1 0 40496:1 40510:1 
0.9428586440695911 0.02336203693081038 0.1833888044907583 0 1 0 11997:1 34332:1 40451:1 40458:1 40479:1 40488:1 40495:1 
1 1 1 0 1 0 40448:1 40470:1 40499:1 40506:1 
0 0 0 0 0.01290227622219929 0 23230:1 34727:1 40457:1 40463:1 40477:1 40481:1 40495:1 
0 0 0 0 1 0 17020:1 27126:1 40448:1 40462:1 40470:1 40484:1 40498:1 40504:1 
1 0 0.812554463844018 0 0 0 1318:1 26484:1 34040:1 40429:1 40446:1 40448:1 40462:1 40473:1 40484:1 40495:1 
0 0 0 0 1 0 11967:1 22073:1 40451:1 40473:1 40501:1 40507:1 
1 1 1 1 1 0 40429:1 40446:1 40457:1 40462:1 40473:1 40490:1 40501:1 40506:1 
1 1 1 1 1 0 40457:1 40479:1 40499:1 
0.7213649809743075 0 0 1 1 1 377:1 40429:1 40440:1 40452:1 40474:1 40499:1 40509:1 
1 1 1 1 1 0.0617971174394642 36309:1 40429:1 40446:1 40457:1 40462:1 40473:1 40490:1 40498:1 40506:1 
0.2266707000981164 0.1579270170670036 0.1318452860062488 0.3820617393777824 1 0 10265:1 20371:1 40451:1 40473:1 40496:1 40506:1 
0.3574042579530011 0 0 0.9547352695496268 0.6782332863570296 0 8071:1 36524:1 40427:1 40444:1 40448:1 40470:1 40498:1 40506:1 
1 0.5243177395523801 0.7213869713711593 0.6896816654805749 1 0.05888325726475307 13078:1 40455:1 40468:1 40479:1 40480:1 40493:1 40506:1 
1 0.1810396955257518 0.6840546090613704 1 0.9410415466824132 0.1405558667153318 5836:1 29335:1 38425:1 40429:1 40440:1 40457:1 40463:1 40470:1 40484:1 40496:1 40506:1 
0.3909477685081305 0.02021795855476036 0.002214597261818401 0 0.4754680096088246 0.05431590950096978 28629:1 40449:1 40460:1 40471:1 40488:1 
0 0 0 0.8866997409139441 0 0 15552:1 25658:1 34040:1 40426:1 40441:1 40452:1 40462:1 40474:1 40484:1 40495:1 40505:1 
1 0 1 0 1 0 40452:1 40474:1 40493:1 40502:1 
1 0 0.0002478843054572718 0.7249462684824491 0.5804186084126163 0.05599509130406295 37330:1 40433:1 40447:1 40466:1 40477:1 40490:1 40501:1 40506:1 
0 1 0 1 1 0 40426:1 40448:1 40470:1 40500:1 40506:1 
0 0.2896121254468931 0.1488466619168478 1 1 0 2896:1 40429:1 40443:1 40448:1 40470:1 
0.4992184273833809 1 0.1772228326060069 0 0 0 17719:1 27825:1 40457:1 40466:1 40479:1 40488:1 40512:1 
1 1 1 1 1 0 40430:1 40444:1 40457:1 40479:1 40493:1 40510:1 
0 0 0 0 1 0 3813:1 40433:1 40443:1 40448:1 40470:1 
0 0.01691328686544934 0 0 0 0 412:1 9907:1 34040:1 40110:1 40429:1 40440:1 40457:1 40479:1 40495:1 40510:1 
0.8060683924844457 0.1027155259638314 0.2568011477798889 0.3499912441276057 1 0.3178666347063243 30183:1 37803:1 40457:1 40467:1 40469:1 40488:1 40501:1 40506:1 
0 1 0.8660403724993623 1 1 0.1670503123843221 33124:1 35971:1 40446:1 40499:1 40510:1 
0 0 0 0 0.975349942477462 0 40001:1 40448:1 40470:1 40491:1 40510:1 
0 0.7587669225082848 0 0 1 0 14515:1 40219:1 40426:1 40451:1 40468:1 40479:1 40487:1 40493:1 40510:1 
0.3182246857126441 0 0.03285818904270935 0.02618891604124885 0.2855064283138321 0 12485:1 29241:1 40451:1 40460:1 40473:1 40488:1 40512:1 
0.7722238015974385 0.07943065336901269 0 0 0.6081282859432515 0.02278368238995649 14855:1 30715:1 40451:1 40466:1 40490:1 40495:1 40507:1 
1 1 1 0 1 0 40457:1 40479:1 40494:1 40508:1 
0 0 0 0.173171298592417 0.9082016526799976 0 837:1 34852:1 38006:1 40433:1 40446:1 40455:1 40477:1 40499:1 40510:1 
0 0 0 0 1 0 33868:1 40499:1 
0.7763721023366477 0.7483648356925489 0.407301739109164 1 0.1900974623093695 0.07255398510851625 12715:1 22821:1 40429:1 40446:1 40451:1 40468:1 40473:1 40490:1 40501:1 40506:1 
0 0 0 1 1 0 40428:1 40443:1 40448:1 40470:1 
0 0 0 0 0.03926354473348052 0 15348:1 25454:1 40454:1 40462:1 40476:1 40484:1 40496:1 40511:1 
0 0 0 0 1 0 40448:1 40470:1 40496:1 40510:1 
0 1 0 1 1 0 40435:1 40448:1 40470:1 40498:1 40512:1 
0 0 0 0 1 0 40495:1 40512:1 
0 0 0 0.04849399087478941 0 0 5964:1 12578:1 22684:1 40435:1 40440:1 40455:1 40465:1 40477:1 40487:1 
0 0 0 0 1 0 15348:1 25454:1 34356:1 39910:1 40429:1 40446:1 40452:1 40462:1 40474:1 40484:1 40499:1 40510:1 
0 0 0 1 0 0 35453:1 40435:1 40444:1 40451:1 40466:1 40473:1 40488:1 40495:1 40510:1 
0 0 0.05614687970459548 1 1 0 39166:1 40435:1 40457:1 40461:1 40479:1 40485:1 40491:1 40510:1 
0.441560150698373 0 0.4641798056636655 0.7699277959165344 0.6058552516064245 0 12728:1 16450:1 21503:1 26130:1 39240:1 40435:1 40451:1 40462:1 40473:1 40488:1 40498:1 40506:1 
0.2021102704629412 0.8395858310115741 0.2322163619611872 0.0268341019508257 0.4310601710930744 0 18307:1 20401:1 40426:1 40457:1 40466:1 40473:1 40490:1 40501:1 40506:1 
0 0.005135671942093249 0 0 0 0 13614:1 30836:1 39572:1 40451:1 40466:1 40479:1 40481:1 40499:1 40506:1 
0 0 0 0 1 0 25454:1 40455:1 40460:1 40474:1 40484:1 40501:1 40506:1 
0.3430210810902425 0.3356898858231431 0.2956303615063286 0 0.6088092153767632 0 34097:1 38067:1 40450:1 40464:1 40479:1 40488:1 40499:1 40506:1 
0 0 0.01519204914933854 0.2931533910982115 0 0 2687:1 9322:1 30979:1 35900:1 40429:1 40444:1 40457:1 40479:1 40495:1 40510:1 
0 0.05330832447832391 0 0 1 0 19190:1 24243:1 34727:1 40455:1 40466:1 40477:1 40481:1 40495:1 40512:1 
0 0.2303950800299261 0.03943513876526042 1 1 0 36922:1 40427:1 40446:1 40493:1 40506:1 
0 0 0.0001124328912906295 0 0 0 15778:1 21399:1 28006:1 40426:1 40454:1 40462:1 40473:1 40484:1 
0.9935529537309322 0 0.2723306143142017 1 1 0 7545:1 40427:1 40440:1 40493:1 40502:1 
0 0 0 0 0 0.01212447300480347 9322:1 14758:1 34113:1 40435:1 40444:1 40451:1 40468:1 40479:1 40490:1 40499:1 40509:1 
0 0 0 0 0.08269950665582204 0 10855:1 19489:1 20961:1 29595:1 40451:1 40466:1 40473:1 40488:1 40512:1 
1 1 1 1 1 0 40435:1 40437:1 40455:1 40477:1 40499:1 40506:1 
0 0 0 0 1 0 32790:1 40430:1 40448:1 40470:1 40499:1 
0 0 0 0 0 0.03731528604726903 15250:1 20303:1 39383:1 40454:1 40462:1 40473:1 40485:1 40493:1 40510:1 
1 0.5103556488159443 0.5582623651668647 0 1 0.09371313061283208 14144:1 40455:1 40466:1 40476:1 40488:1 40501:1 
0.2280708604067005 0 0.04780094427225374 0 0 0.1049060014034053 8040:1 23677:1 25967:1 40433:1 40444:1 40448:1 40461:1 40473:1 40484:1 
0.4090402486908497 0.4627395344492385 0.3215790005115051 0.4922177319340689 0.1886712417699103 0 58:1 8785:1 18068:1 23121:1 28398:1 40429:1 40440:1 40454:1 40462:1 40473:1 40488:1 40495:1 
1 0 0 0 1 0 13765:1 23871:1 40455:1 40463:1 40477:1 40485:1 40499:1 40506:1 
1 0 0 0.05176084716663756 0.5019372808411658 0 14740:1 24231:1 32867:1 40451:1 40468:1 40473:1 40490:1 40499:1 40512:1 
0.4114337841640784 0 0.4297377789967287 0.7892651440730806 1 0 8252:1 27099:1 34113:1 40432:1 40440:1 40452:1 40462:1 40474:1 40484:1 40499:1 
1 1 0 0 1 1 40452:1 40474:1 40499:1 40509:1 
0 0 0 0 0.4873591539862026 0 13193:1 40451:1 40462:1 40478:1 40481:1 40498:1 40512:1 
0 0 0 0 0.2554502573224091 0 2615:1 15908:1 21378:1 33868:1 40429:1 40455:1 40462:1 40477:1 40481:1 40499:1 40512:1 
0 0 0 0 1 0 35226:1 40448:1 40470:1 40499:1 
0 0.438948288854523 0 0 0.254249537340673 0 18326:1 27126:1 40426:1 40457:1 40466:1 40479:1 40484:1 40501:1 
0 0 0 0 1 0 27126:1 40455:1 40458:1 40469:1 40484:1 40498:1 40506:1 
0 0 0 0 1 0 40448:1 40470:1 40494:1 40508:1 
0 0 0.1484226423376667 0 0.004263514643816129 0 6918:1 10295:1 20401:1 34378:1 39406:1 40429:1 40440:1 40451:1 40473:1 40495:1 40506:1 
0.3621612405358332 0.3838556765127784 0.4513332486194906 0.7291163329845575 0.9166767985693062 0 30908:1 40449:1 40462:1 40479:1 40481:1 40495:1 40502:1 
1 0 1 0 1 0 40448:1 40470:1 40493:1 40504:1 
0 1 0.3249658300210024 0 1 0 40448:1 40470:1 40501:1 40506:1 
1 0 1 0 1 0 40448:1 40470:1 40492:1 40507:1 
0.06699052000949193 0.03093343368771556 0 0.2343823103857722 0.9496170652193985 0 17715:1 29474:1 40426:1 40450:1 40466:1 40470:1 40484:1 40498:1 40512:1 
0.5974553004020089 0 0.04386894528951194 1 0.424633892057806 0 11494:1 15265:1 24231:1 40428:1 40441:1 40451:1 40462:1 40473:1 40490:1 40493:1 40506:1 
1 0.8845981562033256 0.2112611796131045 0 0.3347925359465471 0.1290346393633101 12873:1 19037:1 32055:1 40451:1 40462:1 40473:1 40490:1 40495:1 40503:1 
0.6812431564748733 1 1 0.2815456258307084 1 1.561251128379126e-17 38482:1 40457:1 40479:1 40492:1 40506:1 
0 0 0 0 1 0 37801:1 40499:1 40506:1 
1 1 1 1 1 0 40449:1 40458:1 40476:1 40483:1 40498:1 40506:1 
1 0.3706634018589394 1 0 1 0 12285:1 35309:1 40451:1 40466:1 40479:1 40481:1 40499:1 40502:1 
0.00585942316322992 0 0 0 0 0 20831:1 25454:1 35518:1 40452:1 40461:1 40473:1 40484:1 40498:1 40506:1 
0.3484052868082208 0.1439571301809283 0.1389556454883601 0 0.4947815758555394 0 11994:1 27970:1 40451:1 40462:1 40473:1 40488:1 40501:1 40510:1 
0 0 0.02497831455769051 0 1 0 12098:1 15807:1 33142:1 40451:1 40462:1 40477:1 40481:1 40499:1 40506:1 
0 0.352922522292975 0.1915363421253715 0.779907082517041 0 0 3964:1 26760:1 40433:1 40443:1 40457:1 40461:1 40479:1 40488:1 
0 0 0.007138383893696911 1 0.5409704681488516 0 13722:1 23828:1 40435:1 40441:1 40455:1 40465:1 40477:1 40487:1 40493:1 40506:1 
0 0 0 0 1 0 40496:1 40510:1 
1 0 0.2313309085363234 0 1 0 14794:1 24900:1 34404:1 40324:1 40455:1 40477:1 40499:1 40510:1 
0 0 0 1 0 0 34881:1 40433:1 40449:1 40459:1 40471:1 40481:1 40499:1 
0.28170063392032 0 0.3352930626978447 0.5932697986887867 0.6297315565122237 0.0811115329817671 872:1 20624:1 29860:1 39875:1 40429:1 40440:1 40448:1 40461:1 40473:1 40484:1 40496:1 40510:1 
0 0.03313725156561544 1 0 0.01955012509037906 0 17029:1 34603:1 38911:1 40429:1 40443:1 40452:1 40462:1 40479:1 40489:1 40499:1 40506:1 
0.4694008331602154 0 0 0 0.3452998305855394 0.05026161168252255 3358:1 24893:1 30139:1 40433:1 40449:1 40461:1 40473:1 40484:1 
0 0.2035007633017488 0 0.4453090165821255 1 0 38503:1 40433:1 40501:1 40506:1 
0 1 0 0 1 0 40500:1 40507:1 
0.2267435134350116 0 0 0 0 0 18972:1 24025:1 33369:1 40426:1 40454:1 40466:1 40477:1 40488:1 40499:1 40509:1 
1 0.7586108924913206 0.5801114684971641 1 1 0.120095693122718 28435:1 35083:1 40434:1 40454:1 40462:1 40471:1 40488:1 40499:1 40510:1 
1 0.2124959843138424 0.4118964582019066 0.1676057791670897 0.5015766260434459 0.221465566444893 26176:1 39980:1 40454:1 40468:1 40479:1 40484:1 40493:1 40510:1 
0 0 0 0 1 0 40448:1 40470:1 40500:1 40507:1 
0 0 0 1 1 0 40433:1 40500:1 40507:1 
0.7751884140457486 0.2268326141860689 0.1820223989538965 0 1 0.08665333137632071 31732:1 40455:1 40477:1 40499:1 40510:1 
0.2921522871180717 0.4657842628842508 0 0 0.8844651328410159 0 15908:1 22122:1 30485:1 40452:1 40462:1 40473:1 40485:1 40495:1 40509:1 
0 0 0 1 1 0 40435:1 40441:1 40448:1 40470:1 40496:1 40506:1 
0.9725198509142793 0.286555882734671 0.2054775196616578 0 1 0.1616097924866541 17583:1 23020:1 40455:1 40466:1 40477:1 40490:1 40493:1 40510:1 
1 1 1 1 1 0 40457:1 40479:1 40501:1 40506:1 
0.008777335015984973 0 0 0 0 0 11115:1 27126:1 31321:1 40451:1 40467:1 40477:1 40484:1 40499:1 40512:1 
1 1 1 1 1 1 40449:1 40466:1 40471:1 40488:1 40499:1 40509:1 
0 0.006156817234534902 0 0 1 0 24401:1 25658:1 40450:1 40462:1 40473:1 40484:1 40501:1 40506:1 
0.4993899658956478 0.9851166090386063 0.9994171880040681 1 0.9694668448049206 0 35317:1 40427:1 40441:1 40457:1 40479:1 40499:1 
0.0008585299623074987 0 0 0 0 0 2987:1 15152:1 17452:1 22505:1 27387:1 39340:1 40433:1 40443:1 40455:1 40462:1 40473:1 40484:1 40498:1 40506:1 
0 0 0 0 0.03292039363108667 0 35893:1 40448:1 40470:1 40496:1 40510:1 
0 0 0 0 1 0 40496:1 40510:1 
1 0.3765237152296558 0 0.4333082879388427 0.8367286276700845 0.02652069978758708 18972:1 24864:1 40426:1 40437:1 40454:1 40466:1 40473:1 40487:1 
0 0 0 0.1150416493118899 1 0 33369:1 35624:1 40499:1 40506:1 
0.4926743008730567 0 0 0 0.5202441171660993 0 34437:1 40448:1 40470:1 40499:1 40512:1 
0.38934344549993 0.1824800720290227 0 1 0.1906123284633279 0 377:1 6166:1 15146:1 22171:1 40429:1 40444:1 40455:1 40463:1 40473:1 40490:1 40493:1 40506:1 
0 1 0 1 1 0 40435:1 40493:1 40507:1 
0 0 0 0.05719827070852917 0 0 626:1 9735:1 40429:1 40444:1 40448:1 40470:1 
0 0 0 0 1 0 37750:1 40448:1 40470:1 40496:1 40506:1 
0.7422751090738254 0 0.4506693836097761 1 0.617822455700989 0 1891:1 40429:1 40446:1 40455:1 40466:1 40477:1 40488:1 40491:1 40510:1 
0 0 0 0 0.5042331770549374 0 823:1 31143:1 37898:1 40429:1 40448:1 40470:1 40495:1 40510:1 
0 0 0 0.6924771837091999 0 0 39780:1 40435:1 40452:1 40459:1 40474:1 40481:1 40498:1 40506:1 
0.00164146324712218 0.8030500288081749 0 0.6592442764854046 0.06119603118342054 0 9678:1 32043:1 40427:1 40444:1 40448:1 40470:1 40499:1 
0.2226752720999595 0.05001815534876676 0 0.7603306957783595 1 0 33635:1 36394:1 40433:1 40443:1 40449:1 40466:1 40471:1 40488:1 40499:1 40506:1 
0.1740691029944547 0 0 0 1 0 10855:1 20961:1 40451:1 40466:1 40473:1 40488:1 40495:1 40507:1 
1 1 1 0 1 0 40451:1 40465:1 40473:1 40481:1 40495:1 40509:1 
1 0.2499836548887752 0 0 1 0.1977977679533247 10855:1 40451:1 40466:1 40490:1 40499:1 40510:1 
0 1 0 0 1 0 40448:1 40470:1 40501:1 40505:1 
0 0 0 0.3776794504439547 0.1261255587776191 0.01110378059680218 938:1 24401:1 29464:1 40429:1 40455:1 40458:1 40473:1 40484:1 
0 0 0 0.8129905787145404 0 0 27126:1 33637:1 40435:1 40443:1 40449:1 40466:1 40477:1 40484:1 40495:1 40506:1 
0.3835898484120778 0 0 1 0.4691915848026614 0 17918:1 37821:1 40435:1 40446:1 40451:1 40462:1 40469:1 40487:1 40491:1 40510:1 
0 0 0.01388813291843659 0.04908464759224029 0 0 10531:1 22739:1 29006:1 40429:1 40446:1 40451:1 40462:1 40477:1 40484:1 
0 0 0 0 1 0 40448:1 40470:1 40494:1 40512:1 
0 0 0 1 1 0 1810:1 40429:1 40446:1 40448:1 40470:1 40496:1 40512:1 
0 0 0 0 1 0 15908:1 27126:1 40435:1 40452:1 40462:1 40470:1 40484:1 40498:1 40502:1 
0.5288316151331264 0 0.8323013635670168 0 0.4816834366252116 0 13123:1 23229:1 40451:1 40463:1 40473:1 40485:1 40491:1 
0 0 0 0 0 0.01577169186446801 19163:1 29269:1 40452:1 40462:1 40474:1 40484:1 40491:1 40502:1 
0 0 0 0 1 0 9899:1 33836:1 36707:1 40435:1 40440:1 40448:1 40470:1 40499:1 40510:1 
0.02804683476687572 0 0 0.3371099127043253 0 0 18021:1 28127:1 40452:1 40466:1 40474:1 40488:1 
0 0 0 0 1 0 40448:1 40470:1 40496:1 40502:1 
1 1 0 1 1 0 40434:1 40446:1 40449:1 40466:1 40477:1 40487:1 40494:1 40508:1 
0.3316052203465818 0.8325886804732305 0.1507313328377127 0.5352043885057874 0.8272360646126076 0 26051:1 40433:1 40457:1 40463:1 40479:1 40488:1 40495:1 
0 0 0 0 1 0 34727:1 40446:1 40448:1 40470:1 40495:1 40510:1 
0 0 0.389954912916892 0 0.234930628838058 0 15425:1 27405:1 40452:1 40462:1 40479:1 40488:1 40494:1 40508:1 
1 1 1 1 1 0 40427:1 40437:1 40452:1 40467:1 40478:1 40481:1 40496:1 40506:1 
0 1 0 1 1 0.01727974600356721 1261:1 40433:1 40441:1 40448:1 40470:1 40493:1 40511:1 
0.4340825556962014 0.4541300758718841 0.1617569799560686 0 0.9544249538935111 0.005617601728361924 18038:1 37998:1 40426:1 40449:1 40462:1 40476:1 40485:1 40501:1 40506:1 
0 0 0.006628670543124974 0.475556571884759 1 0 12285:1 16697:1 22391:1 26803:1 40451:1 40466:1 40473:1 40488:1 40512:1 
0 0 0 1 0.4547626379384415 0 2808:1 12994:1 23100:1 40433:1 40444:1 40451:1 40473:1 
0.6651090648196366 1 0 0.5323533926932865 0.6267038455031949 0 14758:1 35943:1 40433:1 40446:1 40451:1 40467:1 40478:1 40485:1 40497:1 40510:1 
1 0 0 0 1 0 35429:1 40448:1 40470:1 40499:1 40506:1 
0.09759220644961705 0.07072139329861232 0.4535161033688921 0.1408114349597236 0.03837286496094473 0.02716716569067303 3969:1 5180:1 24865:1 38617:1 40429:1 40440:1 40448:1 40458:1 40473:1 40490:1 40499:1 40506:1 
0.7710210023973911 0 0.3683242096312138 0.3109786967499053 0.5839063163855006 0 4476:1 25454:1 37432:1 40433:1 40454:1 40466:1 40477:1 40484:1 40493:1 40510:1 
0 1 0 1 1 0 40435:1 40446:1 40448:1 40470:1 40493:1 40510:1 
0.772640158043428 0.8986690826725752 0.3590557930601299 1 0.4727223489957231 0.1295649928563042 13443:1 26229:1 40427:1 40437:1 40455:1 40465:1 40473:1 40484:1 
0.1524350633362759 0 0 0 1 0 20077:1 35893:1 40447:1 40466:1 40490:1 40496:1 40510:1 
0 0 0 0.8213938640741812 1 0 40120:1 40429:1 40444:1 40448:1 40470:1 40496:1 40506:1 
0.7182352253180716 0 0.1184791532803574 0 0.2265632306894429 0.1725437587270366 25755:1 39340:1 40452:1 40468:1 40472:1 40488:1 40498:1 40506:1 
0 0 0 0 1 0 34727:1 40448:1 40470:1 40495:1 40510:1 
1 1 1 1 1 1 40426:1 40455:1 40468:1 40477:1 40490:1 40501:1 40506:1 
0.01672264611431259 0 0 0 0 0 12142:1 34442:1 40426:1 40451:1 40462:1 40479:1 40481:1 40495:1 
0.5689871279927453 0 0 0 0.6300581982992627 0 12938:1 24928:1 40451:1 40465:1 40477:1 40487:1 
0 0 0 0 1 0 40448:1 40470:1 40501:1 40507:1 
0.6221185515609373 0 0.02629654776408325 0 0 0 32066:1 40429:1 40449:1 40466:1 40477:1 40488:1 40495:1 
0.1139980517188062 0.2135875851656745 0.1987154113905837 0.8620446267528792 0 0 1281:1 25886:1 35434:1 40429:1 40446:1 40452:1 40462:1 40473:1 40488:1 40498:1 40506:1 
0 0.00467136852589873 0 0 1 0.006405086267076815 18671:1 28777:1 40449:1 40466:1 40471:1 40488:1 40498:1 40506:1 
0.6307631119730325 0.3206020846617405 0.09263174967531211 0.9953189756046044 0.8220385625737749 0 6062:1 40427:1 40440:1 40451:1 40465:1 40473:1 40487:1 40497:1 
0.1628136908266334 0.3032816896791491 0.591221116728483 0 0.5553477777238777 0.3886066321309843 30538:1 37356:1 40449:1 40471:1 40499:1 40510:1 
0 1 0 0 1 0 40493:1 40510:1 
0.2864251485647117 0 0.08183399229750624 0 0.3195734764194857 0 18158:1 23211:1 30075:1 40448:1 40466:1 40477:1 40484:1 40501:1 40506:1 
0 0 0.3331081137939994 0 0.07793803206693801 0 11560:1 27126:1 33031:1 40451:1 40461:1 40477:1 40484:1 40495:1 40508:1 
0 1 0.4051049332449502 1 1 0 254:1 40433:1 40443:1 40457:1 40479:1 40501:1 40504:1 
1 0 0.4646037674318588 0.8951839057671941 0.9820839574904888 0.0542211088701226 26274:1 40455:1 40458:1 40477:1 40484:1 
0.9925367115217687 0 0 0 0.737679479588927 0 36520:1 40455:1 40466:1 40477:1 40488:1 40499:1 40506:1 
0.1319139674860716 0.4135118273765848 0 0 0.04453928854495296 0.007967964871563923 14683:1 18900:1 24789:1 29006:1 40451:1 40462:1 40473:1 40484:1 40496:1 40510:1 
1 0 1 0 1 0 40448:1 40470:1 40492:1 40505:1 
0 0 0.3141769298359287 1 0.9137722777116096 0 3288:1 40429:1 40446:1 40452:1 40466:1 40477:1 40481:1 40499:1 40506:1 
0 0 0 0.3010555437165198 0 0 8842:1 40435:1 40444:1 40448:1 40470:1 40501:1 40512:1 
0 0 0 0 1 0 40494:1 40508:1 
0 0 0 0 0.1337813731192984 0 34113:1 37149:1 40427:1 40444:1 40452:1 40461:1 40479:1 40485:1 40499:1 40510:1 
1 1 0 0 1 0 40448:1 40470:1 40494:1 40506:1 
0.1631067783769609 0 0.2437856929454665 1 1 0 9673:1 40435:1 40440:1 40452:1 40461:1 40475:1 40487:1 40493:1 40507:1 
0 0 0 1 0 0 33979:1 40428:1 40446:1 40448:1 40470:1 40495:1 40503:1 
1 1 1 0 1 0 40448:1 40470:1 40499:1 40506:1 
0 0 0 1 0 0 10096:1 40435:1 40440:1 
0 0 0 0 1 0 40496:1 40510:1 
0.1257537281904511 0 0.7363020994551626 0 0.5816603338064029 0 32305:1 40448:1 40470:1 40499:1 40508:1 
1 0 0 0 1 0.612542873874959 15692:1 40452:1 40462:1 40471:1 40485:1 40500:1 40510:1 
0.4371786669936866 0.06368428419092791 0.06477072313785169 0 1 0.291757035189902 21183:1 33875:1 40455:1 40466:1 40473:1 40481:1 40499:1 
0 0 0 1 1 0 36342:1 40428:1 40446:1 40448:1 40470:1 40496:1 40506:1 
0.3174743987990936 0 0.0003561914064230755 0.2342672512281892 0.9291619105252964 0 19929:1 30035:1 40433:1 40443:1 40448:1 40462:1 40470:1 40484:1 40499:1 40510:1 
0 0.0203948482522379 0.3218901394002853 0.766406716482648 0.7887890978648243 0 5446:1 21399:1 28006:1 33860:1 35518:1 40431:1 40440:1 40457:1 40461:1 40473:1 40484:1 40495:1 40506:1 
1 1 1 0 1 0 40457:1 40466:1 40479:1 40488:1 40501:1 40510:1 
1 0 0 0 0.9645126395882048 0 15448:1 40447:1 40466:1 40479:1 40488:1 40499:1 40507:1 
0 0 0 0 1 0 39780:1 40446:1 40448:1 40470:1 40498:1 40506:1 
1 0 0 0 1 0 40430:1 40448:1 40470:1 40499:1 40512:1 
0 0.2741039062479838 0.3127975613081745 1 1 0 7861:1 40429:1 40444:1 40448:1 40470:1 40498:1 40506:1 
0 1 0 1 1 0 25454:1 40429:1 40446:1 40457:1 40468:1 40476:1 40484:1 
0.2112327866098394 0 0 0.1414685029495184 0.4636455911661932 0 2676:1 15146:1 19247:1 25252:1 29353:1 40433:1 40455:1 40466:1 40477:1 40488:1 40501:1 40510:1 
1 1 1 1 1 1 40433:1 40437:1 40449:1 40462:1 40473:1 40490:1 40493:1 40504:1 
0 0.105911473472546 0.3403838225893684 0.006024930338884479 0 0 19553:1 24606:1 30376:1 40426:1 40446:1 40452:1 40466:1 40477:1 40481:1 40495:1 40508:1 
0 0 0 0 1 0 27126:1 40457:1 40462:1 40470:1 40484:1 40494:1 40508:1 
0.1574049725247354 0 0.7166973357769425 0 0 0.003399389638320762 38241:1 40455:1 40477:1 40492:1 40506:1 
0 0 0 0 0 0.02251936594925459 15533:1 20586:1 39780:1 40435:1 40447:1 40466:1 40477:1 40481:1 40498:1 40506:1 
0 0 0 0 1 0 39780:1 40446:1 40448:1 40470:1 40498:1 40506:1 
0 0 0 0 0.4068630966130595 0 12383:1 22489:1 36911:1 40451:1 40463:1 40473:1 40485:1 40499:1 40506:1 
1 0.3989856343636834 1 0 1 0 40448:1 40470:1 40493:1 40504:1 
0 0 0 0 0.504436803413385 0 25066:1 25454:1 40449:1 40459:1 40473:1 40484:1 40494:1 40505:1 
0.9606220750746343 0.1469533671975495 1 0 1 0.07040632238926696 20005:1 32089:1 39402:1 40455:1 40462:1 40490:1 40495:1 40510:1 
